799 32
1037 -0.15799856 -0.13340604 0.052343972 0.38563153 -0.12343041 0.00011897664 0.20288886 0.31278285 -0.03264973 0.045109984 -0.042531617 -0.08948103 -0.22909772 -0.12528822 -0.13157305 0.270239 -0.07746929 0.13983205 0.013582941 0.39003623 0.274188 0.37725374 0.359292 -0.4027384 0.0981551 0.057464674 -0.33784002 0.043312833 -0.09239914 -0.19576979 -0.08867912 -0.13291685
1007 -0.31142983 -0.53488344 0.11191565 -0.008703511 0.4433516 -0.51202476 0.14262255 0.074315466 -0.43507585 0.31272754 -0.006988866 -0.25526583 -0.15529682 -0.16253367 -0.07449012 0.44531748 -0.24133882 0.44096592 0.074815005 0.1385815 0.45751965 0.09965417 0.07359577 0.054972988 -0.03383954 0.054968975 -0.32464725 0.20775282 -0.07830507 -0.3148856 -0.037427794 0.03138838
1138 0.27289036 -0.36837992 0.24032012 -0.030181851 0.22030011 -0.2498067 0.110210404 0.02313282 -0.13093324 -0.09923111 0.23228186 -0.21632385 -0.10478426 -0.31158936 0.48904395 -0.019749317 -0.25378 -0.18283647 0.33652508 0.25642088 0.5328987 0.4000162 0.49997473 -0.07574233 0.20379186 -0.15392731 0.007758147 0.17031507 -0.12915303 -0.26706842 0.22895281 -0.19667011
1016 -0.071408056 -0.23825397 0.106952325 0.05921308 -0.13165635 -0.24924342 -0.09557853 0.33801228 -0.38403028 -0.1036821 -0.034266677 -0.43176135 -0.060085803 0.04209016 -0.16258992 0.10110808 0.16283432 0.5098368 0.09895645 0.34366924 0.1560508 0.44449747 -0.01169781 -0.22080196 0.1759273 -0.15180364 -0.14243336 -0.18508726 -0.07086047 -0.4248452 0.10334 0.26256797
1105 -0.082130566 -0.20017229 -0.051504 0.20102753 -0.14515239 -0.48767078 -0.044181686 0.05298339 0.018583223 -0.09476897 0.1574652 -0.20847042 -0.22344808 -0.18613419 0.20349187 -0.04993962 0.021631366 0.26696312 -0.0796807 0.3661173 0.60351855 0.28713942 0.05101158 -0.30462208 0.36793175 -0.12565182 -0.36186308 0.20994465 -0.00074047985 -0.24201192 0.013977862 0.08315026
1034 -0.020346012 -0.22031769 0.09518267 0.10249107 0.15830934 -0.19454522 -0.23147161 -0.119005986 -0.09711388 -0.009000162 0.08345074 -0.5820696 0.10887559 -0.3271343 0.24636506 -0.08655347 0.20223372 -0.3394548 0.016390333 -0.069289126 0.16761436 0.4784963 0.596141 -0.35889375 0.4672904 -0.08775944 -0.09661284 0.2153221 -0.17024782 -0.111530766 0.25247136 -0.12890257
1309 -0.25545225 0.100508474 0.041994743 0.20142022 0.024228936 -0.1652147 -0.12949601 0.14150651 -0.47205958 -0.12272736 0.24429077 -0.086038895 0.20627114 -0.49103254 0.15392655 0.46223715 -0.15099475 -0.27492738 -0.25138327 0.3330965 0.19404343 0.27519748 0.025673138 -0.10443782 0.3008471 -0.083242215 -0.31004396 -0.11833942 -0.6297382 -0.11696133 0.12111537 -0.019546367
1079 -0.12411697 0.042586263 0.40779856 0.15759093 0.22715002 -0.23040411 -0.42122585 0.012807017 -0.096776605 -0.18706205 0.08404947 -0.28807887 0.18074465 -0.5719538 -0.17320813 0.21205068 0.21946675 0.19878137 -0.19071737 0.217544 -0.018514182 0.62668264 0.19168513 -0.14777362 0.20755313 -0.03730998 -0.13589247 -0.23994243 -0.34265578 -0.036411107 0.06820125 -0.50091994
1246 -0.34199527 -0.4622962 0.11443457 0.41093728 0.10204855 -0.27195978 0.09899183 -0.005378551 -0.07177603 -0.2962102 0.06988199 -0.5584172 -0.17081608 -0.25082293 -0.09909985 0.030481132 -0.0774292 0.04441374 0.18178889 0.38252673 0.39903498 0.22437288 0.059833094 -0.19315672 -0.29926336 -0.14252701 -0.14439225 -0.08772418 0.0972836 -0.5256079 -0.3045316 0.07526773
1049 0.115911886 -0.46628138 -0.2883613 -0.05533614 -0.06279968 -0.21489468 0.057804484 -0.043501798 -0.010050191 -0.04975763 -0.06494036 -0.058687426 -0.40819064 -0.5763676 0.2932608 0.15041536 0.13358077 0.19319026 0.4570275 0.23938641 0.46435022 0.4502119 0.24213234 0.08224801 -0.14207661 -0.14656566 -0.19340135 0.5263496 -0.17462513 -0.36335322 0.12572357 0.2354047
1147 0.23474759 -0.077801675 0.32369372 0.059820704 0.3512589 0.029906357 -0.039007377 0.06600247 -0.027439477 -0.3696457 0.24415913 -0.467762 -0.27853295 -0.5093295 0.30370685 0.074996136 0.012642821 0.06371872 0.18002196 -0.2026651 -0.1690611 0.45510006 0.17018633 -0.24028042 0.20505476 -0.12343651 -0.1576816 0.17231624 -0.95133543 -0.09082355 -0.29023972 -0.1936597
1023 -0.08340243 -0.36038628 0.20765583 -0.011955635 -0.1739847 0.089649595 -0.24048866 0.23826288 -0.13617818 0.13640164 0.19043495 -0.13944538 0.05751593 -0.16028123 0.27943367 0.20850943 0.27075097 -0.07422506 0.081474 0.53931767 0.13316362 0.5640746 0.114282526 -0.17210585 0.4056615 0.21386246 -0.18941891 -0.119602695 -0.4546845 -0.13487881 0.30664763 -0.2572355
1356 -0.24566016 -0.09398103 0.095730044 0.23302275 0.06435282 -0.13873385 -0.021515356 -0.07008253 -0.23240365 0.17785373 0.46389484 -0.48491806 0.012162574 0.13605493 0.41971537 -0.05901963 -0.20986643 -0.046408046 -0.34643653 0.5512439 -0.28739518 0.61298585 0.20376304 -0.31526497 0.019202255 0.24494179 -0.06668897 -0.0787338 -0.36299253 -0.28767633 0.19934727 0.085096434
1108 -0.20503038 0.12182657 0.089890264 -0.2850387 0.07069206 0.30481675 0.011263409 0.25908273 -0.24253175 -0.22776204 0.18127131 -0.46151033 0.1916818 0.24307202 0.2530011 0.37069649 -0.27886614 -0.33247882 -0.1278506 0.4511332 -0.028757274 0.74179816 0.5417919 -0.037993558 0.04018906 0.13821389 0.031105978 0.10780211 -0.31977218 -0.251656 0.14948863 -0.34149784
1039 0.028408863 -0.1855902 0.48642334 0.039917886 0.23998503 0.12674138 0.2787462 0.1934654 -0.3194669 0.057368755 0.2116518 -0.4464834 0.09539053 0.12287143 0.3499014 0.17608377 0.18152723 0.460807 0.14205213 0.103729285 -0.08956217 0.75300896 0.16430864 -0.034638267 0.23687364 0.23081295 -0.36729795 -0.35141653 -0.517937 0.0043971096 0.17466816 0.024661934
1088 0.28613684 -0.122603476 0.0035898944 0.12408196 0.49575552 0.39992353 -0.039954748 -0.82673705 -0.22139898 0.112743296 -0.054303132 -0.6352304 0.43803707 -0.012867792 -0.015997266 0.32380623 0.37934855 0.034206748 0.06843713 0.91832197 0.04123785 0.14957473 0.10448498 0.019802855 0.16336477 -0.5125006 -0.40399548 0.35804135 0.08228294 -0.3643182 0.051831346 -0.60582787
1076 -0.40567365 -0.24258493 -0.08928553 0.0284062 -0.18573429 -0.0731002 -0.06821985 0.07738283 -0.3671751 0.049888637 -0.005200263 0.06416269 0.2356097 -0.43337342 -0.00092192896 0.60591066 0.29376036 -0.30648935 0.043863464 0.17893273 0.3280118 0.5687297 0.7274635 0.14488778 0.1589697 0.05417381 0.004410292 0.072726846 0.024162896 -0.20902744 -0.012266868 -0.02361275
1004 0.21157317 0.05437139 0.36438385 -0.07843346 0.06606102 0.36207402 0.031553008 0.07734682 -0.35632372 0.003216293 0.3887635 -0.33572102 0.06745849 -0.65809727 0.24595091 0.1311886 0.053271215 0.23026805 -0.44008094 0.1766087 0.43395317 0.2802002 0.68934906 -0.176474 -0.08222491 -0.07919525 -0.08953431 0.06514547 -0.37271908 0.024793334 0.059294123 0.50353515
1184 -0.5809879 -0.17553644 -0.33323187 0.015528424 -0.045249924 -0.17508326 0.19339877 -0.10703684 -0.07354899 -0.13658346 0.07882913 0.1178121 -0.14960906 -0.4306646 0.12401368 0.3600629 -0.18395516 0.12130989 0.4491476 0.564874 0.09046685 0.82416016 0.560488 0.15508296 0.33674997 -0.43833983 -0.15782866 0.39713106 0.06783228 0.23541111 0.40624526 -0.17924152
1310 -0.026735727 0.12519075 -0.058408756 0.14390904 -0.3369327 -0.040928222 -0.5367306 -0.05963109 -0.20273426 0.051162202 0.45187345 -0.16468255 0.18291922 -0.1946367 0.35572195 0.28495198 0.07624577 0.08499922 0.0720953 0.25397003 0.03643507 0.5791362 0.49344927 0.067056954 0.096784525 0.057961415 0.039581303 0.13255222 -0.45221457 -0.22902283 -0.061386384 -0.10586939
1181 0.20670472 -0.21769467 0.25556675 -0.13087341 -0.019872162 -0.18236212 0.21554637 0.056097157 -0.09863908 0.016071051 0.06831075 -0.5291198 -0.28877968 -0.26025578 -0.0033929492 0.16924289 -0.23302412 0.07116101 -0.22545446 0.25990131 0.43759614 0.26217166 0.273843 -0.43364063 -0.117940694 -0.12067668 -0.4027142 0.35282943 0.2504825 -0.44738388 -0.2983949 0.31807706
1327 -0.54724175 0.0832712 0.3428075 0.15505798 0.26854563 0.014516242 -0.39652377 0.20408127 -0.29355225 -0.24078153 0.0062996503 0.08118691 0.48346797 -0.2849203 0.29845393 0.36078796 -0.21417546 -0.0562594 0.19303645 0.5290173 -0.27246016 0.50628054 0.3181622 -0.5215111 0.4721075 0.49889863 -0.07511673 0.0086575765 -0.14501329 -0.014996925 0.2558732 -0.22796734
1199 0.02848601 0.09109829 0.31576648 0.100723594 0.033912327 -0.383845 -0.014011609 -0.5467984 -0.27343413 0.21775171 0.04294723 -0.14681275 0.07076349 -0.08976881 0.26931444 0.36838922 0.041340563 0.022902561 -0.21726389 0.29526907 0.489282 0.55866534 0.23577605 -0.12490783 0.098976426 0.35757163 0.1405361 0.39696112 -0.029033886 -0.29954898 -0.022645894 0.28242695
1099 -0.24940279 -0.11883333 0.28083175 0.044943944 0.0010105594 -0.21815258 0.054759856 0.13700378 0.12090903 -0.27154052 -0.050205123 -0.46483546 0.08914351 -0.1105754 0.05088283 0.42657384 0.5568185 0.052930776 -0.076290965 0.13298154 0.30509123 0.5579749 0.18249756 -0.07527371 0.018944297 0.3227303 -0.26084772 -0.040796656 -0.5022304 -0.22409783 0.312038 0.10789778
1283 -0.17865348 -0.29174477 0.3694572 0.21390851 -0.01970289 -0.14621261 0.05656035 0.21678804 0.09977458 -0.22455537 -0.003385585 -0.12094848 -0.29588315 -0.46948516 0.17864968 0.5135191 0.13529208 0.12587473 0.09712642 0.1487497 0.5262723 0.18491018 -0.13040726 -0.39808327 -0.017441157 0.024903424 -0.28531966 0.26329982 -0.15276483 -0.4410208 -0.09667831 0.21079463
1098 0.020077463 -0.010619071 0.037469592 0.56016654 0.096460484 -0.3975662 0.45641467 0.12689266 -0.39703193 0.15793823 -0.009419441 -0.09983284 -0.026147429 -0.08498474 -0.17302974 0.014139853 -0.13357894 -0.1501966 -0.15745582 0.29369518 0.24079044 0.54025346 0.3099539 -0.29746473 -0.3822449 -0.18233873 -0.38478562 -0.41170582 -0.350265 -0.8449444 0.33566424 -0.21208805
1243 -0.39763883 -0.28698957 0.1650326 0.2488047 -0.032101028 0.16494177 0.10993635 0.21213402 -0.17547473 0.020268021 0.44378763 -0.2000482 -0.31162903 -0.22748856 0.2058449 0.07534253 0.29010093 -0.023662893 -0.31888062 0.098491274 0.18213408 0.3898225 0.20902045 -0.1893674 -0.16694297 0.24690913 -0.46086302 0.2403848 -0.30868042 -0.1875245 -0.29830375 0.16385712
1020 -0.06481111 -0.4916775 0.2025694 0.39270213 0.099671766 -0.113369875 0.17822589 -0.06563605 -0.18214716 0.34540397 0.32735488 -0.26314226 -0.28817752 -0.35149375 0.4790968 0.056764703 -0.12081447 0.018148197 -0.004479522 0.25083542 0.25347376 0.38851503 -0.043589626 -0.49719965 0.29439014 -0.12631817 -0.2252006 -0.006309168 0.24315408 -0.36303198 -0.23469429 0.36216885
1084 -0.2021106 -0.30425876 0.1874705 -0.08693197 -0.012611483 -0.10338856 0.23115215 0.49365708 -0.050674763 0.002983015 -0.13461658 0.008549838 -0.35921073 -0.2894096 -0.26392338 0.44611603 0.3305039 0.8009762 0.02571629 0.3319919 0.4262486 0.3934756 -0.2309639 -0.585606 0.13112345 0.09018313 -0.17371944 0.16206844 0.08080754 -0.13512947 -0.5336003 -0.08338454
1172 0.26945707 -0.12949099 0.32494128 0.12792592 0.366767 -0.4124117 -0.027487595 -0.1288546 -0.2444788 -0.27782953 0.649812 0.088812485 0.33079648 -0.4015393 0.047636244 0.4921316 0.16480538 0.16670597 -0.28082567 0.20099698 0.23567803 0.4017744 0.13381943 -0.0047640386 -0.10596233 0.1742291 -0.41402096 -0.20252365 -0.7453039 -0.12221947 0.47981837 0.2514587
1276 -0.13526848 -0.18704738 0.19176729 0.036711343 0.09586949 -0.21829696 -0.030469628 -0.13636623 0.31964883 0.023279792 -0.1112691 -0.30760488 -0.07287006 -0.22720003 0.44110596 0.2836014 -0.018398535 0.19587004 -0.25877562 0.5389544 0.65128446 0.20931831 -0.019116292 -0.38559678 0.10949427 0.059936333 -0.3360786 0.23847283 0.15218557 -0.34522092 -0.24188454 0.06912875
1075 -0.26125953 -0.011975446 0.22144744 -0.25547227 -0.023636522 0.37412477 0.13046637 0.30881938 -0.23145577 -0.21355581 -0.029101983 -0.32703942 0.18406844 0.006997127 0.28224742 0.41318753 -0.11877867 -0.16138378 -0.04312684 0.46619353 0.4441729 0.37067294 -0.18051763 -0.19533363 0.59468836 0.15005209 0.08514686 0.40607014 -0.10953089 -0.6787003 -0.31700176 -0.11128918
1377 -0.5463761 -0.20735466 -0.13365047 0.64127296 -0.18471558 -0.0048980243 -0.045647953 -0.20937094 -0.026041023 0.023581572 0.5309042 -0.08268478 0.3067263 -0.29464862 0.24864747 0.18645148 -0.33180064 0.14447185 0.06486753 0.24824205 -0.22290076 0.761815 0.15325549 -0.5497886 0.21497145 -0.38790655 -0.047552235 -0.079432175 0.021113949 -0.2608031 0.37980914 -0.27315834
1201 -0.26950508 -0.6291622 0.0352945 -0.31094548 -0.10143436 0.002911667 0.13615382 0.22792417 -0.27997568 -0.12592342 -0.21270269 -0.07066457 -0.056245938 -0.2958062 -0.31183872 0.4075769 0.23246078 0.2033773 0.029178657 0.05166777 0.5533738 0.39905918 0.14553504 -0.36204544 0.033139355 -0.08429594 -0.5831533 -0.21752419 0.10465656 -0.42684034 -0.11355909 0.21388578
1149 -0.28920284 -0.062061183 0.16935228 -0.25667688 -0.14551808 -0.051710997 -0.07450391 0.05776065 -0.28074008 0.032227952 0.18147612 -0.36866093 0.042575695 -0.110745914 0.07593511 0.0025341343 -0.12585913 0.05624739 -0.19677866 0.27940845 0.41066423 0.4769295 0.46325952 0.01680393 0.17486997 0.17564824 -0.029465156 -0.10431619 -0.50207055 -0.41433087 -0.20516364 -0.1856413
1072 0.080593444 -0.27198976 -0.07279372 -0.13793136 -0.07249103 -0.38404018 -0.23391002 -0.12781605 -0.55040187 0.23164636 -0.00424654 -0.41281158 0.03411049 -0.57481086 0.5600284 0.59791505 0.25660723 -0.34400412 -0.29645932 0.051588893 0.43183345 -0.09564406 0.07689204 -0.26220232 -0.08222465 0.05181938 -0.32056737 0.68617135 -0.088413484 -0.040535606 0.21878003 -0.46778223
1220 -0.18206021 -0.22550046 0.24602453 -0.3432941 0.51640964 0.16765621 -0.099827185 0.36372605 -0.4844598 -0.20110533 -0.018398954 -0.08352223 0.29386488 0.5043459 0.49315956 0.27812275 -0.4127156 -0.4384439 -0.00707879 0.62940955 -0.20392351 0.86544627 0.59971714 0.022275126 -0.263763 0.29121026 -0.37471262 -0.033296257 -0.001712168 -0.4778612 0.47782448 -0.30911714
1426 -0.37438428 -0.6028228 0.2234397 -0.33653632 -0.12244863 0.5885381 -0.33616856 -0.31299922 -0.55995464 0.03686293 0.0533478 -0.24837027 -0.31178415 0.18985818 -0.5201422 -0.12352002 0.20084058 0.09655397 -0.15797782 0.34740636 0.2262416 0.47308317 0.28002334 -0.43581378 -0.2532715 -0.24752179 -0.5931488 0.35838562 0.034142222 -0.4422185 0.3509364 -0.7183682
1133 0.14387849 0.117438085 -0.4539871 0.48598573 0.6188345 -0.1255129 -0.21130395 -0.13011494 -0.10576974 -0.076997705 -0.2603082 0.016134428 -0.7538541 0.39230728 -0.23544371 0.76346236 0.49626756 0.46783704 -0.058660775 0.029224366 0.3573516 0.31851888 0.5900336 -0.802815 0.011051398 0.242029 -0.12188139 0.19964781 -0.011487165 -0.17450543 -0.5810353 0.118057124
1676 -0.12992251 -0.18260537 -0.35009244 0.004014094 -0.025421543 0.17475443 -0.32664472 -0.24750987 -0.3259052 0.3095095 0.07737032 -0.075794935 0.37068465 -0.6071586 0.11710515 0.19155107 -0.08216109 0.083708234 -0.002831121 0.15944798 0.63028973 0.37649453 0.6880518 -0.15734074 0.24011956 0.22566049 0.4008946 -0.0022284014 -0.14399545 -0.16785215 -0.18621235 -0.2808309
1068 -0.3170608 0.04838602 0.14923035 0.38169459 0.08588589 0.045765504 0.08878894 0.41256547 0.06175062 0.5131505 0.25246537 -0.30768612 0.15986219 -0.45357832 0.28807798 0.5936732 0.40356135 -0.45416465 0.43760338 0.034570273 -0.078467086 0.5951205 0.4795544 -0.17563127 0.13751388 0.3497991 -0.13551673 0.022069084 -0.42770723 -0.48953792 -0.051383138 -0.14565112
1189 -0.24009882 -0.044807278 0.2533619 -0.08524898 0.18918191 0.01663623 0.08866919 0.31152496 -0.3992528 0.14894262 0.60784113 -0.3163694 0.24742885 -0.32976943 0.26219928 -0.060395014 0.03813323 0.19877426 0.046923876 0.40588698 -0.14844292 0.6885058 0.5092188 0.16080073 0.36148772 0.2377421 -0.17250486 0.18068673 0.060959242 -0.020046726 -0.007736871 -0.33414832
1103 -0.034903556 -0.27465102 -0.26655176 -0.5074039 0.18917398 0.027304882 0.011592592 -0.007843342 -0.46854407 0.018439673 -0.30153787 -0.0024243568 0.62819916 -0.4072228 0.0865726 0.2042694 0.6705177 0.90540427 -0.45301777 -0.088795766 0.18800169 0.7820803 -0.13053127 -0.87704575 -0.10672052 -0.2159956 -0.17177977 -0.81635493 0.023515724 -0.39550006 -0.0138197085 -0.060026262
1139 -0.47567376 -0.3692627 -0.6962603 -0.3565563 0.07810131 -0.4245187 -0.31553346 0.5686052 -0.7090336 0.24837753 0.26539093 0.0030154025 -0.52283657 -0.08044469 0.46726018 0.78141516 -0.49019605 0.2390997 0.45294794 0.04710558 0.22175433 0.36494192 -0.16792898 -0.41087595 -0.1019379 -0.3047069 -0.67241627 0.23316458 0.451269 0.098781474 -0.04265211 0.12459293
1136 -0.13966729 -0.73480403 -0.042278353 -0.45022926 -0.3548811 0.019440934 -0.1541958 -0.2702013 -0.144946 0.22081016 0.18737781 -0.29797906 0.067674674 0.08241988 0.079399586 0.3075368 0.024834955 0.23822416 -0.17628215 0.43440372 0.54766405 -0.24732853 0.39603007 -0.64161193 0.30514577 0.1302852 -0.2968533 -0.0001664819 -0.2812222 -0.49971613 -0.2739335 0.14526199
1112 -0.011893449 -0.73237324 -0.26754963 0.711445 -0.16197397 -0.093351975 -0.42384157 0.55262846 -0.3415571 0.13235709 -0.31115645 -0.6561772 0.17643629 -0.48616436 0.48267475 0.352261 0.279941 0.009723242 -0.05743132 -0.053231858 -0.30290335 0.3650692 0.5883011 0.2561642 -0.25432837 -0.07076586 0.15186359 0.64109045 -0.13233823 -0.3983693 -0.12771878 -0.4286848
1224 0.10008904 0.03421833 0.29150605 0.041408084 -0.020354798 -0.16521432 -0.17193536 0.13419203 -0.03651222 -0.079907954 0.024000663 -0.31902048 -0.05553658 -0.20582531 0.2713345 0.012316391 -0.001763674 -0.13938262 0.29384303 -0.08179915 0.20887204 0.7736562 0.37302247 -0.23340729 0.5171578 -0.17436472 -0.4065155 0.072584264 -0.5851299 -0.03629274 0.13439287 0.3086487
1140 0.27117416 -0.06040824 0.2072783 0.2703242 0.271126 -0.51134694 0.19915546 -0.47161704 0.1141724 -0.12268193 -0.27109146 -0.12766407 -0.47884178 -0.04970647 0.40407753 0.42642164 0.25489435 0.524982 0.1463589 0.08337627 0.4190927 0.35341695 0.7138762 -0.60161453 -0.030407315 -0.09548778 -0.20113914 0.16609491 0.36678 -0.16734402 -0.40630645 0.3093713
1584 -0.5736273 -0.08250817 -0.13736895 0.16259326 0.20346932 0.05381764 -0.36902004 0.0693328 -0.36601114 -0.2644681 0.327473 -0.3349831 -0.14309004 -0.18911627 -0.1185975 -0.09208195 0.024336495 -0.020536594 0.24700384 0.41298252 0.65516907 0.038645852 0.2857749 -0.080125086 0.46160606 -0.07341961 0.011773873 0.26900277 0.0718916 -0.48580992 0.112469144 -0.105615705
1433 0.152433 -0.26452613 -0.06561494 0.37993014 0.037899863 -0.11781638 0.10469959 0.7437954 -0.023091855 -0.069393314 -0.29612696 -0.45075333 0.13834648 -0.3969366 0.30471694 0.119890794 -0.13318524 -0.079519905 0.31718263 -0.1550386 0.66130096 0.5057856 0.12749323 -0.24741578 0.07761332 -0.14359744 -0.7549513 -0.08350095 -0.09245814 -0.3576645 0.2515026 -0.14042987
1040 -0.64119256 -0.17197303 -0.048816025 0.5455491 0.44279858 0.113038 0.08095126 0.08831303 -0.35188636 -0.345997 0.093432255 -0.08765813 -0.46795502 -0.23759715 0.2939222 0.23306571 -0.15076508 0.06579214 -0.66381675 0.1942687 -0.18264711 0.55017555 -0.17015529 -0.24552943 -0.124803364 0.11011372 0.18178548 0.30103225 -0.35365734 -0.093151696 -0.5162476 -0.46865508
1074 -0.41643685 -0.32989407 0.08297386 0.016909292 0.2999635 0.072196774 -0.062272035 -0.28678426 -0.29352465 -0.19027655 0.021514518 -0.32073015 0.17212859 -0.22116807 0.0047850385 0.3173867 0.25302798 -0.21177141 0.24573249 -0.017602481 0.014583955 0.8213161 0.6438371 0.105603985 0.5009431 0.51756376 -0.3468936 -0.24317585 -0.1691041 -0.05019869 0.26815352 -0.046728764
1011 0.018001305 -0.40838367 0.12277705 0.19505478 0.55120075 -0.30343363 -0.05089008 0.27367422 0.11880706 -0.14905153 0.48935175 -0.29380757 0.13949652 -0.4582945 -0.09321021 0.4038089 -0.0017493814 0.34078208 0.006287521 0.5292194 -0.001981231 0.3193127 -0.30032578 -0.5234345 0.14145477 0.59552276 0.24428733 -0.3139246 -0.5198334 0.17562258 -0.08381494 -0.61049765
1523 -0.055598248 -0.22005922 -0.17143667 -0.04651314 -0.26864034 0.25725126 -0.6086136 -0.07543148 -0.51412386 0.19962993 0.45979598 -0.3139165 0.57351565 -0.56121176 0.2847803 -0.044475544 -0.11507896 -0.024993611 -0.024601638 0.61823684 0.40706176 0.15884201 0.4523272 -0.34912676 0.014678131 0.30771735 0.19413225 0.08044407 -0.20105803 0.24426903 -0.24380557 -0.50556207
1002 0.0050992565 0.054615963 -0.16804352 0.34624988 -0.005480308 -0.005339894 -0.5802004 0.07495284 -0.15381788 0.55572337 0.43995264 -0.666219 0.10325372 -0.6071377 0.5578527 0.36466217 -0.0908411 0.047877237 -0.07218372 0.33288762 0.010788838 0.26588047 0.25305003 -0.106374845 0.24825747 0.2986266 -0.32600856 -0.10204641 -0.17947713 -0.14940242 0.2808525 -0.42859846
1570 -0.26859882 0.015543724 -0.5057584 -0.13766585 -0.20329016 -0.004203982 0.13092406 0.075207174 -0.12571499 -0.18810745 0.54325855 0.068013474 0.01986644 -0.28121993 0.2183674 -0.09624859 -0.24970856 0.22802705 0.55913144 0.6365386 0.25676045 0.8173635 0.5154419 -0.085062414 0.33389223 -0.67905635 -0.49014544 0.4850707 0.2703385 0.22229736 0.3045964 -0.37540737
1089 -0.27303553 -0.06056016 0.32599142 -0.00025631092 0.04272321 -0.14278284 0.09944833 -0.14561673 0.20323369 0.032539576 -0.087609395 -0.6652327 -0.044532806 -0.31896728 0.35106286 0.18277363 -0.07372408 -0.29660454 0.064684115 0.28186497 0.29798487 0.4969212 0.5860653 -0.07343944 0.35867336 0.1625891 -0.36560926 -0.061621875 -0.62751424 -0.17276321 0.007953635 0.3912195
1340 0.0596819 -0.08994558 -0.02466869 0.075837284 0.05462855 0.06253423 -0.2751426 0.3551352 -0.30139753 -0.07134422 -0.14863548 -0.26657766 -0.26684973 -0.5005361 -0.12105236 0.30457917 -0.23448008 0.06013432 0.7301762 0.46425465 0.6110325 0.3410303 -0.44920337 -0.19446406 -0.21586649 -0.018586835 -0.7015654 0.32818428 0.15828902 -0.30738088 -0.22671843 0.093401924
1050 -0.3845244 0.02465724 -0.08221302 -0.22993313 0.48725906 -0.27802646 -0.40182936 0.5085118 -0.7726591 0.6460363 0.32657826 -0.3766226 0.119706646 -0.052762736 0.00047244132 0.69420546 -0.40249708 0.68814063 0.2513605 -0.0025475386 0.31733644 0.2775254 -0.2092414 0.23063475 0.24773464 -0.044711467 -0.71406275 0.4593151 0.006355934 -0.39398482 -0.2379477 0.12324298
1769 0.328248 -0.4933916 -0.094671465 0.029928677 -0.1521772 -0.18804385 0.54489744 0.033806033 -0.3720442 -0.048679452 0.34559718 -0.46160865 -0.24502465 0.07769845 0.13535485 0.22795044 -0.059860244 -0.050771844 0.104075976 0.2566039 0.90265477 0.1563001 0.28360367 -0.6190966 -0.08080989 -0.031491328 -0.0021564576 -0.12364965 0.2515507 -0.098418094 -0.42483094 0.17800373
1126 0.20007405 -0.0791867 -0.35621572 -0.38612348 0.06840152 -0.057449766 -0.113226905 -0.47157604 -0.26239142 0.16765606 -0.46844262 -0.08117821 -0.064763494 -0.09420612 0.08816817 0.45679724 0.22530693 0.5985937 -0.062446676 0.016354779 1.0162581 0.44881076 0.37708 -0.59585106 -0.23986214 0.3360092 0.08014079 -0.2591082 0.03504176 -0.15569486 -0.648594 -0.16549431
1326 -0.33130983 -0.35314715 0.14771819 0.8085902 0.028557641 0.1600394 -0.32331803 -0.25639647 -0.37150753 -0.2569194 0.057386808 -0.2547791 -0.1538808 -0.07573949 -0.1415386 0.05756013 0.088297635 0.26841897 -0.0010668236 0.20612498 0.07365118 0.53382975 0.53014 0.07331065 0.09280256 0.055977866 -0.3544524 -0.6103155 -0.31575075 -0.3231757 0.1806715 0.092805095
1137 -0.49601227 -0.09365232 -0.78212154 -0.18343806 -0.27336818 -0.005087396 0.07701105 -0.44579244 -0.5928801 -0.41180378 0.35122344 -0.13252482 0.053177167 -0.5164632 0.26868877 0.5268874 -0.19228053 0.22992247 0.30794466 0.54066104 0.092101134 0.7655729 0.6931554 0.23424132 0.123122 -0.4383878 0.054802727 0.6280901 0.20510669 0.35252395 0.5988305 -0.33895347
1390 0.6468091 0.20083934 -0.3023935 0.4717814 0.60746497 0.066543825 -0.203896 -0.2599967 -0.18532409 -0.3283252 -0.1778318 0.052629042 -0.65554655 0.30199963 0.39776886 1.0457951 0.31483874 0.46882933 0.017985623 0.24156304 0.50790226 0.3520599 0.5413882 -0.6443684 0.2864845 0.24769428 -0.40880945 0.12610175 -0.017650662 0.15949343 -0.7670434 0.18594941
1035 0.2525268 -0.2516462 -0.2799344 -0.33068427 -0.07246926 -0.3048064 0.031867836 -0.47609535 -0.31205285 0.017412364 -0.43693084 0.020223549 0.39037225 -0.22314018 0.23728895 0.51369286 0.1264043 0.5660757 -0.03569098 0.03727198 0.899041 0.27334177 0.27756998 -0.596735 -0.12933795 0.0755413 0.04206612 -0.29886317 0.14849699 -0.5850486 -0.54849094 -0.010746818
1328 -0.60991275 -0.065274194 0.21141823 0.023068571 0.35158312 0.19889063 0.11049632 0.06352378 -0.054823827 -0.08282012 0.41199604 0.16365863 0.06275621 -0.13212527 0.23306713 0.8852477 0.27792665 -0.28935045 0.41920784 0.36381954 0.09174001 0.60978544 0.66729254 0.2685026 -0.277423 0.33601615 -0.5587553 -0.25834745 -0.30803543 -0.118092105 0.09755176 0.061664354
1101 0.082817815 -0.42418933 0.22711834 0.10959729 0.103751265 0.1434637 0.09216513 0.31175008 -0.6064724 -0.173874 0.18222134 -0.20984146 -0.17012358 -0.3429433 0.0009521596 0.4861578 0.0004346942 0.22073807 -0.2490211 0.47612134 0.3121506 0.101508215 0.38407046 0.2653696 0.13660675 -0.11651389 -0.11279013 -0.020816848 0.1517217 -0.5620266 -0.21114722 0.46533805
1056 -0.30017668 0.32041878 0.1879185 -0.44105637 -0.068439074 0.20764661 -0.18115653 -0.035873845 -0.39203486 0.100899726 -0.09595969 -0.07133882 0.11801706 -0.11150606 -0.052036066 0.29034632 -0.24579132 0.30618072 -0.10285513 0.2659831 0.5783211 0.70161176 0.5961196 0.13219199 0.37047344 0.37904444 -0.12638171 -0.37655312 -0.5196629 -0.34616193 -0.31077915 -0.2343455
1449 -0.5670481 0.5332844 0.196129 -0.07885215 -0.1651077 -0.10704729 0.09026637 0.37931687 0.03542812 -0.25553885 -0.052447237 -0.5241981 0.13916045 -0.19017091 -0.19575383 0.023627384 0.0904607 0.5482417 -0.20663415 0.5017686 -0.018432474 0.43202114 0.45667 -0.42735377 0.16387996 0.25222158 0.07650051 -0.05713733 -0.8081307 -0.22554857 -0.16341993 -0.08473273
1412 -0.41086036 -0.23007761 0.0075983424 0.012403386 0.36741492 -0.1334976 -0.20858246 0.43300948 -0.45732558 0.030175082 0.08505628 -0.23589069 -0.47975954 -0.36830458 -0.31861407 0.23837867 -0.04393771 0.46571752 0.18676113 0.26045972 0.51357585 0.18074527 -0.0906428 0.059381913 0.22573993 -0.05483353 -0.6855843 0.44403017 0.32707122 -0.6433681 -0.445616 0.48812407
1159 0.24184757 -0.08833516 -0.32146066 0.4361429 0.7606676 0.36067536 -0.48362383 -0.09639292 0.089270346 -0.17800406 0.015646318 0.11508016 -0.80885285 0.011000587 0.48255908 0.36687547 0.23508076 0.40691906 0.24643227 0.100001395 0.4146794 0.50919676 0.46062836 -0.4567064 0.11555049 0.19285081 -0.15641387 -0.17399573 -0.23998788 0.017263988 -0.5655296 0.28210324
1282 0.06734982 -0.19884916 -0.22202809 0.078371994 0.24572341 -0.19219705 -0.44003645 0.49714252 -0.56475484 0.7006215 0.29731718 -0.57633746 0.37340498 -0.6252801 0.09260079 0.37529907 0.5230885 0.26042265 0.002156192 -0.275245 -0.0732505 0.34073314 0.5800872 0.16986293 0.22455214 -0.18579125 0.104922995 0.47320932 -0.34297228 -0.048047744 -0.21224949 -0.06125954
1264 -0.14539167 -0.027539637 -0.16987628 0.23164238 0.026242793 0.09172963 -0.20166548 0.21151982 -0.59735864 0.48560086 0.33393124 -0.5323065 0.20474632 -0.16298589 0.3767417 0.08819442 0.14352435 0.25041524 0.22107457 -0.44505888 -0.20972037 0.790432 0.12992866 0.12367169 0.18588707 -0.12677333 0.1380102 0.58979875 -0.7734181 -0.39849886 -0.08869378 0.12674405
1134 -0.045985486 -0.4339663 -0.07662199 0.37684995 -0.11550922 -0.13984753 -0.30056876 -0.1469778 0.064795986 -0.30793157 -0.1830513 0.031374104 -0.661263 -0.09016063 -0.44550973 0.3348984 -0.25792307 0.50644803 -0.35796753 0.121052295 0.5307637 0.38760334 0.23723342 -0.15624526 0.52360463 -0.2589371 -0.06826085 0.31528407 -0.32159072 -0.5208401 -0.16456413 -0.21436967
1780 0.3592806 -0.2705944 -0.47656888 0.099708 0.1355805 -0.17446543 -0.20096332 -0.24423884 -0.027123936 -0.28759184 -0.23473519 -0.49386534 -0.5876714 -0.03636687 0.29380357 0.47795936 0.14603624 0.5744548 0.110244945 -0.14291286 0.37560293 0.6767692 0.07782645 -0.3171597 0.40333804 0.5782636 -0.43390924 -0.0063953144 0.21659014 -0.06660629 -0.42233655 -0.038102448
1545 -0.042978823 0.18067427 0.44682637 0.108816296 0.30431724 -0.19533847 -0.63808894 -0.5411411 -0.3169795 0.085338436 0.044607263 -0.63074595 -0.048511352 -0.14481533 -0.37616 0.09419254 -0.05652612 -0.2677859 -0.30529872 0.4128874 0.3009305 1.0518588 -0.2558776 -0.25032628 -0.9232279 -0.35177815 0.13688514 0.32213634 -0.32379925 0.029899498 0.3193382 -0.09158585
1093 -0.114969745 0.09589008 0.30133584 0.37877974 -0.07644012 0.008138406 0.13185225 0.0712354 -0.0077789137 -0.42539954 -0.39571702 -0.09556866 -0.23735149 -0.11408349 0.5213566 0.4134463 0.25894988 0.28641436 -0.034430545 0.20617405 1.1466856 0.13457887 -0.13299662 -0.59477764 0.4010958 0.13047326 -0.16341732 0.34933916 -0.050717406 -0.18881801 -0.07434251 -0.14209549
1443 0.06017591 -0.034255043 -0.18494396 -0.13313411 0.2583786 0.19189098 0.2913757 0.051727705 -0.6034173 0.23033819 0.34449187 -0.44344547 0.14184879 0.008893282 -0.22684735 -0.1861069 -0.23958752 -0.18409541 0.022849165 0.40582758 0.39095187 0.56609553 0.4586104 -0.1473524 0.36302927 0.07171932 0.22488028 -0.22122371 -0.9520248 -0.16021836 0.29208642 -0.709862
1471 0.043623094 -0.13389653 -0.3518302 -0.22523668 -0.4327925 -0.03698913 -0.24164674 -0.031395435 -0.25069302 -0.027345354 -0.02637653 0.1976221 0.4313165 -0.114284195 -0.0008983844 0.30818123 0.12114067 0.42029738 0.027940156 0.09428865 0.7914131 0.50520885 0.37817225 -0.56270695 0.09950391 0.122343466 -0.057928246 -0.38105312 0.078595705 -0.41207245 -0.9011998 -0.12422576
1396 0.82249284 -0.06537771 0.1562584 0.32422107 -0.06418375 -0.09979155 -0.111056834 0.38361228 -0.4429477 -0.66464615 0.23723158 0.14810127 0.44113606 -0.603697 -0.055898402 0.01647486 -0.19699715 -0.11097438 -0.4644409 0.38786075 -0.67023265 0.9298482 0.19733372 -0.6532891 -0.56728613 0.5873841 -0.15394574 0.9114986 -0.17822133 -0.7440565 -0.098158844 -0.2561342
1217 0.53534716 0.029885095 -0.040716793 0.6089676 0.3099318 0.11609769 -0.21476834 -0.55026376 0.2419452 -0.07871724 0.013454477 -0.011465497 -0.15041965 0.32465157 0.69653904 0.63115305 0.13787639 0.5604256 0.119214825 0.37569374 0.64266366 0.3088477 0.41285568 -0.5299862 0.18121228 0.23433161 -0.39379832 0.28121334 -0.11844217 0.10333893 -0.8171636 0.13300745
1001 -0.19402829 -0.7704528 -0.25801373 0.021051796 0.22847807 -0.40192685 0.41798094 0.2590609 -0.11753815 -0.2796186 -0.10846766 -0.14819494 -0.34881637 -0.5086765 0.19611417 0.019077789 0.056291062 0.22872344 0.2442991 0.14261515 0.5557603 -0.20845063 0.43948352 -0.5121673 -0.20522234 0.16792569 -0.05390763 0.28318363 -0.12904072 -0.44184813 -0.3443618 0.07588282
1235 0.6948396 -0.067011826 -0.06519575 0.49264154 0.40863198 0.17459275 0.04963933 -0.1617391 -0.5154299 0.013962981 0.052882668 0.34509 -0.3539034 0.078775026 0.6229327 0.5052921 0.09766395 0.29524875 -0.29599634 0.47484955 0.74418277 0.4715169 0.31487298 -0.1617767 0.34903985 0.06241474 -0.13698657 -0.2604282 0.22166915 -0.32802153 -1.0456932 0.13013288
1071 0.024429312 -0.09721676 0.17273751 -0.098681875 0.46005842 -0.88090324 -0.236735 -0.18469688 -0.8204426 0.53595966 0.584218 0.009737597 0.38358217 -0.103053585 0.09576625 0.6582315 -0.05959198 0.18091255 0.24447128 -0.058879327 0.54680485 0.5246945 -0.09509643 0.16249448 -0.14617366 0.3594192 -0.60009956 0.818621 -0.08715586 0.22431886 0.25681996 0.122422226
1033 0.43126148 -0.17530878 -0.3700067 0.9186891 0.30700177 0.2142661 -0.13873126 0.1592065 -0.13187826 -0.44147104 -0.18209518 0.0724312 -0.42744803 0.12695678 0.14453512 0.12321722 0.07009121 0.74814266 0.042903893 0.1793135 0.70071703 0.36054832 0.5830328 -0.25307626 -0.0067047295 0.23550515 -0.3554546 0.023442164 0.013654374 -0.17102495 -0.27027553 -0.012807288
1128 -0.5389868 -0.27287173 0.0393785 0.07860468 0.19895975 -0.43138438 -0.9062905 0.18123578 -0.44925392 -0.5003633 0.54676545 -0.3333948 -0.13063207 0.033226896 0.11015501 -0.009730381 0.28095025 -0.11919097 0.14690264 -0.055757616 -0.3178845 0.35282707 0.19940649 -0.7509034 0.08457494 -0.30777317 0.056840938 -0.007090368 -0.07436431 -0.38052183 0.22645055 -0.40776673
1305 0.3272601 0.34457475 -0.32896972 0.506542 0.6511344 0.38260657 -0.22491395 0.36163098 -0.012783398 0.081749 -0.27810445 0.15529817 -0.7929274 0.084407456 0.33073756 0.57113063 0.28665212 0.5191613 0.33116788 0.15767175 0.7283915 0.50857425 0.5855107 -1.0057704 0.17057733 0.60177183 -0.27009857 0.061943762 0.08470657 0.07968065 -0.61953634 0.06413501
1205 0.04496795 -1.0911571 -0.4196306 0.18371564 0.39692724 -0.81839335 0.09249361 0.083005555 -0.9259601 -0.9105749 0.08582768 -0.9230995 1.0808086 0.7910064 -0.39472073 0.20488195 0.43109816 2.1571655 -0.83246875 1.5121337 0.47791338 0.60188043 0.5521008 -1.7173406 0.21858372 -0.96080977 0.20171894 1.1442971 -0.3990461 0.5309585 -0.5985604 1.0674484
1065 0.7471357 -0.018799929 -0.89028186 0.2674909 0.77325445 0.25707775 0.062057033 -0.18648364 -0.2590408 -0.45171303 -0.059200052 -0.16431086 -0.27377144 0.6562816 0.22976832 0.77347076 0.21739857 0.08529786 0.26083878 0.13481486 0.90121186 0.28015065 0.2745893 -0.6359248 0.25242177 0.10715716 -0.93561167 -0.20699702 -0.2283161 -0.13679618 -0.87820077 0.2415133
1419 -0.10562075 -0.4306145 -0.26856118 -0.054037616 0.264049 -0.5521701 -0.13125122 -0.20787616 -0.03666117 -0.09272024 0.04600866 0.0003630223 0.19835737 -0.26770264 0.08269071 -0.055976648 -0.31319717 0.19456027 -0.20778194 0.15591216 1.2532244 0.26705134 0.3533406 -0.17682607 -0.15020815 0.26877186 0.050854594 0.1436623 0.023912163 -0.54922956 -0.18486245 0.10326986
1027 0.2942679 -0.5665673 0.00014612202 -0.011658271 -0.41670275 0.077490285 0.28532475 0.33218238 -0.95287645 0.09748215 0.3229072 -0.47569242 0.1323083 0.23037416 0.33824697 0.17294285 -0.5624465 -0.57924455 -0.13562913 0.4521701 0.5807622 -0.10229488 0.36305434 -0.7627799 -0.055278987 0.3654924 -0.25271064 0.25748837 -0.47407648 0.2840015 -0.29648075 -0.30973214
1845 0.07567274 -0.4941247 0.40775242 -0.5152516 -0.1227472 0.40799075 -0.5870553 0.2890893 -0.0420697 -0.18290745 0.16750166 -0.25891146 0.45913762 0.09168585 0.7342159 0.64485574 -0.20068793 -0.12372464 0.05283638 0.72800404 -0.32775173 0.19589159 0.68758124 -0.55936193 0.0064112684 -0.07897325 0.0996579 -0.052874763 -0.42510343 -0.8724922 0.39501968 0.2989068
1370 -0.50076216 0.62058085 -0.32993907 0.16029862 0.45822915 -0.23395184 0.19630702 0.042983156 -0.7099313 -0.0257514 -0.16580218 -0.053838696 0.008977749 -0.0044319844 0.6497062 -0.08745409 0.47065735 -0.12232919 0.006505166 0.6541645 -0.06649287 0.581168 -0.2705235 -0.34261933 -0.08027247 -0.6625493 0.51271725 0.28314817 -1.0829827 -0.811637 -0.16068964 -0.32293075
1222 0.25247204 -0.20906955 0.12444861 0.24995807 0.45345 -0.6723625 -0.34530908 0.35648558 -0.33427098 0.10548585 0.48420304 -0.111945406 0.44406164 -0.4935451 0.27125236 0.5189159 0.5519802 -0.18125108 -0.14751308 0.06313705 0.43289965 0.5648406 -0.13518421 -0.11005991 0.10995419 0.32652736 -0.34755433 0.045205157 -0.3458425 0.30947635 0.6862571 -0.008638933
1010 0.16135946 -0.0067003854 0.31073034 -0.0045385696 0.6385387 -0.39973283 -0.42354712 -0.45863605 0.26939657 -0.3315713 0.20730782 -0.7687293 -0.17317595 -0.5874762 -0.1204383 -0.026531642 -0.041325625 -0.49544704 0.3151361 0.1778451 -0.09046641 0.8419952 0.41186133 -0.43691444 0.49174568 -0.10821119 0.15335867 0.02871387 0.036144443 -0.039673366 -0.4018673 0.41729245
1060 -0.49772543 -0.015571175 -0.17995022 0.6299049 0.41642076 0.07020528 -0.41759208 -0.24175063 -0.56789 -0.25697842 0.5831553 -0.5294806 -0.09065387 -0.16871914 -0.19358774 -0.10062265 -0.09986169 -0.0638101 -0.04794478 0.12431573 0.0011421947 0.51394737 0.19815667 -0.16030018 -0.6966037 -0.32401633 0.13307056 -0.4681122 -0.71490204 -0.56243545 0.016503057 -0.106219836
1272 0.04154084 0.019498013 0.43850273 0.2218402 0.025805201 -0.15883233 0.23731549 -0.104198754 0.043054838 -0.27060014 -0.27110392 0.0775292 -0.08309538 -0.035707127 0.60735065 0.40105972 0.35892877 0.276142 -0.35345402 0.23080888 1.0101075 0.24548198 0.015917614 -0.6570843 0.31003425 0.119730294 -0.11123072 0.6788456 0.23937494 -0.12638076 -0.23246655 -0.25429836
1158 -0.09614574 -0.4747271 0.025478812 0.2747712 0.034672458 -0.34351426 0.43481272 0.21433288 -0.16003145 0.0070570256 -0.101891905 -0.086057745 -0.32521492 -0.37657997 -0.0046893633 -0.0065857 -0.2809159 -0.03121343 0.0042608497 0.4024545 0.64896744 0.2780586 0.3170097 -0.44244316 -0.40887585 0.06313847 -0.339694 0.06985623 0.24290094 -0.5742022 -0.38463873 0.26818904
1439 0.4951989 0.021964338 0.21444158 -0.02938561 0.25572407 -1.0477315 -0.29856515 -0.23195909 0.18867525 0.3177566 0.15148212 -0.4254174 0.032639463 -0.31126675 -0.052931145 0.05485225 0.18867122 -0.53416735 0.35010204 0.3445506 0.49813837 0.7555725 -0.003936491 -0.9574344 0.29250014 -0.2609884 -0.118239075 0.031466536 -0.09962347 0.10903871 0.3280826 0.48655638
1073 0.10911552 -0.279269 -0.236023 -0.059634227 -0.33666041 -0.19204374 -0.116049655 -0.5006588 -0.27026802 -0.021704942 0.02922021 -0.049608 0.3297666 -0.21889184 0.15497275 0.3381622 -0.007970496 0.3109569 0.088599026 0.05225676 0.9195854 0.49988702 0.23301902 -0.38051358 -0.2256017 0.2924562 0.38780698 -0.042200465 0.072401874 -0.47396767 -0.8432632 0.06313842
1214 -0.48447013 0.15623966 -0.0014495875 -0.037060726 -0.18389468 -0.2327195 -0.6172491 -0.053923972 -0.57804084 -0.22124289 0.85627145 -0.6627163 -0.41374496 0.08886299 0.39723873 0.06472442 0.30919838 0.13613948 -0.09014295 0.23632649 -0.62880707 0.46198326 0.24555321 -0.7291991 -0.29473686 0.08416789 0.13349946 0.023452675 -0.44057825 -0.24223006 0.24763334 -0.8075173
1774 -0.25380123 -0.5899464 -0.10460533 0.23770016 -0.002957393 -0.1557768 0.14680389 0.15572439 -0.3332574 0.10792449 -0.42161623 -0.68698096 -0.2910866 -0.58282393 -0.13934688 0.100351796 -0.021220382 -0.038265347 -0.102021486 -0.07715464 0.6648468 0.6674074 0.14036706 0.012379393 -0.04482632 0.35987478 0.01748913 0.38601708 -0.08210393 0.115956634 -0.039782573 0.3275922
1488 -0.11161951 -0.17023638 0.16673516 -0.005559472 -0.059867702 0.040325347 -0.16240947 -0.41079262 -0.37636325 -0.16566578 -0.20143633 -0.29823965 -0.029442767 -0.64011246 -0.1926157 -0.025603632 -0.16412796 -0.117085986 -0.21321878 0.051879007 0.51248306 0.3902108 0.8207098 0.16686322 0.34699383 0.24617298 -0.28582203 -0.110817395 -0.99702585 -0.29225713 0.084388785 -0.23286684
1259 -0.013094079 -0.3434857 0.01816064 -0.028979601 -0.17606077 -0.03657093 -0.2586299 0.34313163 0.075568385 -0.74954516 0.8427891 0.26831707 0.47964907 -0.019163644 0.14443077 -0.00023470807 0.081570156 -0.18797214 -0.13786069 -0.07598876 0.2456851 0.87214494 0.22533058 -0.2166698 -0.38573518 -0.39779502 -0.12952158 0.33742303 -0.88468957 -0.40678594 -0.62687176 -0.23325454
1142 -0.7183622 0.30917636 -0.31322354 -0.05146724 -0.2097848 -0.13774043 -0.38919452 -0.3207787 -0.69874305 -0.49420357 0.15879597 0.16765381 -0.3687177 -0.53100204 0.40202266 0.19464922 0.22750834 0.10909773 0.18288787 0.40458605 -0.4629814 0.23944183 0.30638847 -0.68731517 -0.8898565 -0.34015363 -0.19779843 0.25922957 -0.69432545 -0.8102739 0.4880243 -0.51994556
1640 0.31600294 0.18126692 -0.1950548 0.6255063 0.39697632 0.03781439 0.05122046 -0.39223704 -0.17601019 0.085274406 -0.23951344 0.19476871 -0.66724074 0.24404953 0.49287283 0.5834906 0.3734855 0.5106629 -0.13863187 0.3850956 0.3388532 0.4007116 0.47409022 -0.56721896 0.16852131 0.028925413 -0.48303902 0.25339517 0.14606808 -0.049791392 -0.9030927 0.012331453
1114 0.6593677 0.46425697 -1.0708826 0.1440337 0.6600504 0.056403484 0.35211655 0.034079067 0.07732342 -0.38933384 0.15805654 -0.08397055 -0.69014686 0.438223 -0.2626878 1.0227618 0.5242645 -0.05081628 -0.20972553 0.37449723 0.41926375 0.3906478 0.65725285 -0.8258712 0.14708667 0.2116262 -0.6276037 -0.0011749845 -0.06738291 -0.3869165 -0.2320329 0.20321776
1163 -0.2699335 -0.13478613 0.30340308 -0.017337097 -0.011704214 0.09517467 -0.24147743 -0.22650646 -0.124379985 -0.4180297 0.048888545 -0.35624865 0.25143105 -0.41794696 -0.056156337 0.33993927 0.36135763 -0.17836209 0.018356143 -0.055049337 0.32342422 0.5637609 0.43735874 0.08124109 0.5764498 0.18507034 -0.503444 -0.15785356 -0.84862685 -0.12747027 0.28155065 0.03663099
1358 0.37325335 -0.5661494 0.048166305 -0.351241 0.19592004 0.039459325 0.04930918 0.44538087 0.1833663 -0.38172284 0.014018131 -0.27506244 -0.431225 -0.80232936 -0.1328535 0.12615088 -0.034691844 0.31767666 0.52383345 0.08738987 0.46688798 0.3630152 -0.10007005 -0.44137284 -0.40912807 0.10814108 -0.112134635 0.8536873 -0.2863615 -0.44039768 -0.15314166 0.28225276
1003 -0.4677174 -0.10950596 -0.15974349 0.07492135 0.22964376 -0.10879629 -0.44496384 -0.30421504 -0.09262148 -0.03336018 0.36325496 -0.5555942 0.23607108 -0.73756874 0.37214133 0.20976666 -0.11024827 -0.3836993 0.10430296 0.42699492 -0.1814569 0.42012614 0.8584064 -0.11175516 0.63024193 0.17939976 0.018052619 0.32097837 -0.07498205 0.244123 0.24319023 0.41015068
1194 -0.35490596 -0.4499229 0.19995718 0.69212365 0.25845638 0.22068654 0.07946966 -0.00038217223 -0.3351091 0.1599671 0.56008613 -0.17364629 -0.018732294 -0.048235893 0.58596 0.06713599 -0.03175425 0.1853245 0.087555535 0.14379889 -0.050144054 0.7596917 -0.13676083 -0.48322913 0.22480938 -0.26042888 0.33641583 -0.50271505 -0.029816644 -0.36249655 0.26286644 -0.17705943
1021 -0.4458061 -0.52366596 -0.17090382 -0.5659238 0.050101485 -0.25653666 -0.06873096 0.5315142 -0.46828413 0.55162895 0.2254386 -0.40061098 -0.21234597 -0.2011106 -0.24332027 0.9784528 -0.24098048 0.7787164 0.048608392 -0.0027871674 0.19471928 -0.107239425 -0.06839819 -0.42195058 0.16471124 -0.18992655 -0.7073633 0.41126627 0.13004023 -0.56131446 -0.48012984 0.070076376
1245 -0.3296185 0.1766041 0.44248518 -0.31248996 0.3979203 0.24471521 -0.42739835 0.48200157 -0.105243064 -0.31817442 -0.2896469 0.023026234 0.051083066 0.25537145 0.13311143 0.6419785 -0.17721722 -0.4044941 -0.013716327 0.9116995 0.25157163 0.75478697 0.62538755 -0.038418718 -0.017930057 0.30874836 -0.44350022 -0.6088134 0.099950485 -0.28814968 0.0284571 -0.38492388
1562 0.4164972 -0.007713295 -0.1848281 0.15885709 0.119125694 0.103122815 -0.2036474 0.13556679 0.17076764 -0.02861547 -0.11174405 -0.52084154 -0.38663262 -0.52674747 -0.25910845 0.32212758 -0.43540472 0.3765662 -0.004596864 0.24090293 0.6338048 0.5629948 -0.056152668 -0.5007579 0.37231222 0.03464047 0.045975856 0.069384865 0.3847935 -0.7057318 -0.48882815 0.2736899
1349 -0.282029 0.13114728 0.17352545 0.4071952 0.059769377 -0.21940711 -0.18745387 0.4536814 -0.21931459 0.4113052 0.1961211 -0.13906005 -0.09130354 -0.11713392 0.6591601 -0.025631383 0.39100963 0.39753836 -0.092103265 0.5273365 0.86712694 0.13879536 0.09546072 -0.10836108 -0.3330147 -0.4297508 0.12592489 0.270982 -0.5111206 -0.2997844 0.5888296 0.33199129
1086 -0.27741304 -1.5229892 -0.46377495 0.1850052 0.99508274 -0.85832477 -0.14823863 0.027268128 -1.205311 -1.310644 -0.2339478 -1.1058838 1.1489347 1.3051176 -0.112115204 0.20307636 0.43003678 2.2699716 -0.48534715 1.723454 0.60998917 0.4080604 0.81921613 -1.7405826 0.12340595 -1.1675134 0.07867332 1.1259699 -0.76649874 0.33589688 -0.46320286 1.2949095
1042 -0.35481912 -1.3894695 -0.40845084 -0.08614392 1.0034913 -0.9302229 -0.26650816 -0.070625775 -1.239667 -1.560137 0.23672456 -0.9502383 1.2809719 1.2362881 -0.4257073 0.16920857 0.6950675 2.2593908 -0.49510172 1.6744066 0.48943463 0.701313 0.5418873 -1.4063159 0.29072097 -0.8046969 -0.055467114 1.0183414 -0.6430615 0.387766 -0.733895 1.1500129
1187 0.17280243 -1.1801791 -0.2824439 -0.3067659 0.65078527 0.58765936 -0.2701952 0.024263835 -0.117323376 -0.21045555 -0.44991982 -0.1534198 0.48026633 -0.26749197 0.14324102 0.23838177 0.60206515 -0.10405234 0.5244892 0.4586988 -0.0056629693 0.74428856 -0.43144733 -0.73180956 -0.40464622 0.5646585 0.22259772 1.2397139 -0.33767173 -0.89710134 0.29667115 -0.13713464
1026 -0.04775932 -0.21139964 -0.12670891 0.4361298 -0.31103173 0.032606486 -0.23663202 0.30688787 0.21394828 -0.047192864 -0.5889855 -0.38369945 -0.42861873 -0.6408754 0.20255075 0.34863856 -0.42007613 0.16530378 -0.018403402 0.318136 0.64942294 0.53705454 0.067638636 -0.19657023 0.15712008 -0.38306203 -0.41271752 0.3874615 0.09884865 -0.19050445 0.26125753 0.005385434
1783 0.079509 -0.11352242 -0.003375613 0.472301 0.4206585 -0.21355918 -0.43907505 0.7018848 -0.6436766 0.21431223 0.62939316 -0.24513245 0.01932526 -0.078547984 -0.26432237 0.14921781 0.9116844 -0.6408748 -0.08077767 0.02556175 0.11625176 0.46307302 0.8384973 -0.33027402 0.3490278 -0.18991445 0.31296316 0.19880015 0.21433182 -0.041263387 0.003951428 -0.16010089
1210 -0.35483417 -1.2737358 -0.11003991 -0.010730797 0.67604893 -1.2472782 0.13160723 0.25037998 -1.2497151 -1.3541183 0.26183808 -1.0235294 0.78000104 1.0928873 -0.39269325 -0.028991079 0.68501836 2.079678 -0.6903503 1.5551422 0.4025165 0.6213327 0.64049184 -1.5116038 0.40312377 -1.1984637 -0.09785586 1.1316764 -0.45278707 0.47653133 -0.5983369 1.0991018
1376 -0.79300874 -0.1561231 -0.509252 -0.007582163 0.69568044 -0.087241724 0.15153457 -0.17264472 -0.2422148 -0.49170312 0.4794773 0.036684494 0.15132521 -0.028730597 0.44435567 -0.03210868 -0.30299 -0.44096038 -0.43402106 0.28692064 -0.10556614 1.1012852 -0.3153275 -0.544937 -0.3354898 -0.9057079 -0.10650219 0.32867664 -1.0166426 -0.26961517 -0.93407696 -0.10703046
1574 -0.43538132 0.008589937 -0.29501104 -0.52076304 0.42942783 0.19751023 0.37965393 -0.1415844 -0.35203767 -0.14310546 0.1879192 -0.30685997 -0.2029022 -0.678079 0.31419852 0.4562987 0.48223886 0.2426681 -0.07656955 0.77611715 -0.7593316 0.88454765 -0.67005247 -0.984117 -0.10792413 -1.2860547 -0.13757817 -0.16235416 -1.0235802 -0.04856955 -0.67724985 -0.20959029
1080 -0.05811798 -0.29644203 0.16444643 0.4216311 -0.0349139 0.25136 0.7905125 0.027109845 -0.23062018 -0.6231761 0.3502094 -0.079369225 -0.23092023 -0.11959182 0.43855298 0.6893468 0.1998915 0.7143875 0.51650286 -0.05449205 0.8708814 0.40321514 -0.121538304 -0.83438224 0.08419197 0.16886428 0.24109913 -0.14129715 0.32037616 0.3141588 -0.23594688 -0.55006003
1226 -1.0917467 0.07416444 0.30968878 -0.51148486 0.44175175 -0.36309627 0.45292827 0.8348584 -0.29759207 -0.059940908 -0.4627163 -0.82761306 0.2133673 -0.020605473 -0.3479244 0.24458712 0.3709006 1.0565943 0.17756592 1.2692094 -0.23361862 0.8164156 0.33108935 -0.8745846 -0.19558196 -0.9337703 -0.059394006 0.04246317 -0.85794646 0.7809781 -1.0175382 0.01856718
1278 -0.04842287 -0.4810925 -0.07316991 0.31186238 0.87001413 -0.15129715 -0.38368955 0.06281888 -0.0062484858 0.16233237 0.13747314 -0.55147356 0.41454273 -0.55653214 0.16132797 0.24222349 -0.2509236 0.19389063 -0.35575506 0.23871845 -0.20020957 0.1457554 0.11793996 -0.31153297 -0.14143516 0.4894619 -0.08571928 0.4074194 -0.27978125 -0.04711504 0.09176187 -0.93002224
1013 -0.09100695 -0.31698117 0.3737141 -0.0020953903 0.1684006 0.2842548 0.31893784 0.95194995 -0.5078369 0.58631796 -0.54171294 -0.60853827 0.24812134 -0.15073243 -0.4002703 -0.14466669 1.0436631 0.6213498 0.26589677 0.78947175 0.044727135 0.6604387 0.16462289 -0.4452256 0.08849715 -0.33170626 -0.46123183 0.123778075 -0.04396029 0.4487877 -0.36004522 -0.11049394
1612 0.06067892 -0.31808004 0.36846852 -0.20555943 -0.43170992 -0.56229615 0.030120233 -0.019542465 -0.32454532 -0.14596166 -0.43612128 -0.1897097 -0.43544018 -0.6083585 0.26511228 0.14439367 -0.19984458 0.20349397 -0.23371774 0.44771016 0.117059566 0.6401442 0.27930415 -0.019652938 0.1794112 0.051975075 0.22573377 0.1826949 -0.06571921 -0.3877342 -0.2643984 -0.24047457
1215 -0.4451129 0.15875201 -0.2554215 0.2341213 -0.10685144 -0.21240385 -0.50193477 -0.059398174 -0.49456844 -0.52713877 0.5391207 -0.67052346 0.073576175 0.001641341 -0.032607097 -0.025490813 0.1705767 0.3959621 0.32826847 -0.4296913 -0.47394916 0.62503266 0.36893675 -0.8287077 -0.48513353 -0.30701292 0.064260826 0.106333025 -0.62043875 -0.537633 0.09204175 -1.0765913
1498 -1.2633554 -0.42395887 -1.1515378 0.022290433 0.07948114 -0.59593844 -0.25878337 0.4640694 0.13190213 -0.2453018 -0.18562874 -0.96746606 0.3425883 0.16861272 0.09618791 0.13054062 -0.59850204 0.28153735 0.7035551 0.9920525 0.16626287 1.3272264 0.3608085 -0.60156804 -0.7671668 -1.1395094 -0.35357118 0.16344361 -0.37559927 0.8913782 -0.8476144 -0.081628464
1306 -0.0831285 -0.44154793 0.14405718 0.2090719 0.28876933 0.37201607 0.011894372 -0.693326 0.035994183 0.5779983 0.31228372 -0.15709977 -0.09198624 -0.73887515 0.52117276 -0.11011907 -0.5203067 -0.20354518 0.5615718 0.33883196 0.47457036 0.90743387 0.31379038 -0.4177163 -0.033208374 -0.8027255 0.31033978 -0.015218512 -0.12296369 -0.28266633 0.57383835 -0.29986346
1179 0.55891585 -0.2669552 0.05910698 0.58489573 0.5380406 0.16359253 0.10914779 0.40333793 -0.31937796 -0.552972 -0.6388229 0.047188383 -0.085402034 0.09620396 0.42180943 0.39473078 -0.26234597 0.31103384 0.15510914 -0.14305526 1.1954222 0.60743815 0.09659885 -0.5570091 0.14282589 0.38444453 -0.08493897 0.11143554 0.19892009 0.10193744 -0.06520291 -0.25541466
1081 -0.30654177 -0.62378466 0.070827246 0.3167853 0.2533314 -0.25085008 -0.47675517 -0.1004285 -0.24896885 0.30759382 0.6123605 -0.5586596 0.017353015 0.1750976 0.014894029 0.48886615 0.35737386 -0.39833882 0.14726083 0.15403378 -0.27075076 0.44997647 0.3167594 -0.18465538 -0.072015755 0.09647866 0.11124808 0.24950565 -0.03885553 -0.32248253 0.2518279 -0.116461426
1528 -0.2813454 -0.088191055 -0.34388962 -0.21547094 0.036926843 -0.27357048 0.028896425 -0.06356071 -0.78329164 0.008326231 -0.043647964 -0.028832883 -0.71089596 -0.75248605 0.0025513128 -0.03259336 0.0151201235 0.4339182 0.0070426054 0.5141566 0.5524651 0.102045365 -0.05489041 -0.33898166 0.26956147 0.25793234 -0.10927506 -0.10821775 0.15642561 -0.8086728 0.13348381 0.40492183
1422 -0.31614172 0.38545567 -0.32379386 0.028576232 0.2225728 0.15619 -0.20969658 -0.27206427 -1.0497689 -0.4968652 0.4434823 0.082019225 -0.2608482 -0.34362015 -0.14092514 -0.35418722 0.06448502 -0.35725647 -0.038788583 1.0537595 0.28783303 0.9082969 -0.40371045 0.28412488 0.14326787 -0.49078423 -0.13596883 0.28591675 -0.47198838 -0.0264273 -0.17890882 -0.6823054
1318 -0.66256684 0.13534482 -0.2939109 0.09525755 0.6747892 0.4504531 -0.017010557 -0.1012135 -0.29567134 -0.47680166 0.6358247 0.0134977 0.28035423 -0.26061633 0.47115618 0.0043960563 -0.045649346 -0.31724483 -0.44739196 0.46017826 -0.052228946 1.2600114 -0.5482849 -0.53797704 -0.2877189 -0.91238093 -0.050372556 0.32439828 -0.9917419 -0.18941844 -0.8151527 -0.3229007
1094 -0.09661229 -0.86650383 -0.27729547 0.2627986 0.2519613 -0.44359198 -0.14014302 0.03130028 0.078465514 0.104517184 -0.33596796 0.4782746 -0.24620026 0.6448896 0.3854575 0.12463828 -0.5612119 0.8256847 -0.09962966 0.77954245 0.018931387 0.31279027 0.36033857 -0.30929974 0.2405121 0.31939816 -0.51238465 -0.041529622 -0.5281744 -0.45761228 0.034961972 0.011464902
1018 1.4872097 1.3856914 -0.16475771 1.4154111 2.1830199 0.43734777 0.38553262 0.13541147 -2.469041 1.5189388 1.7108347 0.96131426 0.53388554 -1.2413737 0.18904044 1.4010243 -0.4164617 1.644464 0.9266611 2.3560743 0.15814169 1.9995912 2.4213603 -2.3113663 -1.1103398 -1.9924569 -0.1072357 2.0796478 0.08641556 -1.1705337 -2.1335258 1.0246363
1062 -0.24074277 -0.22760247 -0.103916 0.7191604 0.012114895 0.44415522 -0.8618517 0.22599542 0.48999378 0.46428114 -0.32737386 -0.10335745 -0.50232077 -0.33894095 -0.7269185 0.855071 -1.0053524 0.6458906 -0.32070917 0.5714131 0.5305613 0.6533154 0.15483274 -0.7564585 0.5449087 -0.66916686 -0.8688981 0.50497967 0.14200862 -0.5575522 0.17714135 -0.27898496
1166 0.025482846 -1.2181123 -0.028039973 0.44663858 0.033169236 -0.61887515 -0.16897988 -0.2382976 -0.42598686 -0.04444192 -0.25704002 0.6669625 -0.47807544 -0.4364492 0.16836555 -0.0137204835 0.10379748 0.29018384 0.39409485 0.5662157 0.21359338 0.58639187 0.13246335 0.08780848 0.3149068 -0.09274684 -0.005162134 0.3067946 -0.25939626 -0.25123528 0.38900262 0.13050567
1344 0.41919857 0.066735975 -0.2604239 0.45168045 -0.054190885 0.107691206 0.28949314 -0.24180745 -0.20407827 -0.5703365 -0.016625669 -0.24698627 -0.7276572 0.58018 0.47573593 0.7250254 0.45971018 0.44271195 -0.17480887 -0.03304974 0.63866884 0.7083045 0.36427382 -0.54055 0.22230588 0.37791213 -0.111489095 -0.123171926 -0.12593126 0.13012457 -0.5726615 -0.12514229
1145 0.30642962 0.18375446 -0.08546691 0.7299294 0.38568458 0.16106908 -0.31748667 -0.25345245 -0.07042107 -0.62025815 -0.3143366 -0.90234154 -0.60503423 0.24311382 0.26182705 0.7288653 0.06719119 0.43875554 0.77654445 0.27447075 0.6721205 0.03475807 -0.16293672 -0.29088786 -0.0219492 0.0588058 -0.3575822 0.23769553 -0.09914724 -0.101959564 -0.27212068 -0.42713788
1353 -0.60702807 0.59174776 -0.51215 0.2896432 0.49911764 0.19800366 -0.34910664 0.10315484 -0.31448132 -0.07149405 0.27891687 -0.5380168 0.2519278 -0.15815377 0.9092478 0.014810702 0.17877196 0.17369774 -0.029208448 0.02302799 -0.38502714 1.0860734 -0.36888328 -1.057343 -1.0490838 -0.20414752 0.06408421 -0.098523974 -0.12567942 -0.44471845 0.11170357 -0.7221921
1651 -0.4176218 -0.36235526 -0.14554185 -0.1133009 0.4891077 -0.21675529 -0.3348232 0.1715217 -0.60297096 0.3624402 0.2512263 -0.32475483 -0.16550884 -0.24460863 -0.33980596 0.16812234 0.016536033 0.47987333 0.09478483 0.025935747 0.4231859 0.06336654 0.013101983 -0.12081989 0.551897 -0.020301457 -0.8046094 0.4221606 0.4424131 -0.7009373 -0.5550527 0.27524877
1369 -0.41839218 -0.023601353 -0.33492002 0.5895191 0.5077819 -0.13009056 -0.22125478 0.20024425 -0.44054225 -0.7057982 0.7808259 0.042285413 -0.426999 0.029005762 -0.16352603 -0.010294724 0.19409664 0.030319903 -0.3157404 -0.03585178 0.17750305 0.6420935 -0.04800819 0.11609362 -0.00054866524 -0.84065384 0.24668546 0.35349634 -0.70074856 -0.72226197 -0.21165134 -0.5470534
1185 0.07140002 0.19738555 -0.089429475 -0.29713327 -0.014399528 -0.12076611 -0.35281506 0.3038656 -0.35899213 0.20948814 0.22289416 -0.597522 -0.64398646 -0.17868471 0.3544997 0.099454604 -0.18235265 0.42933878 -0.026918838 0.17911813 0.67174 0.36645016 0.23197477 -0.11070591 -0.38743487 0.251866 -0.39503083 0.32311702 0.45119005 -0.44381776 -0.045030173 0.13630931
1914 0.54664147 -0.2813366 -0.20008639 0.36340323 0.32148033 -0.0037963567 0.17593531 -0.35419172 -0.057480887 -0.21305238 -0.27373978 -0.036467034 -0.9744505 0.21994263 0.57012415 0.34482944 -0.17925282 0.85503465 -0.2331508 0.5447529 0.41888782 0.49651834 0.058081493 -0.5308477 0.0041208896 0.5643308 0.058979284 0.23775509 -0.19014332 0.1966124 0.03209302 -0.32403958
1406 0.66658413 -0.26672035 -0.088586316 0.35789496 0.38849837 -0.19081087 0.022834914 0.15264142 0.1234086 0.25610992 -0.19716246 -0.4817462 -0.22309771 -0.7329437 0.18489912 -0.17512332 -0.091654345 -0.2760456 0.65159553 2.841651e-05 0.45305005 0.82446533 0.19066884 -0.34909633 0.1514109 -0.56436306 -0.17711936 0.11581484 -0.34584802 -0.31984726 0.572384 0.18057074
1051 0.22670555 -0.42387214 -0.016895723 0.3445209 -0.32298177 0.07388671 0.37706092 -0.52399766 -0.4784613 -0.63959104 0.12829034 -0.43258497 0.774285 0.079387255 -0.08748176 0.3726722 0.043702118 0.7556999 -0.25145167 -0.029699579 0.7279818 0.33715916 0.39340794 -0.82608104 -0.033166494 -0.5367562 0.042579502 -0.06783739 0.45802784 0.16850744 -0.22762398 0.34189677
1311 -0.058785595 0.094802566 -0.05331331 1.0429974 0.05603253 -0.2329343 0.07941573 0.084479675 -0.9295907 -0.54081047 -0.1552817 -0.16977264 0.27859035 -0.16919495 -0.0133396825 -0.2714971 -0.23451923 -0.10584254 0.34795105 0.91111195 -0.24876413 0.20604666 0.10354963 -0.47049728 -0.19658862 0.7856686 -0.91457134 -0.007630427 0.06696291 -0.65767074 -0.2597536 0.31757662
1790 0.39826548 -0.029502567 -0.17581055 0.6563345 0.5178941 -0.06608649 -0.21518965 -0.29878473 -0.008364657 -0.29514655 -0.08036651 0.094350725 -0.6439406 0.40443048 0.48626038 0.5110124 0.2715124 0.6903443 0.058102496 0.07273711 0.32911894 0.29808897 0.724999 -0.66023415 0.20768851 0.23671189 -0.4467284 0.19098417 -0.26684076 0.060642056 -0.83427286 -0.02028212
1553 0.5467761 0.27411354 -0.0523588 0.6099201 0.19689047 -0.38326007 -0.3416472 -0.12648626 -0.46563196 -0.34870318 -0.7431939 -0.19353907 -0.70329356 0.5894915 0.5900666 0.36303028 0.046737455 0.34387475 0.40282997 0.5169371 0.3258157 0.6714309 0.31815124 -0.37443617 0.2869745 0.7445396 -0.74988544 -0.32638022 0.011960949 -0.021797558 -0.36326796 0.06977478
1054 0.058985014 -0.09961652 0.3848196 -0.16152756 0.2023942 -0.2909771 0.0192532 -0.043406613 -0.06193471 -0.008803925 0.15106575 -0.2676726 0.41877654 -0.18007304 0.33406386 0.023705987 0.36820117 0.41473123 -0.2722323 0.16115372 0.01288337 0.824302 -0.056034107 -0.44501182 0.32641992 0.17539217 -0.3214588 -0.61676884 -0.6845901 -0.112863 0.2691588 0.10499867
1038 -0.45549783 -0.2157229 -0.20246729 -0.45038798 0.72362727 -0.47188646 -0.2362348 0.7348571 -0.6581714 0.51412624 0.10597656 -0.28988206 -0.037264664 -0.14092226 -0.10984027 1.1814162 -0.7790244 0.73914754 0.19527759 0.21029934 0.19281818 -0.020397125 -0.1544564 -0.041289084 -0.051070925 -0.4559298 -0.6002972 0.5212922 -0.03569551 -0.14446945 -0.20945959 -0.3221101
1110 0.46595746 -1.2923695 -0.1630248 0.45518196 0.09587477 0.043466575 -0.11578076 0.006211436 -0.5148119 -0.06949543 -0.5362933 0.20765205 -0.014225078 -0.37052533 0.39181736 -0.17763573 0.32646132 -0.20934787 0.7060441 0.23420227 0.6179565 0.7349763 -0.28144738 -0.042328004 0.15857665 0.23902456 -0.072457485 0.69462436 0.013686358 -0.36351654 -0.06420177 -0.045139592
1085 -0.32799554 0.106904335 -0.34697634 0.23711039 0.01935621 -0.16843031 0.2558046 0.22760528 0.6065627 -0.0969447 0.3825464 0.32231313 0.12164198 -0.37920022 -0.10101423 0.3379159 -0.3501032 0.5379795 0.26971298 0.8758258 0.34600553 0.37715542 0.3833982 -0.26032662 0.63326406 -0.19974485 -0.874199 0.6285938 0.1711221 -0.11035214 0.0155013725 -0.24519204
1480 -0.21397522 -0.58390707 0.34207016 0.22145429 0.19964671 -0.33341134 0.45182034 0.7078375 -0.11452451 -0.06398827 -0.2519422 -0.38955253 0.045022603 0.0334728 -0.36497417 -0.13724297 0.47007316 0.6171599 0.05920526 0.65080494 0.28198752 0.5106053 0.038805574 -0.30036765 0.019195454 -0.18103129 -0.28266564 0.25265205 0.042853836 0.14581755 -0.3640756 0.25190052
1291 0.4240802 -0.62495524 -0.19406925 0.76369613 0.058903705 -0.86512345 -0.24527815 -0.121088065 -0.231819 0.22861344 0.1753636 -0.3568715 0.08585405 -0.05896849 0.28611484 -0.17787617 0.48935923 -0.4807775 0.1834594 0.3804946 0.50892913 0.6736778 -0.2851957 -0.489571 0.7061489 0.37625378 -0.7779975 0.05224339 0.2737183 0.102110006 0.049671873 0.048454415
1135 0.11876777 -0.52630836 0.02039166 0.18773253 -0.30566633 -0.24350773 -0.28779075 0.007931858 -0.10174903 -0.052854825 -0.22094013 -0.5788746 -0.45747223 -0.3714463 0.18609147 0.045146726 -0.33617404 0.5834162 0.0041907295 0.37792447 0.41273847 0.260193 0.18329722 0.08470056 -0.28985876 0.20413265 -0.326813 0.020530649 -0.15288678 -0.56620795 -0.2084684 0.034758117
1100 0.15193248 0.1181964 0.50408256 0.049663365 0.20998758 -0.49670815 0.14012367 0.0319266 0.026710333 -0.23462431 0.045791324 -0.51110536 -0.15571797 -0.5216755 0.45343998 0.309909 0.2341176 -0.5050041 0.28416577 0.00398347 0.5141461 0.3338688 0.12935066 -0.46824583 0.6403073 -0.22320488 -0.08806862 0.22290513 -0.8004725 0.12738281 0.25135368 0.15782735
1658 0.11065455 -0.02399351 -0.2625466 -0.2504165 0.18577497 -0.23701632 -0.1095948 -0.08331448 -0.09070702 0.08763669 0.05528339 -0.45360264 -0.6057086 0.17832105 -0.028090488 0.59411526 0.11840882 -0.14983247 0.07973094 0.60226214 0.43904132 0.3129245 0.09342897 -0.14905371 0.17942366 0.028292006 -0.35997602 -0.14155504 0.15702379 -0.53827906 -0.4141667 0.37153822
1917 0.5769717 -0.19082919 -0.050095666 0.36066756 -0.2800006 -0.17452069 0.3825633 -0.08476262 -0.23121093 0.037277795 -0.27671504 -0.52083826 -0.7194164 0.2012527 0.6305823 0.40256724 0.022696774 0.38820082 0.10088317 0.24396533 0.62428623 0.29716977 0.42976648 -0.77326757 0.072758354 0.17222247 -0.07890607 -0.008182793 0.14862968 0.115102105 -0.62609166 -0.24751015
1508 -0.19906281 -0.15125394 -0.4157506 -0.12091792 0.21805899 -0.22572008 0.13909112 -0.32815 -0.649914 -0.4896646 0.6289534 -0.23766965 -0.16383281 -0.74900174 0.38874298 0.6053512 0.7662082 0.028703747 -0.20358402 0.5417997 -0.77906394 0.54114395 -0.38419306 -1.2154938 -0.95720285 0.030754793 0.19437334 -0.35117677 -0.57148343 -0.11212395 -0.2905454 -0.91930926
1405 -0.02958487 -0.51019895 -0.01805248 0.22982225 0.015753629 0.2235996 0.6042229 0.4694092 -0.8059069 0.48843172 -0.23986319 -0.15544602 -0.043870877 0.12034362 -0.63456815 -0.21143515 0.29166737 -0.4772084 0.09159197 0.45854113 0.119512424 0.11847377 0.78351927 -0.9173523 -0.040188238 -0.4032145 -0.74545527 0.19456045 -0.6912753 0.08921273 0.19413537 -0.660378
1389 -0.21535413 0.5384188 0.20169935 0.19039337 -0.48984683 -0.5768033 0.02802785 -0.17816693 -0.84562284 -0.45113418 -0.40048766 -0.0016807512 0.73615795 0.08943074 0.16251215 0.21425249 -0.032725826 -0.037890155 0.57543886 0.33926293 -0.23243497 0.7786181 0.06252556 -0.56547725 -0.13421527 0.48153836 0.25333202 0.14345358 -0.16134734 -1.0028567 -0.64541364 -0.34498468
1178 0.53895366 0.0003585181 -0.03474319 0.7155004 0.35926652 0.2105866 -0.118370995 -0.27914223 -0.36439955 -0.2599692 0.019838344 0.4580165 -0.97889525 0.17691615 0.40001914 0.52416015 0.07500377 0.5041748 0.25313082 0.25110564 0.7714888 0.13346623 0.5286263 -0.7824211 0.4300583 0.018839171 -0.70905775 0.059737965 -0.25154325 0.1561815 -0.69901127 -0.38089556
1517 0.3036324 -0.21949644 -0.5578787 0.44199538 0.26834786 -0.19308928 -0.3421953 -0.21089144 -0.1910744 0.14787468 1.0408024 -0.33673275 -0.0051270514 -0.50628257 -0.25046152 0.67501503 0.46506032 -0.54460865 0.31712997 1.0277823 0.036741715 0.40465632 -0.15376009 -0.1060969 -0.69326216 0.20259012 -0.19810261 -0.5963239 -0.12196129 -0.3072749 -0.03139683 0.04525602
1535 0.49071723 -0.09025197 -0.25692302 -0.07135183 -0.25187343 -0.11970514 0.28825814 0.3892446 -0.30808476 -0.07456696 -0.034208108 -0.0408066 -0.9654006 0.15758826 0.17317137 0.7336807 0.052875344 0.0070503117 0.103964135 0.12709402 0.8316448 0.5469033 -0.0021056419 -0.60730684 -0.06903176 0.06296223 -0.4820745 0.04283515 0.0665728 0.014478997 -0.2784024 -0.117676005
1014 -0.23765758 0.16073656 0.42628545 0.32069445 -0.12274993 -0.3252341 0.16003892 0.1888787 0.0553512 0.0017191924 0.009467829 -0.10833033 -0.13295114 -0.4384064 -0.68212795 -0.092129126 -0.010117124 0.23663762 -0.63567287 0.6692466 0.034550514 0.86501706 0.436774 -0.3468894 -0.10175334 0.42494616 0.17534028 -0.05033911 -0.6057397 -0.4648377 0.0762567 -0.62793976
1626 -0.36758682 -1.2712464 -0.22413054 -0.08074625 0.27084932 -1.0899501 -0.44680825 0.056635544 -1.1200827 -1.1940638 -0.014286691 -0.71142036 0.77063406 1.1899811 0.027381362 0.06930495 0.5185716 1.7457871 -0.47214255 1.1580032 0.58703506 0.20166285 0.42591706 -1.0024377 0.46398932 -0.54676837 -0.14965932 0.7578667 -0.75701433 0.20800735 -0.10174491 0.9141349
1228 -0.11391585 -0.05427348 0.21599002 0.010382892 -0.19073892 -0.24806206 -0.60376835 0.31410027 -0.16110136 -0.23202512 0.54010504 -0.43693513 -0.013596467 -0.17887294 0.32560307 0.5331827 0.52228767 -0.28344235 -0.012153538 0.48770234 -0.034691647 0.3258079 0.41951424 -0.19729944 -0.08747351 0.119805075 -0.1073908 -0.29438862 -0.34959316 -0.3424417 0.4920981 0.491986
2126 -0.21746488 -0.033980504 0.28180525 0.027495159 0.2251651 0.19988732 -0.21129765 -0.033073977 -0.4458169 -0.0044944873 0.017342865 -0.051105004 0.22456272 0.08639173 -0.17669617 0.07176208 -0.3101866 -0.44197565 1.174644 0.67114997 0.11338887 0.2455201 0.6401439 -0.96152073 0.1419747 -0.7696115 -0.114978746 0.23322809 -0.17901564 -0.40911758 0.7221862 -0.22279838
1505 0.6622612 -0.44628817 0.47180593 -0.1162917 0.3935078 -0.22566982 0.11653464 0.11773128 -0.06854638 -0.20991173 0.27317443 -0.31361932 -0.20725714 -0.051325947 -0.14111957 0.17440994 0.105734706 0.38580823 0.029291252 0.40326592 0.43060914 0.72269315 -0.27472067 0.04671546 -0.14457458 0.17755234 -0.28688467 0.48780677 0.34282133 -0.31850705 -0.7553243 0.117305174
1129 0.8235595 -0.043981712 -0.82590175 0.2611369 0.0927651 0.3425349 0.20310734 -0.079920754 -0.2643146 -0.46711373 -0.12502004 0.2577773 -0.45423365 -0.7180167 -0.10256287 -0.16601492 -0.2075078 0.37176046 -0.13714531 0.2910635 0.18104336 0.7997925 0.25574958 -0.5032938 0.39611208 0.29070652 -0.4778598 0.84417444 0.03251446 -0.72850406 0.32524917 0.61502874
1209 0.3161375 -0.37301058 -0.4655493 0.21213104 0.48088413 0.091858774 -0.35061747 0.18568212 -1.0494946 0.5096071 0.8646441 -0.177724 0.38071427 -0.46555835 -0.5184557 0.6313807 0.048829112 -0.65022516 0.6331146 0.23254101 0.30515388 0.6001948 0.62161314 -0.3372788 -0.062401753 0.08773502 0.757344 -0.72325474 -0.42893416 -0.1448231 -0.16947675 -0.05076094
1175 -0.15596583 0.12433432 -0.22872147 0.3578944 0.5826767 0.28124228 -0.13433187 -0.39946195 -0.029410329 0.12153416 -0.015377004 -1.1131507 -0.057714038 -0.35535026 0.77953166 0.7130547 0.05030297 0.0793242 -0.16452108 0.2967672 0.03126368 -0.012554832 -0.055782896 -0.37123948 -0.6765667 -0.032786343 -0.13874955 0.53627354 -0.22409947 -0.072469585 0.37216982 -1.0333757
1463 -0.7066515 0.4130611 0.16265458 0.07788897 0.08901412 -0.15398349 -0.10631305 0.13498318 -0.73317266 -0.39063892 -0.6123635 -0.06823577 0.23258461 -0.09903906 0.5086255 0.25283173 0.18356958 -0.27874872 0.48216078 0.86715204 0.07868482 -0.041358054 0.11467924 -0.58898073 0.17722157 -0.29440257 0.4213016 0.44313046 -0.21719003 -0.96255064 0.038206477 -0.012741655
1813 -0.258455 -0.17481072 -0.1774271 0.17684524 0.5014119 0.023897054 -0.56118363 -0.06600878 -0.41266185 -0.8511032 0.9670818 -0.084029175 -0.2357176 -0.116573825 -0.09227888 -0.004683311 -0.30120564 -0.6561924 -0.46903536 0.48250476 0.338074 1.0929438 -0.43987593 0.105174094 -0.3311887 -1.006928 -0.063396186 0.33130968 -0.61787003 -0.38691977 -0.30415055 -0.5557185
1330 0.22363816 -0.1215736 -1.2060305 -0.008696001 -0.44863468 0.083312854 0.46394217 -0.5009999 -1.0669769 -0.93419343 0.3426461 -0.30282545 0.32545924 -0.7405955 0.40240824 0.23723917 -0.32675248 0.6094925 0.37479338 0.97437614 0.13260615 0.8379821 0.8330752 -0.0572556 0.20087236 -0.8576767 -0.23752645 0.8943401 0.19791219 0.4278117 0.44277743 0.2508664
1270 0.111928746 -0.16092342 -0.5475499 0.34389675 -0.037621226 -0.46102366 -0.23392925 0.12563133 -0.39593148 -0.073500164 -0.12840898 0.27586627 -0.716763 0.116352715 0.6123146 0.3038994 -0.21257718 0.59877604 -0.33343503 -0.061161652 0.78569925 0.3668253 0.6681696 -0.36948845 -0.038753234 0.10693182 -0.5127513 -0.07020705 0.3039801 -0.12690848 -0.6486361 -0.2785127
1350 -0.2634347 -0.2495976 -0.008488707 -0.053005077 0.2544202 -0.09103162 0.050377864 0.25113818 -0.7069463 0.15444402 -0.56871533 -0.49873316 -0.1202696 -0.1361579 0.36596522 0.4760631 0.10528747 -0.09276917 0.14640488 0.21716319 0.34720942 0.31742135 -0.07210642 0.05767716 0.2619737 -0.13571513 0.17240937 0.3823574 0.28599465 -0.7176626 0.079649284 0.21563582
1855 0.07896353 -0.35066655 -0.14862974 -0.19564013 -0.28364113 -0.12696092 -0.2451021 -0.14489211 -0.143381 0.008600961 -0.13594423 0.48121977 -1.1130475 -0.12992562 0.47112572 0.204369 -0.13267416 0.5144896 0.2395918 0.3422289 0.21308233 0.70195544 0.20441154 -0.40877226 0.3997527 -0.19513538 -0.7854743 0.3539171 -0.14465797 0.08802729 -0.074153885 0.34993958
1754 0.40125254 -0.505251 0.023740828 0.2928077 0.4240685 -0.87224334 -0.17391178 0.04790538 -0.55748427 0.014077338 0.36356908 0.024654267 -0.042284966 -0.53732044 -0.3816947 0.19703275 0.41944838 -0.48268777 -0.09687327 0.5489434 0.20662042 0.6951989 -0.009545605 -0.5024431 0.19978403 -0.12807338 0.5485586 -0.42024598 0.0881347 0.08193921 0.14322458 0.10599961
1268 -0.06565137 -0.3038135 0.1944099 -0.04040478 0.10934942 -0.45570362 -0.5370897 -0.10875185 -0.80560964 0.3364029 0.10250897 -0.111613005 0.97490436 0.60705847 -0.09938987 0.5440524 -0.51430845 -0.39055863 0.9292498 0.12498824 -0.040858984 0.70722437 0.6235796 -0.5617468 -0.07988973 -0.098386765 0.22311033 0.10993069 -0.20819338 -0.25486475 0.12966174 -0.094141856
1239 -0.4802977 0.38108248 -0.6972256 0.39255223 0.26058277 0.2151159 0.105329394 -0.15348034 -0.244807 -0.7877277 0.6835506 -0.65951324 -0.5587288 -0.283307 0.2523245 0.7146594 0.65863776 0.19678845 -0.30807176 0.15136303 -0.34706885 0.37094665 -0.15513761 -0.8408839 -0.6673099 -0.48246524 0.41235116 0.0036423642 -0.45977473 -0.5854528 -0.04009483 -0.95575166
1043 0.47071955 -0.1428968 -1.1961046 0.07337462 -0.4374846 0.09514635 0.5912727 -0.16155462 -0.91416764 -0.7327102 0.06971343 -0.26069734 0.08785773 -0.8687565 0.3867223 0.10236548 -0.431529 0.33102718 0.39012527 1.114779 -0.039091885 0.8209397 0.7800736 -0.04737281 0.2845323 -0.53163284 -0.446162 0.7918203 0.11769709 0.21980537 0.3980257 0.6854545
1298 0.9639044 -0.50095063 0.31160763 0.07683971 0.9237363 0.5407086 -0.3525804 0.36118475 -1.3768537 0.20833023 1.0093902 -0.6196184 0.31850544 -0.80609185 -0.34650412 1.1402485 0.060588315 0.397992 -0.0044373004 0.79652095 0.6545206 0.07563414 1.5394102 -0.0072724307 -0.09157543 -0.36701363 0.7585432 -0.34941477 -0.8673925 -0.10598896 0.13683167 0.9860722
1248 -1.0605906 0.23596182 -0.45668924 0.7125462 0.89515966 -0.016291818 -0.17892122 -0.7614737 -1.099309 0.33135906 -0.91996217 -0.26773596 -0.7307059 -0.08541344 -0.5576409 0.7237879 0.33348608 0.13755772 -0.95812994 0.25606066 1.4427933 1.2599592 0.3834693 -0.9988054 -0.863968 0.78929776 0.2872675 0.5460166 -0.37090275 0.6034393 -0.59419 0.3597075
1173 -0.13609271 -0.28798893 0.056299295 0.2740488 0.5901346 -0.03726497 0.053010482 0.47515586 -0.6289062 -0.2693329 -0.5203257 -0.20312059 -0.3356157 -0.79297954 0.5271319 0.32706884 -0.31149182 0.21810514 -0.6542942 0.24238355 0.5887206 0.5907752 -0.34803438 -0.38008356 0.50094867 -0.37943444 0.42656565 -0.43636835 0.54986984 -0.27406314 0.04708531 0.2704355
1260 0.30351993 0.15039769 0.104406275 0.5209531 0.62405676 -0.10756052 0.3416614 -0.33630836 -0.26304674 -0.06607505 -0.3967857 0.22068052 -0.58975077 -0.02687996 0.86705923 0.06523119 0.45139703 0.47529268 0.30438927 -0.25232354 0.6279711 0.5690281 1.0974125 -0.7054616 0.18157984 0.35429594 -0.60154533 0.24601856 0.30225635 -0.038844004 -0.34840336 -0.17414455
1078 -0.6771889 -0.007795129 -0.10383757 0.6721516 0.23594397 0.0640502 -0.2122582 -0.15447482 0.004976412 -0.5562985 0.14999269 -0.8290045 -0.20449337 -0.29534507 -0.64982396 0.5005232 0.48312458 -0.15574776 0.36569244 -0.11188275 -0.32029605 0.5363641 0.31857696 -0.5056131 0.05339025 0.088083275 0.44998428 0.06735846 -0.13940164 -0.52656114 0.14629053 -0.2314992
1582 0.5575097 0.12960753 -0.53848267 0.04360227 0.19657153 -0.2415099 -0.4028627 0.07415979 0.061340664 -0.0056447643 0.12451547 0.1588279 -0.5043736 0.39161256 0.054555155 0.6677593 -0.1216854 1.080084 0.20970087 0.6041307 0.38765422 0.5431661 0.41531023 0.007243273 0.14387195 0.31154495 -0.36077634 0.108707525 -0.100851424 -0.124186784 -0.7963174 -0.12837346
1701 0.0098434035 -0.0030088308 0.10528592 0.2755927 -0.24196714 -0.36956373 -0.27235407 0.08810506 -0.27535328 -0.19260971 0.3347366 0.080456704 1.0169559 -0.11259396 0.21578363 0.27299812 -0.40769517 0.060299903 0.69155884 -0.16363718 -0.24805364 0.5068379 0.40499842 -0.5533014 -0.19388318 -0.8227207 -0.8518753 0.28338218 -0.20057115 -0.963177 -0.076167844 -0.9370072
1289 0.07444673 -0.3544615 -0.025057606 0.17192937 0.44840607 -0.43277964 0.13135614 0.27190325 -0.16669607 -0.50927967 -0.068509065 -0.57471913 0.16940106 -0.13894483 0.17081676 -0.06469391 -0.5434772 0.28238532 -0.08180535 -0.06631755 1.028764 0.41326064 0.27428582 -0.19735336 0.27551004 -0.18611066 0.28157175 0.055410925 0.31283906 -0.3609639 0.08410201 0.14773582
1157 -0.16036204 0.14678167 -0.29357907 0.003092911 -0.02360839 0.4235872 -0.3415684 0.31513238 -0.34472457 -0.6202542 -0.042106573 -0.19848166 0.9046146 -0.020718405 0.54817003 0.32480234 0.089060776 -0.06302026 0.24627629 0.42137998 -0.1576303 1.3985622 -0.25342956 -0.40547213 -0.4627375 0.9365343 0.2785156 0.5985548 -0.021955099 -0.68125296 0.22426683 -0.12466561
1581 -0.42034608 -0.17984855 -0.09891288 0.14534414 0.5456644 0.40302423 -0.08268589 -0.8683393 -0.18011908 0.29033458 0.5425089 -0.31475526 -0.20245528 -0.5221107 0.17219685 -0.06987722 -0.12166462 -0.33511072 -0.17177401 0.77334005 -0.56669056 1.2626526 -0.36395827 -0.41761252 -0.21484977 -0.75762707 0.07056426 -0.25650585 -0.6242963 -0.3013809 -0.50724 0.089932434
1238 -0.108292565 0.21466962 -0.15005101 0.36891156 0.41289622 -0.20192361 -0.1895454 -0.35912135 -0.43342528 -0.31525302 0.7713273 0.108263224 -0.20147729 -0.79362786 -0.15412731 0.15770829 0.10072725 -0.43702987 -0.27515057 1.0097151 -0.26233447 0.81251234 -0.4110595 -0.22761424 -0.96469474 -0.14126353 -0.037326697 0.23573737 -0.542327 -0.30027997 -0.3674428 -0.34500164
1355 -0.38190195 0.31513602 -0.22294167 -0.19373588 0.45586184 -0.50658846 -0.9092392 -0.0150163565 -0.6257453 -0.45505 0.2822016 -0.42805144 -0.33180305 0.17784174 0.19888394 0.15073943 0.54911494 0.3332135 -0.041320898 -0.03547595 -0.7363937 0.27213758 0.4096967 -1.4156954 -0.28730354 -0.26108378 0.16023174 -0.12903938 -0.2773939 -0.40567392 -0.04335475 -0.8866445
1534 -0.30623358 -0.121408306 0.24115455 -0.24170104 0.8103758 -0.72319335 -0.20494962 0.2768105 -0.8960807 0.7271605 0.28755543 -0.08427265 0.22755122 0.0062214313 -0.16066284 0.80478036 -0.5780046 0.6284137 0.3116761 -0.051997747 0.48149973 0.24200895 -0.089137815 -0.0023480975 -0.06085539 0.12473847 -0.772856 0.809616 -0.080173455 -0.21421824 0.052812167 -0.033243325
1382 0.041227542 -0.19788553 0.80347896 -0.29482716 0.12607759 0.06332022 -0.5474627 0.3627706 -0.2834655 -0.23916142 -0.27111945 0.13719656 0.0043712743 0.5103231 0.5053953 0.46994245 0.3288985 -0.5095286 -0.008934689 1.4137777 0.36621934 0.6215251 0.37650833 0.013167609 -0.15752502 -0.028214611 -0.41435537 -0.19466883 0.23179083 -0.20590323 0.34336373 -0.6496345
1473 -0.7021382 0.02413099 0.2496381 -0.035928134 0.8390692 -0.51315564 -0.89762944 0.5949302 -0.03141282 -0.35019436 0.14308964 -0.28225043 0.2458046 -0.50523984 -0.06258276 0.21066408 -0.0743241 0.38007826 -0.3093927 0.57259005 -0.24695164 0.2831834 0.07151842 -0.9625716 0.16691001 0.20415501 0.2000321 -0.27235582 -0.28027943 0.41884 -0.18300621 -0.6334145
1397 0.091306426 -0.9227879 0.24957554 -0.4375749 -0.43154675 -0.3494775 0.24832971 0.060406584 -0.5516477 -0.21818101 -0.0063764798 -0.28290248 -0.59247994 -0.33596978 -0.030052591 0.48600695 -0.38486832 -0.0631661 0.45254597 0.33863816 0.28073415 0.38812608 0.23747605 -0.37055346 -0.14868054 0.20570461 0.14360055 0.3182902 0.3386994 -0.2946503 -0.2860182 0.074446306
1611 0.13084087 -0.60511744 0.14687897 0.02219332 -0.085600935 -0.27867675 0.1339457 -0.008891723 0.26738733 0.27814737 -0.17103255 -0.28145683 -0.5915865 0.015547685 -0.25766486 0.2223733 -0.3200162 0.63257796 0.2705662 0.6346124 0.54231364 0.6386019 0.24225977 -0.44044778 -0.096275076 0.27371857 0.008543396 0.13913044 -0.11976772 0.1497972 -0.03164876 0.29309142
1341 -0.07871974 -0.52792794 -0.027330466 0.20583512 0.123966485 -0.32113084 0.5880036 0.2550331 -0.23885019 -0.1209266 -0.2855511 -0.5876173 -0.18276839 -0.52491874 -0.20146921 0.65111077 0.11659224 0.027403288 0.26921517 -0.37604904 0.4796884 0.5449333 -0.109540015 -0.265059 -0.0147446245 -0.38737342 -0.32698867 0.040754084 0.11746225 -0.43843177 0.54986405 0.0043902867
1168 -0.33384165 -0.22576252 0.7970815 1.0300231 0.46365985 0.3293374 0.16043036 -0.45609358 -0.51233727 -0.5055667 0.41584998 -0.22768584 0.38550064 -0.28033152 -0.27937043 0.29892033 -0.13901608 0.091274306 0.25282314 0.26064932 0.02403898 0.4083196 -0.03710317 -0.9007908 -0.40651768 -0.27580535 -0.095483884 -0.295483 -0.20264247 0.12233571 0.5454947 0.22512369
1430 -0.6369119 0.45414582 0.1857653 0.23557277 0.32924142 0.29014364 -0.13269846 0.24923126 -0.21776596 0.07434057 0.3530466 0.42047083 0.45853958 -0.1529085 0.5438327 0.29951674 0.114049666 -0.3603866 0.60623 -0.0029970517 -0.39268872 0.8764183 0.6024943 -0.5796744 -0.60589486 -0.31123376 -0.40400624 0.44660944 -0.4068492 -0.6769586 0.12094169 -0.26560327
1127 0.028894262 -0.22305152 0.15974368 0.75193805 -0.48714265 -0.021414082 -0.03393829 0.4198424 -0.29210058 -0.296324 -0.047055256 -0.16552904 0.98587894 -0.023222808 0.14247204 0.61918277 -0.38911402 0.0030129661 -0.31130254 -0.1897987 -0.3317195 0.5957398 0.41630942 -0.19603789 0.12656687 -0.14609648 0.014898944 0.8566775 -0.62313354 -0.59353775 -0.91645783 -0.44921938
1121 0.22003607 0.22834195 0.23396902 -0.27172408 0.22344069 -0.021497251 0.0877805 -0.29948097 -0.7068068 -0.4768922 0.15825929 0.14824411 0.76020646 -0.8143627 -0.1453382 0.3951458 0.23070498 -0.05618163 -1.0837456 0.10154179 0.060105365 0.60238856 0.14976993 -0.5495373 -0.5327269 -0.29955557 -0.5403778 -0.055928033 -0.8025111 -0.20559171 0.41936985 0.3450315
1431 0.37636518 -0.26752126 -0.10276904 -0.43233126 0.7978492 -0.34394643 -0.2738546 -0.11690685 -0.09546658 -0.2766614 -0.28159106 0.056737993 -0.08906958 -0.63954985 -0.26554203 0.13229243 -0.10028489 0.4881092 0.12381302 0.45426247 1.0428526 0.027655756 0.32685232 -0.27782628 0.017317826 -0.06652764 -0.18082915 -0.0878495 0.20520112 -0.38968185 -0.7611122 -0.13126941
1250 0.07850218 -0.16865876 -1.2203099 -0.10136912 -0.45153224 -0.04154293 0.4350146 -0.4780795 -1.3175763 -0.78569037 0.16620615 -0.20174487 0.20624182 -0.7917611 0.30575278 0.32572454 -0.42023066 0.35153255 0.32858124 0.93183565 -0.08772823 0.9432735 0.93486977 0.058434892 0.24234463 -0.6919288 -0.28269053 0.9299009 -0.011609757 0.55372345 0.48742777 0.3046005
1083 -0.15544622 -0.12415406 0.010973758 -0.069361605 -0.23585063 0.033780724 -0.3633317 0.5650256 0.020062372 -0.68819517 -0.48786804 -1.0397444 0.56560963 0.042899348 0.3659025 0.64956117 0.23715422 -0.04093901 -0.15814643 0.20839243 0.108155206 0.7050621 0.17615193 0.19033349 -0.13284352 0.029852822 -0.58945686 -0.26173544 -0.4995228 -0.43100026 0.7180924 0.49982038
1111 0.15295994 -0.30289993 -0.18770853 -0.19624084 0.3191459 0.56675714 -0.046307135 -0.1444119 -0.66350865 0.3517979 -0.5287427 -0.8336288 0.0983776 0.38942853 -0.32936722 -0.067832716 0.85119355 0.07553931 0.19530754 0.48677146 0.23775008 0.89845365 -0.4983731 -0.031415984 -0.10205823 -0.15639532 0.024602994 0.9826113 -0.4630769 -0.82083786 0.40768176 -0.010690361
1373 -0.50763035 -0.51469445 -0.087474674 0.039812874 0.4983178 0.15329623 -1.0129335 0.660717 -0.07030356 -0.6236632 0.7530322 -0.34651104 0.053748943 -0.110348746 0.4947735 -0.28548366 -0.1961673 -0.1783607 -0.6012243 0.03701334 -0.0029403032 0.7302355 -0.26730448 -0.48796275 -0.16274898 -0.8284795 -0.6973253 -0.053376198 -0.78738546 -0.07403312 -0.21699123 -0.082811624
1375 -0.7335762 -0.08170883 -0.37750617 -0.1879387 0.62928617 -0.18059036 -0.1350698 0.10758389 -1.0060385 -0.7090801 0.18708324 0.22806999 -0.075704455 0.13453844 0.7340586 -0.064144254 0.08702878 -0.75191545 -0.89558226 0.52188927 -0.104000926 0.90234876 -0.0722518 0.22999938 -0.07620732 -0.3950348 -0.523872 -0.07291524 -0.91117567 -0.36490262 -0.28822136 -0.44851458
1258 -0.079598755 -1.2030059 -0.098902434 -0.10521329 0.7187669 -0.9225781 -0.27545705 0.06573659 -1.1733837 -1.5915014 0.07579254 -0.86909646 1.077592 1.2480652 -0.2930312 0.06635673 0.52480674 2.4496057 -0.353171 1.7016693 0.331272 0.8685031 0.808622 -1.569938 0.44772917 -0.9169392 0.14839104 1.1799964 -0.7011277 0.37094286 -0.36610624 1.1409566
1314 0.20102827 0.1989313 0.41787776 0.32546756 -0.3646283 -0.68001044 -0.60596675 -0.20166387 -0.83870995 -0.7277787 0.14138223 -0.7699242 -0.040664785 -0.25536054 -0.19132382 -0.018551892 0.26353252 0.118947394 0.29566494 -0.18807188 -0.68140644 0.8057691 -0.19657175 -0.8853432 -0.4744696 0.3160984 -0.15408485 0.42813042 -0.33809212 -0.4307597 -0.20060089 -0.6483665
1197 -0.39236072 -0.25972307 0.019162146 -0.07147063 0.5297539 -0.20951636 0.0016203548 0.46547374 -0.387649 0.668449 0.29376018 -0.12288846 0.45189783 -0.1066691 -0.24798596 0.8619172 -0.4874828 0.62731886 0.50618315 -0.14121243 0.14942272 -0.017888583 -0.08341878 -0.4464686 0.058008716 -0.17536868 -1.0509769 0.79299515 -0.07247445 -0.60103005 -0.03792236 -0.35073066
1511 0.11914843 -0.8437202 0.030872222 0.3462051 -0.44640177 -0.40759018 -0.1296774 -0.23523748 -0.6263771 0.07328688 -0.22228593 -0.1084627 -0.030892141 -0.3179065 -0.050043833 0.9395406 0.5256673 0.15319273 -0.13357475 0.6865281 -0.0017900694 0.6368521 0.4431471 0.6591757 0.1453616 -0.6506531 0.21831182 0.5750154 0.122911565 0.055616464 0.3641173 -0.20032255
1227 -2.7341192 1.4022526 0.24551941 1.1462888 0.20824446 0.44112802 1.1037643 -0.00061381113 -1.4613508 -0.15934896 3.225981 -0.94124526 -0.7578879 1.8201225 0.22554715 3.2631583 0.7320961 0.4546464 -1.430412 1.2861117 1.7578558 1.9284158 1.1112542 -2.1462207 1.5366325 -0.7011914 -0.14756353 3.323786 -0.537287 -0.46890774 0.050432634 0.7158878
1451 -2.68348 1.3610866 0.18455662 1.179041 0.18064968 0.39776638 1.1762263 -0.039934028 -1.5089965 -0.16233698 3.18761 -0.98471874 -0.77741677 1.857223 0.15069038 3.23023 0.7582498 0.42248258 -1.4189138 1.2729688 1.7677215 1.9934454 0.99637437 -2.1762934 1.5726403 -0.6967793 -0.17974015 3.2299752 -0.5938235 -0.48531842 0.09038085 0.6846013
1324 -0.10473316 -0.24678738 0.049361523 0.13355196 0.1587575 -0.5440266 0.3922461 0.18522061 -0.61247545 0.06859309 -0.049578987 0.027004613 0.12511082 -0.53447837 0.25478142 -0.1403221 -0.22185972 0.2851657 -0.23712867 0.48862547 0.12673584 0.26642403 0.19471219 -0.40184933 0.19120255 -0.14901644 -0.20989826 -0.25196165 0.17602052 -0.6366981 0.27185282 0.0018716576
1090 -0.12346815 -0.009379877 0.12137615 -0.12969366 0.37819088 0.16835 -0.1453884 -4.5671713e-05 0.15733957 -0.27876532 0.11141468 -0.39440304 0.09320025 -0.11723044 0.0546672 0.6389796 0.00984464 -0.07208682 -0.16648166 0.3764598 -0.072398044 0.5434859 0.7310003 0.15810564 0.18103817 0.24311039 -0.53639466 -0.35149828 -0.45677948 -0.15521015 0.19127494 -0.043873977
1489 0.21846789 -0.27533814 -0.73744625 0.5006555 0.27699047 0.07580161 -0.17382553 -0.20712502 -0.0796885 -0.08657708 0.12542246 -0.21511714 -0.6827665 0.62511355 0.74004114 0.061768975 0.29214942 0.63688344 0.06376114 0.43154743 0.8147212 0.52307487 0.38938677 -0.51736265 0.07362852 0.681637 -0.47107863 -0.025562864 -0.050697215 0.21619292 -1.0066262 -0.0026074639
1656 0.51512367 0.15300846 0.06438635 0.289127 0.30239862 0.054056693 -0.0050846417 -0.660432 -0.29876563 -0.17537473 -0.15024212 -0.036550686 -0.62255204 0.3200261 0.4412065 0.5496235 -0.011128996 0.80721897 -0.5449895 0.21524324 0.18929702 0.41615075 0.6231178 -0.08162352 0.12660876 0.15089354 -0.33020234 -0.04748318 -0.4627697 -0.017295076 -0.33590132 -0.32100242
1005 -0.020576363 -1.4034399 -0.1587331 -0.16198733 0.62578 -0.9974296 -0.23083465 0.0484545 -1.2423525 -1.2860663 0.02568262 -1.0762149 1.0872818 1.3076177 -0.20623347 0.19396277 0.8895391 2.4886367 -0.36113426 1.6625552 0.53800833 0.67509055 0.825519 -1.5079681 0.551909 -0.99626553 0.27956954 1.1733413 -0.8330863 0.47512883 -0.53226995 0.9786315
1319 -0.65702844 -0.012513171 -0.36501688 -0.23518836 0.8433212 0.53675544 0.23534678 -0.22614832 -0.21082453 -0.16555487 0.32710257 0.07454469 0.30706984 -0.23013383 0.31062496 0.10260319 -0.031846136 -0.34718862 -0.11315114 0.64651734 -0.09660167 1.1578418 -0.7298505 -0.72278893 -0.13649692 -0.78780764 0.21723925 0.48954788 -1.1812899 -0.6005326 -0.9044388 -0.16016242
1249 -1.2721869 0.041248865 0.4812163 -0.5967062 1.0777258 -0.73865265 -0.58938926 1.0408536 -0.39215642 0.091978915 -0.10690581 -0.8629349 0.31807992 -0.2646198 -0.28845528 0.98341095 -0.29106376 1.1443974 0.07996466 1.0172869 -0.21034214 0.3730192 -0.043840617 -1.0970988 0.17560142 -0.5707094 -0.11732283 0.0781221 -0.7957596 0.9119809 -0.723063 -0.3471283
1308 0.26036844 -0.23869137 0.06755294 0.072577335 0.06639489 -0.5634111 -0.42950317 0.43227386 -0.3897554 -0.12878926 0.737829 -0.08501341 0.3973174 -0.40750155 0.37066185 0.7160022 0.16435039 -0.11239655 -0.21186458 0.5945102 0.30343828 0.23646517 -0.3079297 -0.2379403 0.3197135 0.36018753 -0.47936067 -0.37419334 -0.8638248 0.265667 0.8214665 0.045589868
1218 -0.25507373 0.43602633 -0.08726668 -0.18368848 0.32214192 -0.17956512 -0.023475682 -0.1028068 -0.7343231 -0.6695941 -0.0030162376 -0.31230697 0.5628116 -0.42743385 -0.11770798 0.34085184 0.08310732 -0.057810884 -0.7721601 -0.056479014 0.28502914 0.4761244 0.10889416 -0.3779303 -0.7132457 -0.33725715 -0.5998739 -0.25141653 -0.9645161 -0.47579244 0.7739959 0.37747034
1482 0.6319785 -0.47847614 0.5915101 -0.15148395 0.4394727 0.23410936 -0.18921474 0.2239008 -0.77981377 -0.058285225 0.7534836 -0.2986443 0.18679881 -0.5043319 0.16669935 0.73668724 0.33230335 0.41412306 -0.38841367 0.24916148 0.12751235 -0.141254 1.035432 0.24977094 -0.029498769 -0.17508881 0.055920582 -0.15077269 -0.49270415 -0.4426958 0.1204314 0.75081664
1196 -0.5962783 0.424701 -0.086411655 0.16969742 0.42144164 -0.20460555 0.17313217 -0.5219067 -0.7477083 -0.96650606 0.24038337 -0.4052048 0.3372632 -0.33853433 -0.09471442 0.26714265 -0.0758666 0.1383891 0.2547017 0.63608724 -0.22056255 0.30385086 0.116754584 0.061716452 0.46598437 0.37749788 0.34078246 0.31391582 -0.31570622 -0.26323983 0.12678789 -0.6179525
1017 -0.13683224 -0.37606412 -0.19224316 -0.12492812 -0.07706727 -0.3202331 0.39550722 0.5351113 0.36642236 0.009996785 -0.087968 -0.21080828 -0.08455084 0.36299318 -0.39709446 0.72800195 -0.2290401 0.35298136 -0.41800776 0.351796 0.05326131 0.1370106 0.4359515 -0.4007906 0.36425152 0.27325794 -0.21827039 0.42925647 -0.5557679 -0.85131097 -0.6107386 -0.215404
1312 0.5671178 0.26135898 -0.85523516 0.06531054 0.6502077 -0.48019233 -0.5988894 -0.10004351 -0.62577397 -0.49729043 -0.2421194 -0.04323482 -0.8290786 0.047133956 0.41586143 1.9812025 0.462984 -0.31355038 -0.33737203 0.37114784 0.53439283 -0.15008207 0.5247578 -0.99639153 0.2964457 -0.24820252 -0.8993425 0.6730036 -0.06854026 0.59330285 -0.34359315 0.2441329
1944 0.035297714 -0.22222814 -0.51312757 0.04890417 0.51513594 0.2579972 -0.3586476 0.12762904 -0.6248546 0.12398225 0.7850525 0.21372949 0.25493515 -0.45188916 0.24091007 0.6514639 0.32192916 0.060492225 0.29393813 -0.023862232 0.33069983 0.9047757 -0.08419482 -0.22573744 -0.08026741 0.36873537 0.03333458 -0.86081207 0.13176513 -0.17098613 0.26786876 0.52453196
1580 0.36737362 0.33506042 0.022209868 -0.21988963 0.53867006 0.35695168 0.26580983 0.4344531 0.15909755 -0.32843858 0.32830867 -0.9127513 0.10071031 -0.018740447 0.016599977 0.20860898 -0.25835112 -0.5599705 -0.19045965 0.11837003 0.38975477 0.60659444 0.5264221 -0.37222195 0.4810533 -0.15094617 -0.0066078175 0.3752241 0.2077838 -0.4864489 -0.380645 0.3567721
1906 -0.40403968 -0.5575368 0.33403787 -0.27346498 0.27669352 0.48679128 -0.35718778 -0.21087533 -0.64008844 0.100471325 0.91077936 -0.4797923 0.36997935 -0.28336933 -0.045929864 0.26266107 0.88131636 0.121437095 -0.030236306 0.110923216 0.62898654 -0.15765579 0.78328246 0.1465818 0.3505289 -0.22438544 -0.2533305 0.20079023 0.21024247 -0.15470101 -0.11324006 -0.1808542
1410 0.3209376 0.4202475 -0.00994823 1.431798 0.69667 0.18430556 -0.46839902 -0.36761916 -0.30583736 -0.8937462 -0.07979557 -1.5680964 -0.5096362 0.39565897 0.21399625 1.2109641 0.009289377 0.6558893 1.4276258 0.5671945 1.3918412 -0.32696775 0.1716788 -0.4182798 -0.025263468 0.0235069 -0.23991616 0.89974576 -0.70915323 -0.15526763 -0.37557063 -0.5196037
1267 -0.26228842 -0.122526884 0.40508077 -0.29198858 0.6604711 -0.90722215 -0.069200635 -0.024794292 -1.1034428 0.699276 0.35772818 -0.040862978 0.46308887 0.25039676 -0.11134299 0.665749 -0.5584081 0.40499344 0.49777222 -0.00070065714 0.5266722 0.48759773 0.17714167 0.18443133 -0.10013547 0.16982743 -0.55405486 0.7290867 0.012374733 -0.21954979 -0.029553087 0.097187646
1182 0.03883479 -0.70330447 0.08874715 0.4858843 0.38528708 0.3838695 0.40764365 0.24087478 -0.51217026 0.3439429 -0.3383793 -0.45704937 -0.3263733 -0.04482902 0.06323425 0.21122499 -0.70063365 0.065100536 -0.5065647 0.37677196 0.88850385 0.47835895 0.22628212 -0.5331525 -0.3628343 0.7326621 0.119755596 0.41026628 -0.7197034 0.82600737 0.2480958 0.25068882
1067 0.48265317 -0.036417615 -1.1365873 0.42290127 0.8374003 -0.0005657847 0.12540083 -0.07168554 -0.070404515 -0.38766026 0.033428594 -0.13901964 -0.70600665 0.86314416 -0.09251689 0.753371 0.6630666 0.17678373 -0.10565543 -0.0032406736 0.6104857 0.571054 0.43711835 -0.7708711 0.3790531 0.36296257 -0.4435188 0.12284264 -0.27517778 -0.27169955 -0.6131769 0.15176001
1623 0.064255096 -0.53063864 0.11695419 0.29079998 0.05043685 0.23778674 -0.3184145 0.31693646 0.28666905 0.48611292 0.042422056 -0.75092447 -0.09981262 -0.55556744 0.53865737 0.043776184 0.032687534 -0.6571614 0.008098287 0.27647248 0.37142983 0.43927714 0.7711219 -0.39620942 0.22051938 -0.27788624 0.109842844 0.2073057 0.1466583 -0.32320282 -0.020167695 0.25355327
1342 0.32609853 0.17794538 0.27574918 0.15544261 0.41860414 -0.2695129 -0.102886796 -0.23168314 -0.18382928 -0.03238704 -0.2717892 0.035349783 -0.39519504 -0.046941306 0.96671885 -0.3080933 0.054199938 0.19041668 0.34685102 -0.3031707 0.514248 0.57491004 1.0322598 -0.58585536 0.3839189 -0.05827526 -0.62638587 0.20664756 0.059533037 -0.11731139 0.019563537 0.23958477
2108 0.06984367 -0.36571333 -0.32960686 0.81744945 -0.3059508 -0.6054451 -0.18429606 0.43424574 -0.8250145 0.37986788 0.34250817 -0.537429 -0.08353737 -0.10791741 0.056217667 0.46569008 0.029250924 -0.67793965 0.34742558 0.48793253 -0.1284067 0.22776935 0.0083139865 -0.236897 -0.058251128 0.44634944 -0.5060056 0.059098534 0.12204718 -0.15572697 -0.23282744 0.0790641
1385 -0.9710695 0.61160964 -0.42508167 0.24564867 0.45837492 -0.004710692 -0.33938432 -0.5300369 -1.3681113 -0.6529549 0.12214358 0.072679706 -0.35824436 -0.9879914 0.19283797 -0.20086382 0.13429496 0.31625628 0.28474954 1.191952 0.15404709 -0.37419066 0.09048527 -0.74467593 -0.23452863 0.28252143 -0.4626062 0.2197023 0.011640625 -1.1742208 0.2462738 -0.1674058
2184 0.45215473 -0.1350038 -0.0431483 0.2822569 -0.3690291 -0.15496191 0.46707973 0.0014650797 -1.143041 -0.31816152 -0.05034947 -0.903561 0.037199564 -0.3811733 0.340532 0.027637629 -0.5725516 -0.028966134 -0.021319304 1.0282022 -0.2850218 -0.027726358 0.22394168 -0.11812741 0.18821745 -0.087806635 -0.36683035 0.066673726 0.11711324 -0.25619844 -0.15824513 0.47217768
1757 0.40123352 0.2685305 -0.12563857 0.23131578 0.20542641 -0.17927949 -0.15796685 -0.39598325 0.22479689 -0.16520774 0.083734386 -0.07365062 -0.68070096 0.2688746 0.20979626 0.5431054 0.5236314 0.74562347 -0.03779405 -0.027704505 0.3072012 0.795984 0.94739604 -0.5488505 0.07798938 0.3853917 -0.54532826 -0.042883262 0.25011617 -0.06238308 -0.7335122 -0.31001022
1617 -0.38550094 0.9020746 -0.13591416 -0.12566 0.52240837 -0.057894494 0.36765972 0.032724462 -1.0465542 -0.6411189 0.14581063 -0.7170488 0.41204253 0.030717764 -0.18854885 0.07715192 -0.4639799 0.19856755 0.0028693597 0.20614754 -0.06335531 0.5346898 0.5511435 -0.41685995 -0.11952069 -0.23396993 0.47691005 -0.22276305 -1.3095564 -0.6699254 0.5908218 -0.5873346
1608 -0.0147565575 -0.2510531 -0.6397213 -0.03491087 0.4608107 0.037949912 -0.40684608 0.3669263 -0.4740745 -0.5838223 0.32317573 -0.21572573 -0.25142512 0.028253617 0.16319107 0.43038797 -0.39819428 0.2488198 -0.1868992 0.5037215 0.1637097 0.509857 0.26393852 0.82988083 0.14185749 -0.77388996 0.059500035 0.51874906 0.11098147 -0.2378378 0.010209649 -0.687474
1668 -0.20905209 -0.015452219 0.3836378 0.03739498 0.36329088 0.034347307 -0.2859368 -0.025645064 0.012671012 -0.34972796 0.07879622 -0.38047725 0.11835741 -0.4241958 0.021968933 0.40821528 0.05771636 -0.32242393 0.03470833 0.277387 0.13489027 0.5450189 0.6575244 -0.020267649 0.29153103 0.45684853 -0.202164 -0.51690847 -0.6412857 -0.11601294 0.0024258415 -0.047560517
1542 -0.3792528 -0.20103237 0.08543698 0.3641093 -0.04802969 -0.36211434 -0.4943046 0.14616647 -0.49151707 -0.45825133 0.8474801 -0.25165322 -0.3153937 -0.034301434 -0.2932261 -0.37254542 0.030786237 -0.15617302 0.022117466 -0.056289714 0.1876811 0.8124204 0.104272656 -0.54607403 0.19805126 -0.57210326 0.34989858 0.26862463 0.22213708 -0.45704964 0.1403675 -0.7695988
1213 0.3926649 0.16782404 -0.53834003 -0.5799205 0.48702493 0.072582364 0.45904356 0.3683943 -0.3256361 0.45939878 0.30250928 -0.9738112 0.05526225 0.75932723 0.05412147 -0.025452701 -0.08390198 -0.35108635 -0.17804259 1.1851784 0.26689208 0.9503167 0.17082551 -0.094543636 0.25200832 0.24690379 0.49981913 0.38229603 -1.1740155 -0.99157 0.37786335 -0.74567765
1531 0.042494863 0.006314967 -0.69694716 -0.15034036 0.33884656 -0.6072145 -0.14651838 0.36804715 -0.68456596 1.1488208 0.51159346 -0.5612548 0.4547875 -0.27984324 0.21967849 0.7191392 0.17267488 0.22402547 0.2642685 -0.76857144 0.1025488 0.64807206 0.22326466 -0.30460483 0.23341258 0.25505382 0.48046452 0.38483775 -1.0129383 -0.124924056 -0.2882326 0.08484696
1660 -0.0993762 -0.73702997 -0.17662717 -0.030225605 0.62637484 0.5479888 0.020197742 0.15562834 -0.050403282 0.7038806 -0.029600294 -0.4272855 0.2218608 -0.2027913 -0.004759987 0.2720134 0.43910104 -0.071436174 -0.1355097 0.37634334 0.053674813 -0.12175819 0.18040533 -0.5053801 -0.26570618 0.40231243 -0.60219544 1.2200061 -0.45521557 -0.4457396 0.32691836 -0.8480888
1253 -0.77029324 0.14045449 -0.08580574 0.0993008 -0.28940183 -0.5919302 -0.053356513 -0.39965302 -0.54118115 -0.34378454 -0.017877009 0.016420811 1.0191034 -0.32548454 0.3233002 0.22177559 0.22917134 -0.0383881 0.16919479 -0.123102136 -0.58938664 0.9782219 -0.06164756 -1.1484007 0.33064476 -0.15575103 -0.54833525 -0.1754681 -0.19347797 -0.48457876 -0.2425351 -1.0278432
1381 0.23145181 -0.14673413 -1.3163975 0.025210915 -0.51803935 0.042846106 0.6596009 -0.5464405 -1.3294623 -1.004464 0.1647972 -0.2775188 0.3115593 -0.9246644 0.40573946 0.2579233 -0.45087627 0.50073665 0.4861261 1.0882176 -0.03199017 1.0085721 1.0205556 -0.11721313 0.24081264 -0.7369753 -0.42558828 1.0650716 -0.07488167 0.4314708 0.48717803 0.54065746
1230 0.20372371 0.10406674 0.15856558 0.94236857 -0.2102524 -0.4980338 -0.20387694 0.2668975 -0.817803 -0.5463022 -0.31213778 -0.65150225 0.007268811 -0.034469694 0.16898268 0.14180313 -0.1136103 0.21671924 0.75084144 0.47846264 -0.04039056 0.017504156 -0.026975071 -0.17696196 -0.271597 0.361678 -0.54501444 -0.016346848 -0.08912013 -0.4224578 -0.39868513 -0.06564227
1144 -0.074532956 -0.16182749 0.07061295 0.22106953 0.052825484 -0.010705705 -0.314313 -0.5658215 0.24959794 -0.44204482 -0.19784914 -1.0493418 0.6541536 -0.16520427 -0.011906368 0.4536069 0.2361753 0.07945562 -0.2445389 0.9212715 0.2918955 0.2089761 -0.23634975 0.11132517 0.13878493 -0.39138597 -0.65978324 -0.15214308 -0.23946238 -0.40576535 0.2245246 -0.2602266
1180 -0.3896997 -0.07560981 -0.42173418 0.39038458 -0.3080969 -0.5564852 -0.4159526 0.3136807 -0.24977311 0.253717 0.52238053 -0.6631728 -0.3188826 0.043381162 0.11678992 0.26516822 0.2514474 -0.35719746 -0.11317361 0.5685408 0.19426847 -0.13893203 0.34333706 -0.4005127 0.25930527 0.44511044 -0.43841267 -0.15389046 -0.5196608 -0.46970135 0.33942366 0.41585454
1141 -0.20146327 -0.17448774 0.32558894 -0.80326277 0.13244079 0.7098548 -0.37610477 0.4568716 0.0030603185 -0.42301986 -0.014786396 -0.3511655 0.13450803 0.25592485 0.30606812 0.947023 -0.34197095 -0.4652796 -0.09331139 0.7072039 -0.06757393 0.78390694 0.8481508 -0.11945891 -0.39377722 0.20474961 -0.54660994 -0.3744959 -0.21421982 -0.51463175 0.5005755 0.013830349
1696 0.53761816 0.019783203 -0.52133954 0.5522153 0.4062203 0.05703964 -0.28817385 -0.40744027 -0.28548646 -0.2262774 -0.16297507 -0.23439725 -1.0424994 0.654638 0.33655384 0.73571134 0.263065 0.67329377 0.025098328 0.17793489 0.54226017 0.69723237 0.40767 -0.4656615 0.15951635 0.23952746 -0.21701685 0.023043074 -0.027309932 0.0038026823 -0.8368184 0.029689591
1502 0.444928 -0.45905545 0.6114159 -0.52083 0.29154456 -0.24610925 -0.10746004 -0.1255405 -0.34523705 -0.3289456 -0.08768347 -0.3341029 -0.30351377 -0.679262 0.11268373 0.028054522 -0.31238788 -0.46520084 -0.1346887 -0.37425306 -0.3941676 0.45613647 0.512938 -0.74592197 0.35329798 -0.09720181 -0.21236397 0.60578406 -0.18825628 -0.75644636 -0.35638565 -0.12172166
1785 -0.1780023 0.42400762 0.51991296 0.011816417 -0.30483687 -0.09888324 -1.0320872 -0.4014028 -0.8988627 -0.42602864 0.3219229 -0.57615703 -0.32794678 -0.39195183 0.0010327076 -0.4449598 0.18901403 0.36593178 0.46896735 0.34241536 -0.0004273832 0.69095254 0.1891148 -0.45504493 -0.888718 -0.15094103 -0.08022497 0.37253502 -0.9812149 0.08310246 0.1366004 -0.74779737
1028 -0.22322458 -0.1672095 -0.32322478 -0.38139376 0.7603211 0.18653578 0.3604092 0.6139153 -0.007506285 0.6519559 -0.044184875 -0.30288014 0.36776936 0.30431002 -0.25486672 0.28009018 -0.34961334 -0.194013 -0.31812787 0.6973685 0.25493592 0.54251814 0.67506915 -0.22315173 0.26769057 0.52772605 0.48484412 0.63326186 -0.740438 -0.67784435 0.07433566 -0.81725025
1200 -0.2215649 0.0070558335 0.35558027 -0.09567988 0.7923112 -0.9605167 -0.15892577 0.123699516 -1.0132302 0.7030287 0.40935472 -0.31437773 0.26959515 0.10856694 -0.13010581 0.74468577 -0.45472267 0.6703084 0.39991266 -0.10764343 0.6188498 0.36628312 -0.012690254 0.24085711 -0.13813537 0.19029845 -0.75079256 0.69521785 -0.049655527 -0.1779456 0.056866337 0.16298364
1875 0.033956848 0.39729202 -0.64022744 0.05006538 0.44773915 -0.91573 -0.13556293 0.31022874 -0.31377536 0.3392819 0.48702094 -0.52250654 0.22684892 -0.52199227 0.13244343 0.6711492 0.5417003 -0.5377993 -0.22945985 -0.096159965 0.05907927 0.22213596 0.59806377 -0.47539395 0.5688185 0.07602491 -0.13111399 0.43072394 -0.5344271 0.28642103 0.5467258 0.30735484
1300 -0.5403411 -0.38184696 -0.18988198 0.19090714 1.1193042 -0.19572559 -1.5033296 0.66711855 -0.1486973 -0.15018263 0.03080278 -0.57480824 0.6761896 -0.73534524 0.39298347 -0.4309441 -0.15976231 0.31417117 -0.49596012 0.23329748 -0.0705952 0.718504 0.18548064 -0.64800924 -0.6564418 -0.5370225 -0.37088105 -0.30560553 -0.4163278 0.3884149 -0.24806951 -0.7779816
1161 0.021360898 -0.70357853 -0.036378626 0.20247467 0.9867679 -0.13040058 0.48187977 -0.16732427 -0.3964638 0.08025292 -0.42816186 -0.78722775 0.48981306 -0.39374828 0.2566443 0.8579521 -0.5602842 0.34467345 -0.16693774 0.52786803 -0.22097228 0.44021216 0.36757812 0.14188941 -0.35891253 -0.09683103 -0.3461638 0.13035743 0.49758247 -0.25720948 0.7095649 -1.289327
1540 -0.051273674 -0.6219761 0.37377727 0.20997614 0.66119623 0.22131278 -0.106873125 0.30189475 0.14969406 0.5413114 0.44240847 -0.32068178 0.4225395 -0.93872195 0.6071088 -0.41405872 0.63362956 -0.18757367 -0.42148134 0.42086056 0.32525977 0.0535473 0.754563 -0.44638905 -0.1901278 -0.04735587 -0.31752807 0.76120436 -0.32651037 0.06935657 0.10983362 0.09016386
1120 0.107489295 -0.121640906 -0.18317534 0.73270303 0.30320296 -0.16791685 0.44665387 0.12879807 0.19721295 0.19558194 -0.5182584 -0.40617067 -0.0954211 -0.5443945 -0.39554313 0.32124686 -0.022143567 -0.16095395 -0.002305721 0.38669643 0.25497153 0.640798 0.19209541 -0.27102494 -0.012735036 -0.6101602 -0.20388213 -0.18668061 0.015012354 -0.82657504 0.3030211 -0.31217647
1824 -0.13709663 -0.10586115 -0.03376345 -0.24022065 0.2079486 0.08353198 0.23786788 -0.2637627 -0.45699877 -0.5098871 0.069776386 -0.548796 0.16072641 -0.36145288 0.029167915 0.42392907 -0.31478637 0.11838766 0.35763532 0.64026624 0.22650851 0.33493206 0.11085974 0.23044528 0.2942635 -0.117206566 -0.31560987 0.48854667 0.25878155 -0.19964959 0.61784583 -0.8821497
1747 0.414587 0.01050881 0.12652573 -0.15682496 0.060258377 0.2749584 0.56881726 -0.10838291 0.40904957 0.08563746 0.74244785 -0.29924875 -0.04517901 -0.7569176 0.17692839 0.07932529 0.17332472 0.5458816 0.2694632 0.97368586 0.28582114 -0.10823459 0.4666993 -0.21985812 0.65427315 -0.28088337 -0.7851333 0.7399781 -0.32320747 -0.62682134 0.05235539 -0.15778796
