799 32
1037 0.20488632 -0.053404726 0.14215434 0.08517473 0.23634495 -0.35414225 -0.11324817 -0.032652322 -0.10950232 0.0015798984 -0.0009697718 -0.22088149 0.0393923 0.16664879 0.065407455 -0.01975566 0.13410099 -0.081558876 0.02223207 0.2879742 0.31159532 0.39962858 0.4148402 -0.2716281 0.21378002 -0.16207133 -0.02455216 0.38190198 -0.20125316 -0.45544964 -0.2693134 0.05495478
1007 0.26998752 -0.37871078 -0.03896509 0.18925196 0.2504472 -0.06347453 0.17946225 0.01757674 -0.32717136 -0.09200501 0.07330081 -0.057986356 0.38626084 0.19230771 0.010661122 0.002578745 0.19732733 0.38310146 0.21277493 0.30839595 0.43893784 0.5262402 0.25797108 -0.11584358 0.17305942 -0.21709001 -0.7327999 0.029513804 0.25269544 0.1290858 0.001251002 0.015458447
1138 0.023682533 0.02702352 0.18021111 0.03065705 -0.19614151 -0.098423004 0.2624243 0.13768062 -0.12606911 -0.30030218 0.3089469 -0.558004 -0.13320622 -0.23880516 0.1489445 0.4471729 0.3649071 0.17620778 0.37344995 -0.052833274 0.27143082 0.31838942 0.23668198 -0.15122068 0.06425551 0.1392681 -0.5484907 0.47765303 0.112657666 -0.1831188 0.13846448 -0.12326094
1016 -0.114818685 -0.2799223 -0.009900393 -0.03706062 0.19957401 -0.21666199 0.11244908 -0.17318946 -0.1665473 0.16987236 -0.00936221 -0.13039047 0.08330921 -0.049654897 0.2183457 -0.12906846 0.03854191 0.40248603 -0.06111943 0.19018796 0.45182464 0.4294205 0.34733018 -0.15127225 0.01415732 0.13689657 -0.3199704 0.09687529 -0.42901564 0.013476551 -0.2244032 0.18387869
1105 0.19284375 -0.25346753 0.060331106 -0.11659789 0.29679692 -0.38982406 -0.07695656 -0.030457165 -0.13132297 -0.08796919 -0.0764403 -0.23476629 -0.08859261 -0.29850972 -0.11696126 -0.054593556 -0.0002154661 0.36003134 0.2353917 0.27677038 0.005900962 0.44761184 0.34030017 -0.2291968 0.029187093 0.06505143 -0.36221784 0.44061506 -0.06585158 -0.08510039 -0.0067298166 0.20701773
1034 0.08162681 -0.5024179 0.31192198 0.04346896 -0.03381556 -0.18161355 -0.08672258 -0.02620823 -0.37365243 -0.0022863687 0.3416442 -0.06683684 -0.3183291 -0.5875508 0.36629328 0.43456674 0.33856666 -0.032086775 0.33918884 0.056598928 -0.077326216 0.31123167 0.16667993 -0.03557638 -0.0004331857 0.3206902 -0.35759112 0.14402877 -0.23863587 -0.32870045 0.105502695 -0.14874366
1309 -0.078982756 -0.37300456 0.26055077 0.02939871 0.1741254 -0.24447551 0.113240734 -0.0353313 -0.47430664 0.062056098 0.021215975 -0.47012985 0.03593727 0.06895877 0.025122361 -0.004059823 -0.061283577 -0.0776839 0.17383176 0.07553393 -0.039257362 0.10458816 0.4833348 -0.5027585 -0.54126656 0.20102677 -0.2957148 0.170941 -0.19439487 0.10346255 -0.0010571037 -0.4710371
1079 -0.029609956 -0.5542056 0.4312657 0.31846666 0.1917594 -0.14469425 -0.09705954 -0.039353445 -0.34633574 0.19746579 0.013720895 -0.20452635 0.11331322 -0.20861563 0.4073839 0.3250323 -0.0665727 -0.09890806 -0.06545786 -0.17499116 0.2802634 0.12644865 0.02523585 -0.24296935 -0.43558076 -0.04389289 -0.34047434 0.03436949 -0.2531938 -0.57007235 -0.25505376 -0.39391613
1246 0.02308781 -0.041640688 -0.040823855 0.004431748 0.2499177 -0.24956419 0.40414056 -0.12008261 -0.01662274 0.28752157 -0.30277088 0.02208997 -0.16817914 -0.1669355 0.03197404 0.14128754 0.065444745 0.2786466 0.32916716 0.47281516 0.49458188 0.3104847 0.36731508 -0.13799925 0.17653207 -0.0896108 -0.33496684 0.35781553 -0.14131884 -0.27388626 -0.24447569 -0.1267322
1049 0.18191297 -0.37457395 -0.1133654 0.19581337 -0.114059046 0.093863495 0.1218826 -0.15788135 0.052462403 -0.3136983 0.025939656 -0.4449277 -0.33829114 -0.15141414 -0.00033261758 -0.121694 0.23912916 0.28439325 0.32046062 0.1083336 0.2779995 0.278773 0.49378884 -0.3533294 0.45401162 -0.3855034 -0.35547048 0.4603167 0.12579235 -0.22583438 0.2168081 0.10841592
1147 -0.07059557 -0.08588352 0.17195337 0.41812447 0.02344731 -0.15620697 0.5065318 0.06611633 -0.45688134 -0.06143172 -0.031127935 -0.10700398 -0.054877527 -0.47324806 0.5587728 0.49657297 0.090415485 -0.19704664 0.23766777 -0.4044402 0.25615743 0.35045132 0.21539655 -0.7409606 -0.2572716 0.15785696 -0.016215207 0.102418415 0.07706131 -0.2183819 0.03651783 0.16921446
1023 -0.03374841 -0.5235257 0.33190703 0.12434733 -0.039905537 -0.22117735 -0.089201264 0.0042681675 -0.02104228 0.11248756 0.0003020008 -0.51909405 0.052958142 -0.0085383095 0.2958678 -0.07096453 0.23763429 -0.40799603 0.27685964 -0.040119775 0.098078616 0.2887435 0.24817686 -0.2012465 -0.16342594 0.3842857 -0.33042464 0.2638207 -0.34710953 -0.24079275 -0.06760483 0.008680593
1108 0.21501008 0.0015041691 0.24625719 0.0056839096 -0.19596386 -0.39386448 0.02213917 -0.32035497 -0.03863151 -0.12572062 0.5632999 -0.20746629 0.33892542 0.04235523 0.050710563 -0.03492364 0.027761666 -0.60880685 0.32780176 0.31397906 0.28731394 0.017994575 0.12500213 -0.375289 -0.15623376 0.5721334 -0.37217134 0.13530622 -0.405344 -0.46929905 0.11232045 -0.298075
1356 0.15834804 -0.19526637 0.33523864 0.00896769 0.054196477 -0.49447876 0.2464737 0.014741879 0.077501275 0.23606749 0.6540778 -0.31113982 0.11048526 -0.22286241 0.33281964 -0.14524765 -0.16281405 -0.40008724 0.12519625 0.42021456 0.1231913 0.47456068 0.21165441 -0.2687158 -0.1726635 0.25432193 -0.18247858 0.054046743 -0.30143616 0.1884928 -0.09653752 -0.23119284
1039 0.11665516 -0.41939837 0.22430964 0.041940387 0.018041298 -0.190937 0.27524593 0.19681264 -0.3366576 0.21347092 0.5614231 -0.5039438 0.06011622 0.2880562 0.6233233 -0.24799177 -0.05142034 -0.037636533 0.24456576 -0.13205162 0.21467416 0.37119564 0.26309288 -0.19726872 -0.2638955 0.5045735 -0.08311299 -0.04431859 -0.29112443 -0.151721 -0.20789139 0.17102866
1004 -0.20186773 -0.64181 0.047782935 0.45152044 -0.35116154 -0.5362987 0.213513 0.11249849 -0.22390273 -0.39456177 0.4489009 -0.33676767 -0.3972517 0.11503856 0.053596854 -0.05292872 0.21141635 0.10590952 0.053328574 0.038122352 0.26239672 0.32749188 0.38047817 -0.42839432 -0.3006878 0.22877564 0.2089496 0.079476 0.17155923 -0.20975436 -0.24700108 0.033829216
1088 -0.36666697 -0.7473331 0.36172858 -0.5043719 -0.1865036 -0.21515056 -0.09985921 -0.24715188 -0.5182941 0.44944635 0.5004187 -0.2740838 0.0026574677 0.07957854 -0.02596655 0.53153926 -0.8457433 0.13855079 0.5389576 0.2589699 0.42340076 0.17466113 -0.08407364 0.034011994 -0.0041965386 -0.26903123 -0.17442098 0.20396525 -0.11998821 -0.31996652 0.46114084 -0.073046036
1076 0.46238238 -0.44304967 -0.05642659 0.36054885 -0.29672667 -0.115167044 -0.14553437 -0.50082356 -0.28594688 -0.1559862 0.0177651 -0.502355 -0.08624448 0.09153355 -0.14375521 0.009307636 0.18338528 -0.079813525 0.27255383 0.1680791 0.10588755 0.22192423 0.49080452 -0.03933306 0.10156558 0.039837718 -0.19717571 -0.06859104 -0.30255786 -0.39389923 0.031153945 -0.41634536
1181 -0.15340139 -0.18452132 0.0833443 -0.12958433 0.084908344 -0.47275794 0.12758069 0.05534071 0.0067914333 -0.39176732 0.17943606 0.2361946 -0.24962074 -0.099184975 0.09467283 -0.035272457 0.08142966 0.23023312 0.37471357 0.5335269 0.42546883 0.45976976 0.38621366 -0.21936354 0.30010232 0.016634693 -0.4803956 0.06791096 0.17236844 -0.25192365 -0.18659067 0.40188625
1310 -0.11084009 -0.39525035 -0.04898978 0.35317189 -0.0073094084 -0.40012735 0.051146064 -0.061830528 -0.46593496 -0.0848813 0.35785663 -0.29557523 -0.08722414 -0.044819567 0.15199439 0.0765732 0.0037149885 -0.49967867 0.10127298 0.020061078 -0.02357611 0.12939882 0.41876757 -0.25671014 -0.04382058 0.16788526 -0.07467867 0.21558778 -0.30064446 -0.09862157 0.07961028 -0.33489147
1184 0.3209866 -0.48701686 -0.16382474 -0.0032765176 0.028675092 -0.1411655 -0.0657077 -0.18632756 -0.26601556 -0.029481877 0.57968396 -0.43827102 0.00045065483 -0.31332326 -0.48340636 -0.18508472 0.46662316 -0.06099113 0.40567908 -0.24067535 0.1427604 0.10013574 0.08019265 -0.4564196 0.23226789 -0.3434674 -0.33985412 0.56796414 -0.5873354 -0.35358253 0.3263197 -0.112796314
1199 0.29862452 -0.4109259 0.24609858 0.07860219 0.32536238 -0.35012105 0.05000431 -0.19913092 -0.14017066 -0.25819823 0.44311142 -0.34267858 -0.18532096 -0.1597186 0.12058737 -0.10090541 -0.09739931 0.090319134 0.101744734 0.509765 0.2761682 0.075432405 0.5631011 0.1645947 -0.091332145 0.087619804 -0.15951043 0.17775063 0.10179327 0.06317945 0.106222376 -0.20348155
1327 0.3201027 -0.5574759 0.2867491 0.070397 0.057217125 -0.08926128 -0.047312044 -0.016041603 -0.36810946 0.10240229 0.2597887 -0.37958932 0.2582156 -0.49773696 -0.09881004 -0.06470553 -0.23014334 -0.67235833 -0.11668989 -0.16960913 0.26873747 -0.09098055 0.34934813 0.005472615 -0.1337191 0.4586966 -0.63262326 0.20126125 -0.38673973 -0.09175725 -0.2858254 -0.38572037
1283 -0.18180017 -0.17409736 0.060743023 0.17050268 0.4648674 -0.12461496 0.16549255 0.05882613 0.11090785 -0.027890904 -0.1452504 -0.23695914 -0.22191642 -0.16844533 -0.07783012 -0.2898517 0.08971591 0.20179348 0.31964687 0.060741577 0.35437787 0.51905775 0.5148898 -0.24843934 0.08585252 0.15223278 -0.47939947 0.23895821 0.17283075 -0.24829486 -0.034092173 0.288257
1099 0.27725613 -0.38441887 0.43593895 0.165158 0.34952497 0.07281084 -0.030785557 -0.20439826 -0.17939824 0.111588754 -0.06798092 -0.40686393 -0.02590091 -0.06791103 0.22321221 -0.21853502 0.10679279 0.025851473 0.30740035 0.03572783 0.24400908 0.18767703 0.53397214 -0.30129114 -0.085380495 0.43522832 -0.0758306 -0.15239897 -0.24769704 -0.44142404 -0.064086504 -0.017971452
1098 0.12586004 0.39842653 0.5149831 -0.042060986 -0.012905139 -0.11049851 -0.01610754 0.046010472 -0.09684979 0.35458595 0.1644884 -0.20332739 0.0068319426 0.1125258 0.42033002 -0.011520888 -0.043083437 0.28319436 -0.1561019 0.6907404 0.10882329 0.67880327 0.40403822 -0.39430863 -0.034825433 -0.020422935 -0.5656727 0.22760098 -0.45072275 -0.29370674 0.00028762824 -0.45178783
1243 0.22941357 -0.30253628 -0.22942919 0.49814758 0.14445809 -0.5146409 0.026153455 0.2336321 -0.022221696 0.2869105 -0.03477517 -0.07330076 -0.27115566 0.011134923 -0.012745002 -0.2716971 -0.050591245 -0.12075452 0.32953644 0.17635952 0.067455344 0.572279 0.52033925 -0.426828 -0.08860716 0.2587311 -0.021756329 -0.1730221 0.054171894 -0.37276077 0.16307537 0.09200032
1020 -0.18071494 -0.27249804 -0.08263748 0.045373444 0.25350922 -0.6749634 0.09525409 0.20029323 0.077900924 -0.076440744 0.101566374 -0.2550735 -0.4666451 -0.23352286 0.114865996 -0.0067082588 0.22716662 0.079119764 0.19973096 0.31258887 0.32240495 0.6865565 0.314625 0.12100332 0.01879564 -0.069887154 -0.357898 0.19810154 -0.16667813 0.25482318 -0.120987974 0.17706752
1084 -0.11845397 -0.2306845 -0.3333265 -0.18118514 0.37231815 -0.1426239 -0.15522423 -0.20470914 -0.12437231 0.1845238 -0.25296044 -0.16397566 0.048501976 -0.0062840614 -0.008025567 -0.47649044 0.021331217 0.08404348 0.1047952 0.32694077 0.45017707 0.4360871 0.31204426 -0.09476414 -0.29674807 -0.013338531 -0.4600221 0.27243644 0.33746246 -0.49641317 -0.39100382 0.7346349
1172 -0.041649446 -0.34183308 0.5955977 0.252203 0.22383687 -0.19565909 0.0799734 0.32668743 -0.51224405 -0.10465197 0.11605992 -0.6850168 -0.19153476 0.102416724 0.413406 -0.44785345 -0.039860748 0.30236626 0.08683352 -0.10029852 0.20147769 0.1854718 0.2986961 -0.5720622 -0.23638701 0.058550544 -0.29329053 -0.16823614 0.08219423 -0.026025897 -0.043862198 -0.49193904
1201 -0.054878596 -0.526263 -0.08413648 -0.07569126 0.10160761 -0.031697452 0.067945205 -0.028520536 -0.24328536 0.039851964 -0.36849198 -0.061420474 -0.24954917 0.24475543 -0.14772975 -0.35096404 0.34325752 0.26326612 0.2261642 0.504344 0.36440024 0.29285672 0.30112192 -0.2254435 0.12230632 0.16538079 -0.5789352 -0.2177483 -0.2725321 -0.47758934 -0.16101725 0.32129222
1276 -0.038484503 -0.44940206 0.35263535 0.0053626643 0.5030847 -0.5368499 0.15161487 -0.080408305 0.006569996 -0.04285938 -0.09048256 -0.147797 -0.095569536 -0.276611 -0.119653404 0.09679616 -0.19555606 0.0642771 0.18194462 0.457495 0.25328165 0.20595022 0.29053077 0.09904905 0.27655062 0.08226292 -0.45596746 0.18227278 0.26749536 -0.26265693 -0.024861744 0.2366365
1377 -0.14796072 -0.09514183 0.1657523 0.31904367 0.13330744 -0.35839832 0.043612335 0.08637093 -0.23627575 0.3044844 0.4299314 -0.38846934 -0.15379332 -0.5770822 -0.012592018 -0.03689271 0.06479839 -0.3595686 -0.06765489 0.21969472 -0.043766018 0.4126538 -0.13083108 -0.15574642 0.07155591 -0.35985133 -0.55936474 0.32875845 -0.8369981 -0.16932718 -0.08125931 -0.26302224
1075 0.1609155 -0.23076746 0.080408454 0.03662122 -0.093499534 -0.4844087 0.15090328 -0.6253702 0.008309611 -0.30246028 -0.09703324 -0.08123452 0.20291902 -0.104010485 -0.10831388 -0.021464312 -0.46767646 -0.24120851 0.67221963 0.37666717 0.08844654 0.28019747 0.29285124 -0.06830967 -0.083834834 0.56572276 -0.39279705 0.30329525 -0.10951571 -0.25601888 0.15775436 0.19553566
1220 0.32054776 0.10380469 0.4052148 -0.15154019 -0.5349227 -0.31170735 0.025709623 0.078536466 -0.010154762 0.176751 0.5066079 -0.5084481 0.5487101 0.22764805 0.17728561 -0.12411657 -0.20967606 -0.43113256 0.30746475 0.3779715 0.45829636 -0.16207147 0.1994157 -0.27727312 0.22757144 0.5748147 -0.97716653 -0.015438456 -0.32194814 -0.36124358 0.20396821 -0.3158213
1072 -0.16700792 -0.9644152 0.17761414 0.13344945 0.059742816 -0.15948954 -0.34431988 -0.1465503 -0.024269274 -0.101774566 -0.0011023517 -0.47299194 0.24901158 -0.17498629 -0.010047898 0.6164919 -0.094757915 -0.006069939 0.3289704 0.34929118 -0.38462356 0.34749788 0.6285403 -0.4749686 0.28869504 -0.14296848 -0.2791188 -0.02318244 0.44854337 -0.0039112987 0.14779736 -0.1182754
1149 0.24802557 -0.44214296 0.21924505 0.04824238 -0.16867815 -0.47442672 0.32586312 -0.16359024 -0.31462014 -0.077573486 0.029972168 -0.1265164 0.09187732 0.20015971 0.14873098 0.07473384 0.2657812 -0.32225192 0.15117 0.3835368 0.05187017 0.38243872 0.24515097 -0.1553534 -0.36564973 0.1784262 -0.1581358 0.25575137 -0.14186238 -0.27381214 0.019888943 -0.12836905
1133 0.07874194 0.023541344 -0.4320168 -0.04901068 1.123364 -0.20598657 -0.46892166 -0.44383052 -0.6956966 0.03429767 0.100278035 -0.22214098 -0.5436373 0.24947533 0.26819548 0.099834755 -0.10702956 -0.23637335 -0.59408283 0.29840818 0.6574515 0.24528155 0.16819255 -0.2735184 0.38501143 0.13029264 -0.231674 0.12354257 0.47426564 -0.44014233 0.06759145 0.17372634
1426 -0.45295852 -0.6500445 0.114442624 -0.103662305 -0.2705195 -0.29843256 -0.16588819 0.20719184 -0.03717015 0.6171952 0.12424634 0.29507342 -0.035453998 0.16893198 -0.13460895 0.1736323 0.2568257 -0.26990312 -0.097706065 0.6211118 0.7806433 0.54587525 0.1796619 -0.120846234 0.0011155895 -0.10399826 -0.32669875 -0.1246245 -0.41278663 -0.5881345 0.82419413 -0.020316109
1676 0.062830806 -0.6790534 -0.16100432 0.34133208 -0.24258663 0.020076768 0.1839084 -0.35626197 -0.44867238 -0.30886742 0.17108093 -0.4136563 -0.2951425 -0.06144034 -0.14269373 0.20878808 0.359368 -0.3383324 -0.12708597 0.44897804 0.07935401 0.47475338 0.024668656 0.32277355 -0.09815308 0.098233536 -0.27916846 0.1724788 0.1236299 -0.40165937 0.055243753 -0.511614
1103 -0.33850583 -0.58162624 -0.024654692 -0.058696683 -0.2541534 0.13801798 0.29482892 -0.4603271 -0.36210153 0.36300734 -0.1615488 -0.65865016 -0.29775766 -0.19541712 0.2747935 -0.3868295 -0.14659385 0.41345206 -0.55312496 0.7958443 0.05344562 0.2818337 -0.06479509 -0.21307477 -0.47918558 0.23462942 -0.7399802 -0.66040236 -0.10822471 -0.52180266 -0.44665045 0.46675488
1068 0.17288001 -0.025896892 0.14613712 0.54779595 -0.17879991 0.0037743386 -0.14674696 -0.45772335 -0.2580426 0.13696365 0.17796683 -0.32621074 0.04038829 -0.1934464 0.6031693 -0.2725312 0.0051231086 -0.4191193 0.3660335 -0.012335631 -0.09709436 0.6067799 0.58224565 -0.20292068 0.2949957 0.40215775 -0.18498437 0.18833672 -0.16446008 -0.28937784 -0.16172826 -0.3630307
1139 0.20864904 -0.49245462 -0.99738187 -0.5908435 0.20012647 -0.40737304 -0.18551125 -0.083613016 0.018988483 -0.3345934 -0.05852859 -0.36254013 0.20478205 -0.08815907 0.2688838 -0.36648893 0.35752603 -0.17131238 0.27487743 0.22945824 -0.044688936 0.54882634 0.0587751 -0.6068912 0.6054712 -0.38421357 -0.9654768 -0.2671134 -0.15695243 0.2627546 -0.011327273 0.12334605
1189 0.27109388 -0.60437435 -0.20423725 0.18379651 -0.3542562 -0.29269305 0.0009181528 0.20004375 -0.17681825 0.043735348 0.7584432 -0.0013322316 0.2359971 0.0049455455 0.21101286 -0.06808446 -0.0630164 -0.21033216 0.20097478 -0.23626208 0.111837886 0.29283467 0.47980264 -0.24221581 -0.12857436 0.263051 -0.2980993 0.35591984 -0.29534376 -0.3261839 -0.148208 -0.2758563
1136 -0.29085162 -0.42514086 0.3247373 -0.20123519 -0.14821945 -0.48940742 0.05210657 -0.034129646 -0.73372084 0.002510865 -0.34224233 -0.30842677 -0.17463192 0.24369736 -0.4902529 -0.052595213 0.25800112 -0.23792958 0.35787418 0.46446958 0.35328242 0.66895753 0.023532303 -0.09208412 0.17303626 0.20097381 -0.26365393 -0.055557925 0.32366535 0.12620716 -0.19331737 0.28090447
1224 0.10322777 -0.11054749 0.14557098 0.092462115 0.009968678 -0.35732555 0.18587147 0.083606966 -0.41293913 -0.31426975 0.117265105 -0.210994 -0.22132371 -0.38629934 0.5168589 0.11737453 0.36226818 0.10640371 0.3111901 -0.20991279 0.04322821 0.28539386 0.4054079 -0.31837088 0.045672134 0.52103484 -0.11585072 0.20016372 -0.40480542 -0.34768066 0.1181614 0.030650275
1433 -0.29370263 -0.413684 0.122560844 -0.033771645 0.20360415 -0.041164692 0.035681568 0.32025543 0.09333666 -0.44518125 -0.19103871 -0.3648119 0.005476886 0.033330698 0.681456 0.24807274 0.384764 0.26573122 0.27308437 0.4381194 0.0034962941 0.18169788 0.2950646 -0.3271965 0.27252752 0.116972044 -0.476424 0.4839073 -0.44153312 -0.6012057 -0.23515773 0.28419548
1112 0.14710057 -0.42550796 -0.37190166 1.0434524 -0.23346773 0.30622163 -0.09638369 -0.42772135 -0.118682384 0.17204922 0.2581413 -0.28428715 0.008124135 0.019815596 0.5452893 0.769731 0.063497566 -0.47644448 0.52623814 0.40492326 0.10472366 0.2182367 0.56180394 -0.07809188 0.31667235 -0.254399 -0.28978127 0.04448613 -0.3651858 -0.22142462 -0.05247553 0.28606728
1140 0.089290895 0.19403894 -0.028632043 -0.15632601 0.6214357 -0.43324703 0.013486194 -0.0023159166 -0.6698991 0.055218074 0.25440025 -0.39895666 -0.7822419 -0.2645013 -0.09619569 0.20021148 0.01644825 0.41201526 -0.07105834 0.27751866 0.17065033 0.1374481 0.615101 -0.06331487 0.34985277 -0.088420555 -0.38886136 0.1591734 0.5225283 -0.31014475 -0.15180649 0.30111712
1584 0.02622882 -0.45203844 -0.29331613 -0.1669291 -0.012724486 -0.29705065 0.13506533 -0.24995568 -0.18931228 0.14365469 -0.17369708 0.18159132 -0.26753244 -0.0881526 -0.32851568 -0.007980812 0.11990239 -0.029799871 0.46985707 0.010067254 0.21244569 0.5445042 0.20326 -0.060674127 0.06943262 0.41103187 -0.5107608 0.720091 -0.23507759 -0.21906982 0.22358258 -0.36149457
1074 0.74675626 -0.5460174 0.33138812 0.07661037 -0.047397204 -0.009225162 0.060910635 -0.18463388 -0.5653023 0.028424194 0.2908842 -0.22009751 -0.24178264 0.0057908637 0.15915248 -0.011506996 0.22546713 -0.26708287 0.33340272 -0.25244963 0.27386525 0.25128877 0.22945353 0.030077467 0.07361375 0.35690984 -0.333095 -0.15321042 -0.47913647 -0.37536713 -0.036843397 -0.3518465
1040 0.16244978 -0.061296143 -0.23766677 0.47318545 0.598302 -0.3048164 0.18388338 -0.1860847 0.25066948 0.3596525 0.24398188 -0.25227016 -0.061362706 -0.038151473 0.15606679 0.1800331 -0.34209764 -0.68217885 0.14527562 0.29736757 0.22500797 0.16965534 0.11811039 -0.62205505 -0.7354108 -0.19643708 -0.42920268 0.35284036 0.18397616 0.011389601 0.003264175 0.13208213
1011 0.20639177 -0.56302553 0.23218423 -0.04449915 0.52510875 0.24852276 0.10972134 0.21523981 -0.19586365 0.2672935 0.028983012 -0.30061883 0.13201293 -0.5105855 0.36400604 -0.24124782 -0.1988671 -0.39573255 0.33757365 0.015060415 0.32024056 0.35256216 -0.23446724 -0.38087457 -0.45176047 0.122868225 -0.28471255 0.23499843 0.44166943 -0.34663048 -0.6432888 -0.38607752
1570 -0.042183895 -0.34500834 -0.523854 -0.38453823 -0.16834493 -0.51292104 -0.24834071 0.1314441 -0.41292974 -0.24411142 0.6843976 -0.31778592 0.020266313 -0.54136896 -0.46851265 -0.14019799 0.12005048 0.13066712 0.2994737 -0.099345535 -0.07215616 0.027051408 0.19428444 -0.44777602 0.14327121 -0.44630963 -0.41465122 0.72170496 -0.6246409 -0.5604883 0.25384396 -0.02873735
1523 0.033015206 -0.9223063 -0.4173619 0.028025327 -0.37283427 -0.31056643 0.20967682 0.052103475 -0.24071865 -0.13650943 0.026535558 -0.39571318 0.09440406 -0.2814605 -0.009399895 0.34252712 -0.008924419 -0.55816257 0.063817106 0.5498463 -0.2154929 0.23543437 0.1905094 -0.04833856 -0.2686717 0.23603486 0.061375868 0.25427046 0.08612172 -0.47843888 -0.11295742 -0.57718337
1340 -0.21044731 -0.31055856 -0.42904705 -0.43268812 0.08595214 -0.05388309 0.13237937 0.17637613 0.122217275 -0.23017928 -0.48194084 -0.10969407 -0.08934122 -0.005272249 0.32439288 -0.082481764 -0.15793821 0.13264184 0.5593384 0.3375995 0.51035756 0.25057754 0.49197727 -0.2782823 0.3692995 -0.1102265 -0.627645 0.4509436 -0.12541446 -0.14576411 0.16967894 0.18025814
1002 -0.024052167 -0.81384456 0.18591905 0.29930633 0.14429586 -0.3211819 0.24268661 -0.015394983 -0.091459975 -0.108405545 0.25828695 -0.34472236 0.150269 -0.10119707 0.6223365 0.1624091 -0.23613955 -0.4393503 0.13865036 -0.0067206905 -0.45868975 0.6112443 0.29405814 -0.14010079 0.33993635 -0.037655145 -0.2494344 0.2697979 -0.00459284 -0.2750005 -0.100432776 -0.59453154
1050 -0.13897935 -0.8756176 -0.5484954 0.05673556 0.23333424 -0.33221084 0.010966027 -0.1099554 -0.5604418 -0.48999414 0.07652063 0.065912984 0.7341252 0.31458306 0.63654274 -0.36065662 -0.10959556 0.14219315 0.16078226 0.13473617 0.20418063 0.6300898 0.36827433 -0.095428005 0.084294185 -0.17535248 -0.81293416 0.1481263 -0.108669885 0.51508784 0.24737173 0.1322403
1089 0.2533209 -0.35979673 0.69101506 -0.012714894 0.14799334 -0.528017 0.37701857 -0.24823524 -0.18508139 -0.30556184 0.074131444 -0.23883577 -0.07164665 -0.1332966 0.3926108 0.060552932 0.48538685 -0.18466274 0.4012698 -0.19182713 0.26002184 0.4995675 0.409786 -0.27196285 0.2260863 0.2810276 0.027421685 -0.004978944 -0.258279 -0.13436918 0.13110292 -0.050524987
1769 -0.30810025 0.11717809 -0.13101691 -0.41698152 0.18204986 -0.43928707 0.029294178 -0.108645625 -0.15516628 -0.51886266 0.12829053 -0.50149506 -0.19209236 -0.031080771 -0.14503227 0.35298726 0.33904225 0.18426906 0.22694848 0.48309675 0.6978135 0.710054 0.3540311 -0.043541152 0.17204307 -0.1619027 0.08739414 -0.11684994 0.30325258 -0.16051479 -0.5455488 -0.0094400635
1126 -0.029978711 -0.31056345 -0.20231375 -0.33085397 0.31204236 -0.046995595 0.47552618 -0.71089894 -0.58922315 -0.26490393 -0.17364682 -0.6955872 -0.24397516 0.22679286 -0.09529406 0.2567536 0.12250191 0.025686763 -0.3934056 0.71946836 0.42139205 0.26932925 0.086720355 0.1558793 0.009716366 0.0074619534 -0.30372477 -0.18393897 0.66897357 -0.36322784 -0.13403887 0.18748286
1035 -0.071306325 -0.17597103 -0.041335795 -0.057921536 0.11290709 -0.16518603 0.40610862 -0.54248303 -0.75808394 -0.34089935 -0.35582528 -0.5775178 -0.26549208 -0.13483523 -0.26666996 0.13552932 -0.109665945 0.23768142 -0.28097153 0.8740542 0.17374036 0.37699223 0.22722381 0.37008977 0.16045007 0.09222996 -0.5058802 -0.3454716 0.38010833 -0.39669245 -0.22173621 0.14354369
1326 0.43884504 -0.20975935 0.11436609 0.24468757 0.13339575 -0.36857685 0.5020006 0.09112508 -0.3553397 0.44297487 -0.07934073 -0.19541499 -0.4530292 0.40279153 0.27953514 0.08748852 -0.10889665 -0.007085911 -0.052824546 -0.019786935 0.29815382 0.32673597 0.2522606 -0.14473683 0.19658907 0.10826966 -0.16835828 0.30635026 -0.77040464 -0.42532694 -0.087831125 -0.41102666
1137 0.20204547 -0.7331884 -0.44283435 -0.14964113 -0.13032623 0.0047463956 -0.15277565 -0.5016006 -0.2011578 -0.31996912 0.94563264 -0.7627823 -0.1624416 -0.21666361 -0.8630468 -0.053714063 0.19338275 -0.2873101 0.3004904 0.10889935 0.056212798 0.1288942 0.13401398 -0.59185076 0.11564501 -0.61554587 -0.27630192 0.3601868 -0.65759945 -0.2848966 0.3860291 -0.5145302
1390 0.11988727 -0.15879788 -0.47151786 -0.36498076 0.9485924 -0.6945933 -0.16810213 -0.25802124 -0.66832536 -0.076289825 0.12110186 -0.6984793 -0.7645899 0.24727747 0.30820063 0.31167117 -0.50892407 -0.116660416 -0.43513983 0.10704866 0.47686714 0.12797008 0.23071463 -0.4586881 0.5426826 0.3365872 -0.05116766 0.15000233 0.5980087 -0.31257465 0.08351564 0.47915614
1101 0.02410863 -0.3888877 -0.3446897 0.36326557 -0.16613525 -0.5166198 0.2078676 -0.0953721 -0.07826087 -0.13001162 0.06627061 0.0057600182 -0.267899 0.53208315 -0.20656134 -0.2720393 -0.14209399 0.4191769 0.28127712 0.20773356 0.41705495 0.23927245 0.630412 -0.23220618 0.07012735 0.24113883 -0.38447747 0.2593647 -0.13598233 -0.14385816 -0.24704106 -0.029058265
1328 0.4566803 0.010566898 0.24939403 0.12584892 -0.14649843 -0.37179306 0.006915244 -0.14316675 -0.49405447 0.10333101 0.1853317 -0.64425415 0.21791933 0.39038157 0.07209369 -0.53781277 0.05885035 -0.31418398 0.35602844 -0.4718109 0.37925366 0.1593059 0.4998413 -0.30550227 0.3678492 0.049897727 -0.30676714 -0.22489104 -0.13040507 -0.55536544 0.13206254 -0.63508457
1056 0.44077465 -0.4806108 0.21680431 -0.09199644 -0.014492131 -0.47857523 0.45961913 -0.6180688 -0.39787686 -0.40501967 -0.09518541 -0.3449457 0.40418023 0.5350637 0.19257648 0.14272492 0.2280859 -0.361927 -0.31181636 0.18000284 0.14819779 0.5022624 0.07089856 -0.024004675 -0.48921412 0.22414419 -0.22672227 -0.021268241 -0.33946097 -0.3449711 0.093727045 -0.2100677
1449 0.25328985 -0.43535537 0.33724037 0.3063349 0.20145106 -0.38590717 0.12146563 -0.48015547 -0.2947773 0.073123075 0.18105002 0.21292838 0.30750284 -0.084334485 0.31771043 -0.34948403 0.19036503 -0.41376483 -0.26634598 0.22268482 0.33640355 0.1929283 0.21541484 -0.73020214 -0.6597388 0.3120647 0.2255871 0.43930578 -0.4020848 -0.31012866 -0.4300793 0.20044814
1412 0.0471298 -0.628645 -0.49304736 -0.02150349 0.27938816 -0.2940691 0.17802317 -0.20425811 -0.06907741 -0.22613668 -0.2645318 0.502228 -0.047710553 0.14441343 0.24491575 -0.44440284 -0.09282969 0.40090948 0.15979898 0.17465144 0.55911106 0.71045125 0.47819164 -0.04687338 0.2666567 -0.043749798 -0.7364859 0.37161058 -0.03441926 -0.0276777 -0.035086986 0.28481695
1780 0.6043359 -0.37661448 -0.17757146 -0.19925033 0.46378973 0.0533055 0.121875554 -0.37369448 -0.47676113 -0.31820968 0.1605464 -0.3309656 -0.5817488 -0.049440645 0.598046 0.15112874 -0.25265095 -0.16750167 -0.03135352 0.05514544 0.29967695 0.4167263 0.21111183 0.0442609 0.47966382 -0.16539977 -0.26912364 0.039401542 0.24969396 -0.3127433 -0.4083066 0.6189987
1159 0.11707879 -0.24189714 -0.55341494 -0.0050953156 0.6252395 -0.2458734 0.11157263 -0.012510621 -0.5379018 -0.30653366 0.008916919 -0.5984216 -0.8936254 0.177404 0.30922934 0.18416834 0.03412354 -0.37673935 -0.4144308 -0.42789885 0.6466415 0.06766072 0.08028056 -0.31831154 0.15896209 0.2583272 -0.22020769 0.104405254 0.18024941 -0.30440843 0.21010607 0.26252317
1282 -0.43033996 -0.81486964 -0.4507719 0.8749339 -0.107959546 0.055605996 -0.33285493 -0.4053258 -0.68386877 0.016537387 0.5057454 -0.0742203 0.12523507 -0.14904575 0.61152 0.19650427 0.36451048 0.041209526 0.21930766 -0.023595935 -0.13196996 0.46955255 0.50580305 -0.05824146 -0.04103961 0.24059752 -0.24697524 -0.043962017 0.26435184 -0.081982575 -0.11224803 -0.15809745
1264 -0.37510914 -0.18554093 -0.44182512 0.730628 0.01979338 0.010083155 0.15021579 -0.3430814 -0.5432187 -0.065100156 0.3314086 -0.24959973 0.059963938 -0.27119166 0.7621342 -0.03227743 0.0505438 -0.32753715 0.26358336 0.092245124 -0.13106206 0.63081324 0.4640294 -0.22630887 -0.3096957 0.31105807 -0.017069258 0.17181651 -0.3556839 0.09365881 0.5547564 -0.08419709
1134 0.2668534 0.064056374 0.076693 0.28116256 0.4045642 -0.35759795 -0.19408529 -0.3819095 -0.37902266 -0.17389914 -0.28524852 -0.04737833 -0.2916486 0.4466124 -0.12276061 0.44622588 0.11902885 0.08210323 0.054509923 -0.01904726 0.40283853 0.77367014 -0.12347567 -0.24094217 -0.18590504 -0.40902856 -0.56732744 0.55519843 0.074394256 -0.37161785 0.03911591 0.36062437
1093 -0.05867466 -0.29047024 0.03724804 -0.15601547 0.8138937 -0.24133822 0.01576937 -0.25221324 0.25856772 -0.2225359 -0.055002116 -0.4957453 -0.14274351 -0.20583238 -0.28490844 0.28301322 -0.060383085 0.10796651 -0.0069050216 0.08070264 0.15090671 0.6379302 0.35338962 -0.031078624 -0.024169035 0.54010785 -0.3168269 0.28835064 0.14453378 -0.6160738 0.029652439 0.77286834
1545 -0.35796916 -0.31794474 0.16278389 0.39730892 0.53215694 -0.41612023 0.06564189 0.0041582016 0.319859 0.26322538 0.28820273 -0.2225147 0.059089106 -0.42659208 0.45926988 0.16554013 -0.009144871 0.2397871 0.028814364 0.8121387 0.9261118 -0.42218524 0.18785904 -0.3654955 -0.20704384 -0.1742473 -0.1698542 -0.02738145 -0.19170554 -0.20719264 0.6645541 -0.8724017
1443 0.10691106 -0.31479982 0.19163209 -0.23556772 -0.32905307 0.11863089 0.058716822 -0.1353544 -0.3649405 0.08711354 0.47896782 -0.28637016 0.13410059 0.22132012 0.4147302 0.32860518 0.48521757 -0.35180974 0.15352234 0.35451943 0.2609087 0.6175916 -0.3149228 -0.41603228 -0.7515868 0.48869705 -0.21518736 0.684789 -0.10915731 -0.18448438 0.31124967 -0.5030702
1471 -0.08679005 -0.28188655 -0.20403196 -0.19666108 -0.035734035 -0.3633132 0.2140557 -0.33985996 -0.6660825 -0.4737019 -0.54972905 -0.66247225 -0.05720484 0.033252943 -0.09870762 0.011038785 0.03940759 -0.22366962 -0.32281607 0.7216454 0.35478196 0.46289513 0.22393797 0.368738 -0.22756694 -0.22864488 -0.064210586 -0.25281653 -0.03169476 -0.4174326 -0.28970617 0.11954188
1396 0.082952954 0.09634533 0.20943598 0.6464217 -0.50734115 0.30327561 -0.31117222 0.8091253 0.030972617 -0.55347484 0.37237942 -0.15259004 -0.23620406 -0.5882902 0.42995983 0.08419342 -0.9958357 -0.6177983 0.1168136 0.4933125 0.91468674 0.24105449 0.68235517 -0.52580893 -0.48828933 -0.23187278 -0.51749283 -0.1111812 -0.080024906 -0.5362014 -0.22851655 -0.07802585
1217 0.120305456 -0.3255869 -0.27191922 -0.16623932 0.86809397 -0.78787524 0.22200671 0.20245948 -0.6595065 -0.17856842 0.18451834 -0.59201884 -0.5798415 0.019265706 0.03799058 0.26353058 -0.58505434 -0.3405937 -0.22295476 0.0709359 0.4939838 0.2085013 0.25952262 0.067951106 0.41254342 0.113245755 0.034539208 0.060086347 0.52739555 -0.22912854 0.08054516 0.31637877
1001 0.047316357 -0.1827646 -0.05356571 0.055720083 0.15562953 0.04595243 -0.06494387 -0.013715442 -0.34593487 -0.17562197 -0.40492502 -0.2377426 -0.13610235 -0.06240668 -0.3680001 0.18125795 0.4067275 0.12573738 0.20844653 0.31451395 0.41619438 0.5838372 0.53282434 -0.3330751 0.20176017 -0.16395348 -0.3471594 0.45409903 0.6098583 -0.12001741 -0.37841672 0.22438335
1128 -0.41787663 -0.3226751 -0.22565629 0.04611758 0.13314836 -0.23379588 -0.18365617 0.028426923 -0.2683421 0.7634111 0.022217708 0.19119723 -0.19407491 -0.71824133 0.25594294 0.36768216 0.17784008 -0.45239934 -0.12485391 0.0016175752 0.24850477 0.09723489 0.24401818 -0.50606316 0.14117168 0.2698169 -0.8877266 -0.053243846 -0.3500021 0.02408827 -0.19847175 -0.43244886
1235 0.024797462 -0.15595809 -0.62970126 -0.29438412 0.57923245 -0.97296095 -0.028425157 -0.09957865 -0.46952718 -0.4637154 0.022587635 -0.7432771 -0.8083729 0.4870973 0.17546779 0.23181134 -0.50959265 -0.06540343 -0.0026530684 0.44086775 0.57373405 0.05757292 0.25823048 0.26607755 -0.13041994 0.34196785 -0.20340684 0.08110299 0.20620899 -0.005875143 0.07110611 0.25961107
1065 0.09382828 -0.18725683 -0.53168225 -0.57623816 0.97538674 -0.4314902 0.1670165 -0.40430403 -0.80008245 -0.7571661 0.027624195 -0.3356903 -0.5877932 0.1977525 0.24249603 0.6430465 -0.6777041 -0.031838384 -0.19435395 0.20867115 0.75386316 0.25993937 0.05770204 -0.5412892 0.8268938 0.4639587 -0.088352084 -0.52627563 -0.020208258 -0.40473416 0.022847736 0.45692658
1071 0.014245832 -0.85803825 -0.19286215 0.24247138 0.47203642 -0.32099155 -0.3465354 0.39604312 -0.47914 -0.5781526 0.28080475 -0.5061781 0.7304082 -0.14511561 0.43945074 -0.26941243 -0.12489432 0.5325093 0.14432693 0.10890936 0.26560628 0.27323294 0.56257325 -0.22559053 0.1862416 -0.13570367 -0.41565043 -0.10370021 0.15909003 0.4523532 0.33094218 -0.6962642
1033 0.2766489 -0.012368284 -0.5024107 -0.04727405 0.6933734 -0.28054377 0.1473597 0.3136399 -0.3114633 -0.25655854 -0.059227306 -0.5583523 -0.47674334 0.52118737 0.3009369 0.25269222 -0.24751283 0.16526172 -0.411945 0.19083637 0.48183563 0.6153385 0.1563466 -0.15582326 0.2180584 0.092493065 -0.04465708 0.38623148 -0.087294154 -0.6189106 0.31132424 0.36976025
1419 0.2354816 -0.22129051 -0.035498198 -0.00899045 0.24976513 -0.08103589 0.52675575 -0.00010891343 -0.33954814 -0.59809613 -0.35720393 -0.43935966 -0.029181361 -0.19929667 -0.23613176 -0.11359588 0.2895285 0.41918907 0.022922358 0.71511334 0.2859837 0.5716469 0.15249234 0.17480388 -0.010216794 0.06357541 -0.45871165 0.21580358 0.24755803 -0.3222063 0.2964745 -0.31435248
1027 0.06455848 -0.089355476 -0.17552848 -0.37089193 -0.18808971 -0.30066007 -0.07296896 0.49438167 -0.31852585 -0.24573693 0.20986125 -0.50241184 0.42509416 -0.025993254 -0.33396727 0.56512535 0.28214234 -0.3540042 0.54172075 1.0499376 0.05895453 0.751945 0.47811776 -0.57150996 -0.043404933 0.5231842 0.26226574 -0.12141349 0.304976 -0.025087245 -0.21169303 -0.1991753
1205 0.15121254 0.003502966 -0.80201507 0.628465 -0.104166 -0.97379494 -0.27051905 -0.47530362 -1.8159046 0.66264 0.5276585 -1.0462738 0.7386744 -0.89595103 -0.7979527 -0.31441307 0.09916178 1.0693109 -0.451527 0.4641932 2.7444603 1.1696385 -0.7460466 -0.6980486 -0.033851795 0.31030157 -0.35776168 -0.08505358 -0.155835 -0.4619454 -1.1510481 1.0174767
1845 -0.3376986 -0.19935365 0.7009539 0.29997253 -0.74203634 -0.45115876 0.12859233 -0.13387133 -0.25800648 0.0064404937 0.5575898 -0.4822201 -0.20232193 -0.00040138874 0.0083986735 -0.23019527 0.136322 -0.98106724 0.49252382 0.16986565 0.72634476 -0.12902634 0.4134626 -0.17208944 0.18465813 0.5183726 -0.62274307 -0.0056204414 -0.1600304 0.28787977 -0.32596147 0.16660899
1305 0.22756657 -0.05369216 -0.79556036 -0.30755174 0.7840637 -0.28597137 -0.32825515 -0.074471466 -0.42169118 -0.34984896 0.052808348 -0.80583525 -0.49619368 0.05133257 0.38839558 0.001413763 -0.13157505 -0.39489365 -0.78384244 0.08594287 0.468618 0.21845083 0.3272181 -0.1741817 0.4739924 0.4562483 -0.13295215 0.41649774 0.5080019 -0.8222857 0.012409893 0.39647213
1060 -0.14881831 0.022725161 -0.29012433 0.3410003 0.058690116 -0.19082084 0.71232957 -0.16129987 -0.23132105 0.6095445 -0.13030143 -0.14845695 -0.31393418 0.062150337 0.5833176 0.17277384 -0.019704279 -0.28888988 -0.0074793384 0.33331785 0.35124242 0.2942221 -0.001685374 -0.73901904 -0.19826905 0.07833753 -0.32524538 0.14096363 -0.5300188 -0.10040361 0.25208926 -1.028655
1272 0.18647532 -0.2940786 0.120940186 -0.19595914 0.87832636 -0.55054843 -0.06341481 -0.104181714 0.18953116 -0.16648985 0.14879827 -0.52455723 -0.04697651 -0.5478284 -0.29977074 0.3301809 -0.2946028 0.066808656 0.17125309 0.35496294 0.11048467 0.4917321 0.32354447 0.26928392 0.03498919 0.27138144 -0.33003393 -0.06254283 0.41478774 -0.5514572 0.0642068 0.74089277
1370 -0.06825339 0.46407646 0.07826749 0.19744812 -0.13107648 -0.13089994 0.38338175 -1.0806282 -0.15448661 0.6958332 0.34983003 -0.38924336 0.44186303 -0.7161867 0.06885229 0.0019156364 -0.36171657 0.023117844 -0.31764647 0.1187046 0.31847978 0.54166365 0.69330686 -0.90738845 -0.80640376 0.077508695 -0.40781802 0.33222008 -0.0844609 0.026406402 0.7632819 -0.1625955
1073 -0.18549079 -0.14702326 -0.21774215 0.023859179 0.0420879 -0.12717614 0.4158299 -0.3286771 -0.5155748 -0.4941333 -0.34255293 -0.69004625 -0.31858018 -0.098328665 -0.31148916 0.012912438 0.0011962374 -0.21396756 -0.014965045 0.8884065 0.4462395 0.3673391 0.40751863 0.55669606 -0.13186145 -0.17900155 -0.23707132 -0.13224033 0.26331446 -0.32401147 -0.14113595 -0.138725
1010 0.36487076 -0.22865295 0.25811583 0.26757175 0.23761281 -0.57407033 0.1868253 -0.41389462 -0.2937551 -0.34274963 0.00301077 0.11200963 -0.5171525 -1.0122764 0.35850012 0.44604516 0.24538496 0.19462061 0.32890287 -0.22621088 0.7562795 0.072636396 -0.06718981 -0.07963228 0.13883778 0.2671324 -0.11743283 0.010241266 -0.06582809 -0.13884217 -0.025355339 -0.59811956
1439 -0.10323811 -0.23229504 0.45340312 -0.530781 0.44193274 -0.29325825 -0.43522987 0.021503147 -0.22830243 -0.3317 -0.0012115629 -0.615122 -0.23347105 -1.1699735 0.5397405 0.07721658 0.6386011 0.4775726 -0.05967329 0.17911133 0.5823203 0.26447675 0.1825084 -0.11926682 -0.033341456 0.16526714 -0.02658451 0.14914565 -0.19235256 0.16800599 0.015349315 -0.3518972
1214 -0.5141213 -0.3450748 -0.10730912 0.06554731 0.16450393 -0.27247742 0.11027965 -0.09900867 0.11002846 0.44578478 0.17927393 0.12212367 0.088152595 -0.5315662 0.28867257 0.24561892 -0.04843033 -1.0573409 -0.34539592 0.11357838 0.24762739 0.55313945 0.1736405 -0.9653029 0.06067873 0.32258657 -0.4529221 -0.35388196 -0.34591016 -0.20868687 -0.055767894 -0.7078914
1158 0.27125567 0.09494777 -0.11081983 0.017527921 0.102877684 -0.41805464 0.031346895 0.20144348 0.2140483 -0.32220048 -0.28406614 -0.026840927 -0.15628839 0.021901488 -0.08294199 0.099601604 0.29463473 0.27505463 0.067085415 0.66213506 0.67547727 0.62607694 0.497348 -0.040820178 0.2797379 -0.14120984 -0.47720432 0.34319615 0.15285644 -0.3617645 -0.12325216 -0.017279392
1222 -0.11909006 -0.8489766 0.32518217 0.35199943 0.32111818 0.06931726 -0.5904683 0.24866553 -0.07848441 -0.14877102 0.04388462 -0.94782037 0.15659419 -0.11401323 0.45085222 -0.003647216 0.18770987 0.27956453 0.18008122 -0.21007329 0.17776036 0.24246714 0.34044388 -0.45304468 -0.22446018 0.3434688 -0.37420326 -0.110719696 0.09323171 0.052204236 0.013860829 -0.567236
1003 0.4735507 -0.8737385 0.19156289 0.2839715 -0.19493595 -0.60209286 -0.022654561 -0.36679476 -0.17393267 -0.2715282 0.5791271 -0.24961893 -0.34430844 -0.7439789 -0.12356101 -0.009134425 0.28317693 -0.26692274 0.18170556 -0.32478783 0.054976586 0.19254662 0.2679516 -0.17376953 0.20625305 0.3186297 -0.11474745 0.13147213 -0.19597495 -0.07709632 0.020335125 -0.6997958
1142 -0.3191036 -0.30335987 0.17897697 -0.11873311 -0.28994453 0.09287094 0.19975168 -0.38599145 -0.046116706 0.6579898 -0.020244615 -0.24352078 -0.3334367 -0.32428226 0.206086 -0.15481347 -0.09353048 -0.9264662 -0.6226875 0.49202618 0.13792405 0.0046710125 0.95028704 -1.2053738 0.0503278 -0.60063106 -0.46146193 0.45902798 -0.2561386 -0.053697947 0.28644732 -0.4906634
1774 0.20740938 -0.6666091 -0.09222699 0.38926944 0.40953174 0.19641465 0.12174573 -0.2426888 0.13593116 -0.106730446 0.2086453 -0.20405811 -0.30577922 0.01035282 0.1887751 -0.0038231513 0.7823864 0.120932505 0.56323934 0.65180135 0.5290885 0.21026258 0.47835746 -0.19119458 0.07626162 -0.07861096 0.101246 0.4302631 0.056806073 -0.056659006 -0.19836695 0.18368246
1194 -0.35248736 -0.0136715425 -0.20147982 0.35000595 0.13573758 -0.4325999 0.42219687 0.22379376 0.22974959 0.4649656 0.45012626 -0.71775585 -0.14767478 -0.34321162 0.2609849 -0.010836436 -0.094577774 -0.10442184 0.03818927 -0.1010293 0.15511647 0.66183954 -0.10135818 0.07483559 -0.15982667 0.16018175 -0.60395604 0.1658131 -0.43049183 -0.11738846 -0.23101968 -0.26562887
1114 0.08128943 0.117054485 -0.066656925 -0.47587413 1.0517915 -0.29576954 -0.76747483 -0.7920458 -0.73172945 -0.56045914 0.35814986 -0.23235379 -0.68502456 0.22817695 0.35771737 -0.15781079 -0.5740673 -0.017403938 -0.1520594 0.19662371 0.46018526 0.34110802 0.09731731 -0.88560075 0.5701352 0.1880389 0.005329177 -0.29767925 0.3118127 -0.81841016 0.11453473 0.009689389
1488 0.44085124 -0.5357684 0.5952195 0.34338897 -0.17903152 -0.14309005 0.30460066 -0.11542396 -0.5558958 -0.23681721 0.12054016 -0.111577064 -0.23439096 0.4299957 0.068259396 0.58673996 0.60427046 -0.08880409 -0.09121094 0.04784042 0.19560297 0.6096195 0.106666505 -0.4952738 -0.32848817 0.25684744 -0.2070617 -0.0010033548 -0.16234028 -0.22478457 0.29756516 -0.38310105
1349 -0.09721735 -0.19628869 0.2135262 0.5781987 0.09333393 -0.5135673 0.2225541 -0.13790344 0.38059995 0.096804924 0.3534037 -0.5988002 0.37894395 -0.28283024 0.053296648 -0.2237067 0.13987876 0.7286586 -0.4157529 -0.14291261 0.25774482 0.5657327 0.64105856 -0.3318523 0.23996313 0.10445245 -0.22633706 0.18267499 0.20716624 -0.30362758 0.23675062 -0.07517844
1640 0.19212465 -0.15724154 -0.44510046 -0.34093547 0.89968586 -0.69239855 -0.2544318 0.00492699 -0.54167 0.19040398 0.32206738 -0.5702398 -0.77345395 0.14068703 0.06387652 0.21120995 -0.60347587 -0.19557776 -0.29178157 0.3878538 0.436244 0.13652827 0.33775887 0.033655364 0.32210484 0.06048862 -0.19299917 0.2272074 0.56100243 -0.2595979 0.26677537 0.44198453
1259 -0.18664579 0.37283498 -0.055635132 0.20002338 -0.1204218 -0.33490282 0.1914211 0.2759858 -0.7843183 -0.16944711 -0.23260581 -0.39669037 -0.24426953 -0.40217754 0.2612493 -0.06369267 0.27948076 -0.7153599 0.65841585 0.26830953 0.32065 -0.08166517 0.56864595 -0.41021213 -0.94323206 -0.15092726 -0.37241957 -0.32355022 -0.12415308 -0.5590654 0.24032895 -0.06577836
1163 0.45132077 -0.59600365 0.5730505 0.21438238 -0.1273118 -0.18160672 0.18814385 -0.1095779 -0.5995751 -0.15639573 -0.22696249 -0.3137379 -0.23692252 0.0084837135 0.27104473 0.24077094 0.23206255 -0.0012252505 0.3866778 -0.42733526 0.023036974 0.2758256 0.3112811 -0.4809457 -0.08090925 0.43599144 -0.15909004 -0.2667807 -0.5096815 -0.5554809 0.11935171 -0.24090385
1562 -0.0914718 -0.25906196 -0.07009332 0.052119147 0.16745491 -0.5792145 0.15065467 -0.60967404 0.08002966 -0.7108847 -0.43923324 -0.0148289325 -0.398347 -0.028401753 0.41336036 -0.015081768 -0.34208152 0.12215827 0.05833895 0.31819603 0.61412436 0.45008287 -0.12639171 0.056179315 0.061786864 -0.2620117 -0.39849582 0.6722628 0.30819368 -0.45008227 -0.29505157 0.13644652
1021 -0.3535496 -0.77219033 -0.4608913 -0.17242405 0.11798356 -0.17098269 -0.21187307 -0.20933536 -0.65355814 -0.32055038 -0.18342751 0.31409514 0.3789645 0.38440517 0.26395202 -0.60285634 0.13358948 -0.026916817 0.50586176 0.5294303 0.27111372 0.7495584 0.10949812 -0.27709118 0.20308246 -0.3270644 -0.99915075 -0.07930518 0.1356187 0.14181407 -0.27774116 0.57797694
1086 0.5843899 -0.030502263 -0.80842566 0.77497035 -0.2711308 -1.1613531 -0.33870983 -0.3211658 -2.0832372 0.83599687 0.13317107 -1.1463864 1.2645298 -1.227033 -0.5761114 -0.16224869 -0.24252887 0.87521714 -0.45157132 0.43884188 2.9875653 1.8730816 -0.9462677 -0.8402674 0.29343578 0.56774247 -0.25477657 -0.21165061 -0.18063715 -0.35697016 -0.8830828 0.84329724
1245 0.5219823 -0.14460914 0.43576968 -0.23458341 -0.11282836 -0.6424703 -0.03826715 -0.35403138 -0.0009096355 -0.10972027 0.020373901 -0.46918455 0.4643551 0.5488113 0.0035980695 -0.055081576 0.075061224 -0.5080144 -0.3046246 -0.13086733 0.7902399 -0.18837944 0.17554352 -0.17488545 0.10314586 0.5273272 -0.8127634 -0.19916405 -0.34445596 -0.646784 -0.018660884 -0.39684588
1226 0.5433699 -0.91057354 -0.5214024 -0.16707025 0.030380076 -0.75799376 -0.072204396 -0.8364704 -0.705185 0.909743 -0.15422815 -0.17430085 1.2259159 -0.6643671 0.6020418 -0.51040345 0.2756949 0.06753518 0.21428232 0.31778365 1.1217837 0.08762559 0.06889341 -1.152815 -0.6567412 -0.35456914 0.45384762 0.14398131 -0.5725444 -0.40283608 -0.7455483 0.8201391
1042 0.46033022 -0.087493554 -0.9827889 0.6386279 -0.25925058 -0.9468513 -0.3507534 -0.37730822 -2.2555492 0.67395556 0.17666195 -0.90265983 0.96810895 -0.8046621 -0.48372546 -0.32807657 -0.2835836 1.1666342 -0.3154127 0.5881537 3.1022458 1.6847563 -1.0087231 -1.1681727 0.17205685 0.67116654 -0.44755286 -0.3566907 -0.29065526 -0.21025081 -0.9394467 0.7122263
1358 -0.3423176 -0.17249964 -0.21461551 0.18424885 -0.07524152 0.25144428 0.14339447 0.11429786 0.06573538 -0.55355847 -0.47138762 -0.11118406 -0.34469685 -0.38937616 0.16285877 -0.21953174 0.3077967 0.027734667 0.61155874 0.12495613 0.83399695 0.39727578 0.43903765 -0.5178944 0.03316357 -0.0032112247 -0.34834412 0.3634188 0.6320807 -0.46697024 0.22816971 0.47514883
1026 -0.15061837 -0.5084003 0.059850194 0.10981489 0.1721755 -0.4279898 -0.06545667 -0.20638248 0.5270575 -0.19873811 -0.057261094 -0.3067981 -0.21771158 0.15217516 0.18357685 0.37889236 0.232713 0.09959689 0.32809585 0.25791353 0.22151642 0.2106027 -0.03551186 -0.4484563 0.4423652 -0.35495815 -0.44356027 0.9294937 -0.24317195 -0.4854807 -0.18061864 0.57904303
1210 0.55410635 -0.20114176 -0.84845626 0.5553524 -0.3376235 -0.8225318 -0.39523727 -0.5131207 -2.2090647 0.9227612 0.24930952 -0.77952296 0.8563706 -1.0734732 -0.36284503 -0.26886934 0.19394448 1.1976516 -0.3478568 0.345667 2.8411467 1.4405386 -0.6440619 -1.0192176 0.17487623 0.30792192 -0.22302608 0.23126808 -0.211465 -0.108546756 -1.38847 0.78841823
1574 0.014863292 -0.44819432 -0.01511016 -0.10097414 -0.37506753 -0.56410056 0.4103898 -0.9900547 -0.31600666 1.032059 0.10636786 -0.48493874 -0.018109595 -0.9566845 0.28188312 -0.13318367 -0.028032249 -0.31531966 -0.0070661353 -0.0028488913 0.7266575 0.47711277 0.05451985 -1.1635292 -0.89156157 -0.85288584 -0.2523958 -0.7945199 -0.1536106 0.031340174 0.24162772 0.5469864
1080 -0.25074187 -0.19433105 -0.7211809 -0.57681686 0.73647946 0.20632662 0.40952232 -0.054901604 0.04202443 0.04199731 0.3486085 -0.9124645 -0.28396514 -0.22718905 -0.4183111 0.10226345 -0.12611805 -0.12733412 0.3876962 -0.20181677 0.48264846 0.7298481 -0.008801024 0.05194872 -0.26150885 0.08732951 -0.17454964 -0.004886173 0.24663055 -0.85126376 -0.7343482 0.4420594
1376 0.14816989 0.48406097 -0.4098135 0.16221869 -0.029378336 -0.9358332 0.51483697 -0.2954701 -0.42690787 0.40618202 -0.23834063 -0.57778066 0.16679232 -0.8382367 0.38039702 -0.038550027 -0.18551911 -0.2181242 0.54392624 0.48058823 0.1728809 0.13338295 -0.12824726 -1.3170682 -0.9584129 -0.33266076 -0.5826515 -0.22817266 -0.08094879 -0.034509484 0.70454526 0.06256533
1278 0.30997774 -0.73456335 0.12692426 0.42094928 0.24781002 0.33528572 0.20448232 0.2950265 -0.41752172 0.35395956 0.4731297 0.12561403 0.44201905 -0.64502764 0.22801588 0.3837116 -0.5278646 -0.2812339 0.34858453 0.17137137 0.08665272 0.27136877 -0.058351483 -0.20844817 -0.08599084 0.014941939 -0.62687784 0.025692666 0.48569044 -0.48710516 0.022924379 -0.44825405
1306 -0.41150296 -0.15137841 0.23436333 0.18221605 -0.17600738 -0.22008142 0.62699974 0.076749586 -0.09783196 0.19310866 0.77689564 -0.59223354 -0.4785548 -0.6354365 0.101935945 0.20509575 0.62739325 0.020283122 0.2794017 0.040174372 0.44193628 0.60344565 -0.18404493 0.19601281 0.19056125 -0.6093251 -0.4564875 0.62328947 -0.18149854 -0.24200435 0.46342516 -0.45552102
1187 -0.14975874 -0.95960605 -0.0005010313 0.55248386 -0.4582484 0.64096105 -0.04912711 -0.059942506 0.18314327 0.0073046912 -0.19262579 -0.49645248 -0.04920454 -0.8900485 0.16718194 -0.20121983 -0.66900986 -0.49835163 0.5915701 0.57785475 1.1871175 0.2878502 0.029505827 -0.27537212 0.14951299 0.59517 -0.37035754 0.1413649 0.23796088 -0.122312024 1.0461235 0.5308731
1215 -0.8459593 -0.007247162 -0.18292098 0.3802225 0.006402195 0.31011635 0.27563462 -0.30755767 -0.61293924 0.39673993 -0.1152606 0.050117917 0.07987126 -0.5972067 0.37621465 0.4560969 0.09591457 -0.974551 -0.43167555 0.3225377 0.36828136 0.25362447 0.22228514 -0.94188714 -0.052464847 -0.032689378 -0.46990854 -0.0758824 -0.801146 -0.5520215 0.000837901 -0.31519577
1179 0.33001372 -0.26730642 -0.43365636 -0.26160967 0.5991002 0.027093597 0.27881378 0.23310502 0.09248668 -0.74671715 0.0632987 -1.0394601 -0.16189204 0.1755829 0.2635835 0.63164204 -0.17258438 0.14156377 0.004667253 0.3646744 0.44059014 0.07496094 -0.07265272 -0.120539874 0.008502597 0.44772297 -0.24700366 0.35336375 0.14198688 -0.56504804 -0.29232538 0.48902825
1612 0.6778949 -0.2999538 0.25995907 0.39327547 -0.0070354072 -0.4310928 0.11727922 -0.30247143 0.24496287 -0.15767963 0.26399857 -0.0075507155 -0.07750116 -0.14611143 -0.28373253 0.532701 0.17151473 -0.13787988 0.035670333 0.2426569 0.38498795 0.43157873 0.56378204 -0.08018843 -0.23612025 -0.24180998 -0.62310666 0.033574995 0.029759027 0.0098803155 -0.25845605 0.39142457
1013 -0.28120947 -0.81569576 -0.48312247 -0.195447 -0.24459974 -0.15003535 -0.5240317 -0.051596854 -0.3378562 0.98278743 0.15417987 -0.36091533 0.70419717 0.032983553 0.6141714 -0.26132193 0.2366612 0.5360797 0.11880657 0.3651644 0.6617723 0.22318487 0.6922865 -0.012663301 -0.45019516 0.31209832 0.3239773 0.34942454 -0.22303942 -0.725929 -0.27081665 0.68174016
1422 0.07227597 -0.28634983 -0.3261798 -0.502282 -0.079092935 -0.52374244 -0.09422932 -0.14992996 0.24670623 0.22074634 0.012362303 -0.35648727 0.0001225282 -0.04558929 -0.18508144 0.4437091 -0.23462273 -0.063931026 0.24083199 -0.004252352 0.5279029 0.08464981 0.3539266 -0.8203457 -1.1637888 -0.3293844 -0.4498666 0.5651196 -0.4588132 -0.22562204 0.85885715 -0.64794356
1498 0.29996178 -0.27039894 -1.3257085 0.29881927 -0.01817682 -1.26438 0.52374935 -0.51778644 -0.51774466 0.36008844 0.2232197 -0.4931029 1.0983032 -1.1983168 0.06811235 -0.498818 0.56242454 0.25736558 0.4928589 0.78413624 0.49018973 -0.5041867 -0.12628785 -1.3407254 0.40959293 -0.657022 -0.119400755 0.30685425 -0.8167646 -0.7713715 -0.06292782 0.0395239
1783 -0.06523945 -0.2017889 -0.38281 0.4178171 -0.08467365 -0.2643605 -1.2586722 -0.26289496 -0.29979488 0.42232403 0.4246337 -0.16980131 -0.49871644 -0.19659905 0.48753247 0.2995623 0.40024725 -0.1862551 0.31634644 -0.0375038 0.19458598 0.47787312 0.41758502 0.11259981 -0.1929983 0.56544375 -0.47154683 -0.13217777 0.10873595 -0.3402525 -0.19375719 -0.6330896
1318 0.09960416 0.14802791 -0.34072742 -0.014736981 -0.06464986 -0.7358702 0.7137175 -0.40144524 -0.32662502 0.5398952 -0.088134415 -0.5479778 0.040717967 -0.8903807 0.3405585 -0.1387208 -0.42505446 -0.4838219 0.5960621 0.2220488 0.39266852 0.06412947 0.10476657 -1.0147136 -1.2503561 -0.34941328 -0.5865461 -0.18951236 -0.2603039 -0.20356983 0.86547965 0.06239453
1528 0.40316123 -0.5847881 -0.19274092 -0.3403738 -0.13203779 -0.1942611 0.05129352 -0.5993202 0.173286 -0.1732876 -0.27498952 0.09676649 -0.4974823 -0.014694532 -0.17647602 -0.19907464 0.050182 0.37252966 -0.34836245 0.5640145 0.14068651 0.8063887 0.5082069 -0.29428506 0.03497989 -0.06680083 -0.74189097 0.4375924 0.059464175 0.1616183 -0.14000234 -0.048183747
1062 -0.47977486 -0.5156816 0.24241507 0.08667637 0.42556268 -1.1904743 -0.6252786 -0.23766693 0.011243231 -0.3178017 -0.390519 -0.17191094 0.03475148 0.45549121 0.11385165 0.11724358 -0.19807221 -0.35516605 0.085653484 0.22703908 0.56271523 0.95348746 -0.8013517 -0.39596918 0.44375023 -0.70890725 -0.72318006 1.3357611 -0.42746803 -0.5456134 -0.02695318 0.36691466
1081 -0.33060572 -0.36782476 0.031430732 0.57341874 0.20001327 -0.32982004 -0.19846758 -0.23461837 -0.19070168 0.49018613 0.16724615 -0.26125515 0.08683638 -0.27694142 0.21500659 0.11293744 -0.012046494 -0.35384402 0.405884 0.14095868 0.31468627 0.45369357 0.10752119 0.11602137 0.5290442 0.3688356 -0.45592058 -0.11029263 -0.19190407 0.12710436 0.16294938 -0.76115406
1094 0.84949774 0.058152404 0.307091 -0.08254044 0.13823858 -0.27818835 0.1360813 0.46123284 -0.63250715 0.32483724 -0.18071559 -0.47125435 0.021504806 0.1634838 0.204108 -0.37466437 -0.028236542 -0.28316703 -0.23999229 0.42244986 0.4252516 0.53554523 -0.3662373 -0.23998249 0.64437866 0.20651358 -0.7923224 0.49742547 0.06559823 0.18195914 0.08315041 0.74473375
1018 0.9997345 -1.4425066 1.015907 -0.15452725 0.15517816 -0.7589089 -1.1766474 0.19179928 -1.008546 -0.62872845 -0.5457274 -2.1639416 0.27223295 -2.3372436 -2.0944734 0.375891 -0.64443827 1.0372614 -1.592373 1.5962287 2.1831303 0.5154949 0.7174066 -4.182201 1.5782185 0.7150001 -2.4613457 -0.5479954 2.1069484 -1.3822143 0.7256041 -0.63915557
1344 0.38883004 0.13453002 -0.30484697 -0.37115356 0.8380227 -0.3885282 0.06967693 -0.560927 -0.40977237 -0.21634984 0.49145535 -0.8130211 -0.6275301 0.3911728 0.20503251 0.39839223 -0.4828946 -0.2745586 -0.12514184 0.043056928 0.3014065 0.48043615 0.42204115 -0.31292725 -0.051717617 0.034662988 0.043671396 -0.17105886 0.30710205 -0.45005453 -0.38188252 0.61669683
1166 1.0935719 -0.4841843 -0.1385778 0.3725278 -0.20019606 0.110821456 -0.07223453 0.2500592 0.1560589 0.34322095 -0.24383852 -0.77836967 -0.34778807 -0.11310307 -0.082004406 0.18196459 0.36604595 0.4400267 0.123557776 0.11406811 0.40471527 0.4452106 0.073264726 -0.28704613 0.46620375 0.009692086 -0.70684767 0.55336887 -0.13706203 0.2572205 0.3980241 0.3055257
1185 -0.02994253 -0.40503016 -0.3235435 -0.5453327 0.12333296 -0.32769746 0.41658512 -0.0656164 0.17478456 -0.3972232 0.21708429 -0.06941019 -0.05497467 0.15224975 0.5284521 -0.23591016 0.012372557 0.09600957 -0.05477965 0.32014334 0.028643075 0.4098673 0.9178615 -0.14593327 0.29213107 -0.10612612 -0.49585608 0.3142029 0.39523354 -0.38868868 0.19780761 0.038113393
1369 -0.21154588 0.5284454 -0.4413654 0.28204066 0.38310996 -0.12960939 -0.06559938 -0.34267315 -0.40574718 0.3448984 -0.16109084 -0.041392688 0.019927008 -0.16086097 0.3784736 0.47976542 -0.085403115 -0.24956492 0.35666534 -0.23671249 0.2788963 0.4617082 0.23252943 -0.7471911 -1.0354307 -0.30341455 -0.96308905 0.12624365 -0.2975966 -0.41504297 0.49001765 -0.31272277
1145 -0.1584647 -0.1959943 -0.5441659 -0.45665824 0.7450101 0.0062449668 0.6104259 -0.40266117 -0.1704887 0.24195461 0.0090462435 -0.4641705 -0.14666148 0.36908537 0.25697848 0.86717844 -0.8481955 -0.057702567 0.31588015 -0.2577284 0.5888008 0.2852841 0.34895265 -0.40266192 0.5412747 0.23692621 -0.12459313 0.54722005 0.20726877 -0.3499542 -0.09319371 0.31053215
1353 -0.44715095 0.025973607 -0.3304035 0.17678322 0.052883975 -0.08411772 0.7847567 -0.43522868 0.4161492 0.43748105 0.25427735 -0.6085071 0.38720664 -1.0779063 0.7019032 -0.11360872 -0.712537 -0.7258692 -0.42948142 0.42527366 0.06979471 0.18296996 0.038850095 -0.6165197 -0.043414943 -0.13340575 -0.8664545 -0.3058166 -0.38243428 -0.6876715 0.30044314 -0.26836503
1651 -0.01448821 -0.8674637 -0.44919923 -0.21084219 0.175268 -0.44700047 0.0074145817 -0.24383326 -0.3879568 -0.33742303 -0.44711456 0.34782597 0.21034153 0.09146626 0.2583633 -0.3123133 -0.29200023 0.4211768 0.022757199 0.012176261 0.4130609 1.0735375 0.30260766 0.17658196 0.21309622 -0.15195717 -0.7536668 0.042371247 -0.10547506 0.045458734 0.071020246 0.2030243
1914 0.58720666 -0.2583167 -0.15392153 -0.57957363 0.49041897 -0.11365387 0.16545887 0.073496126 -0.20997503 0.123561695 0.45467824 -0.7212587 -0.56268376 0.17541432 0.19694254 0.1217519 -0.40307245 -0.22126174 -0.15986848 0.38233912 0.43287903 0.21279924 0.03680006 -0.42361447 0.099772215 -0.057031415 -0.039631598 0.6930319 0.882665 -0.22478457 -0.17842746 0.64797115
1406 -0.17949618 -0.09499442 0.39606306 0.082696326 -0.22965921 0.20386696 0.08991933 0.0075439997 -0.072793044 -0.34850752 0.326738 -0.3784801 -0.5003748 -0.66824037 0.9085407 0.38629597 0.6200324 0.59233963 0.20309696 0.069828585 0.26286623 0.40389338 0.20046999 -0.31414616 0.35799247 -0.16336477 -0.3757194 0.53277814 -0.2416738 -0.48736492 0.23672116 0.091768846
1790 0.21613154 -0.010340175 -0.3390894 -0.19758491 0.99263376 -0.5427341 -0.09928582 0.20203802 -0.92337495 -0.0009976736 0.27603891 -0.4910584 -0.79567647 0.10598053 0.24181238 0.43181983 -0.2884268 -0.2002577 -0.48428753 -0.07957268 0.56347054 0.44555888 0.36664507 -0.29586872 0.29989445 0.10078034 -0.08885807 0.1269445 0.6048757 -0.2823236 0.14094514 0.58131236
1311 0.6727543 0.21287096 -0.18030556 -0.46628058 0.020754917 0.08363357 0.016892724 0.56808406 -0.42164686 0.14318116 -0.28803113 -0.007614846 -0.11045927 -0.13249804 0.06393237 0.30494207 -1.0405715 0.0055654314 0.085602924 0.4232653 0.5794742 0.48564255 1.1326255 -0.35319382 0.20807771 0.36419132 -0.4188294 0.22069652 -0.7551362 0.12918845 -0.29111362 -0.30536416
1038 -0.07813193 -0.83601075 -0.6096262 -0.052655496 0.2841452 -0.09895277 -0.30098552 -0.115356594 -0.5865011 -0.41366968 0.2374697 -0.018636288 1.0461822 0.23632391 0.6021233 -0.21187374 0.11751622 -0.012489034 0.54171276 0.16949455 0.5641083 0.4686839 -0.224085 -0.36488673 0.24348702 -0.76584846 -1.0929384 -0.14444025 0.015206908 0.24369788 -0.09210635 0.34406072
1553 0.8283782 0.19267513 -0.01361036 -0.8084721 0.4581744 -0.27729425 -0.0529179 -0.0917336 -0.48578277 -0.121335246 0.04577132 -0.752674 -0.430019 0.39646643 0.60199165 0.727595 -0.37571293 -0.18993455 -0.28055167 0.038688708 0.50073963 0.10542937 0.7029589 -0.1387137 0.42174408 0.31267354 -0.44562343 0.18225966 -0.052577753 -0.045123696 -0.25760004 0.46743235
1110 0.6358226 -0.5850563 -0.34751406 0.15349352 -0.30881384 0.29796377 -0.040487774 0.08823249 0.27267095 -0.3310293 -0.3308831 -0.8423909 -0.4668006 -0.41964242 0.3829242 0.5619668 -0.0372738 0.25791413 0.60684437 0.517187 0.6343605 0.20982923 0.422198 0.1969918 0.44417608 0.022467824 -0.2105883 0.32549477 -0.17258535 -0.08254324 0.53949827 0.59944224
1291 0.556188 -0.53868806 0.35059083 -0.45089453 0.32152924 -0.4157791 -0.92207927 0.29617047 -0.17009217 -0.11801767 -0.25590736 -0.75667876 -0.5064253 -0.48282257 0.70667917 0.42455798 -0.056141954 0.19571993 0.5301374 0.28907368 0.28133082 0.6537752 0.31054285 0.20159331 0.18407953 -0.0046031442 -0.023614597 0.15079555 -0.41363248 0.3297765 -0.13736196 -0.03824722
1135 0.22961901 -0.21411137 0.09082377 0.12709327 -0.13262253 -0.39030457 0.71772975 -0.023444103 -0.05529702 0.034146227 -0.31083405 -0.084402114 -0.102327816 0.2903374 0.3286478 0.3154562 0.042253327 -0.06242319 0.014680229 0.49593288 0.36183956 0.4864979 0.430768 -0.19948229 0.48378173 -0.30544236 -0.33660325 0.3992823 0.09065795 -0.12232627 -0.20218094 0.4258181
1085 -0.1133823 -0.41175604 0.17103265 -0.12190293 0.5178091 -0.5955949 -0.29491362 0.06102536 -0.7021608 -0.53276575 0.15945166 -0.019697838 0.24724649 -0.21241571 -0.5206553 -0.29940793 -0.273136 0.007556997 0.210617 -0.1690488 0.08071095 0.103796855 0.18994011 -0.39211828 0.4634994 -0.37782297 -0.4350232 0.87720513 -0.473226 -0.4687614 0.1264026 0.522179
1100 -0.16677308 -0.24647024 0.5245208 -0.13172781 0.32904777 -0.2615078 0.059584778 -0.11912248 -0.15196392 -0.3020597 0.10074259 -0.45967436 -0.1886364 -0.731249 0.30889493 0.4318831 0.589628 0.1384137 0.2620709 -0.3481823 0.014944503 0.28579748 0.4759263 -0.58225435 -0.15103965 0.72120607 -0.14765103 0.3481918 -0.023244271 -0.039774787 0.046593152 0.2088451
1054 0.011947681 -0.5561451 0.5742719 -0.048558842 0.09228189 -0.17758182 0.27381927 0.018922927 -0.35794714 0.12986766 0.14308499 -0.7339015 -0.07587732 -0.18261045 0.65709573 -0.19545627 -0.0047598225 0.16540709 -0.2435725 -0.009156384 -0.015900867 0.41305315 0.07010801 -0.2879023 -0.4902458 0.49336752 -0.24953833 -0.40485212 -0.25941822 -0.14009371 -0.34685478 0.10317116
1051 -0.15664396 -0.20224975 -0.15273218 -0.010773833 -0.014507114 -0.29853117 0.35439998 0.08104981 -0.7683331 -0.040408026 0.31242728 -0.6235064 -0.3866354 -0.3668375 -0.7073332 0.12094263 -0.27529988 0.54394716 -0.009978044 0.71464115 0.64162284 0.49536887 -0.1972992 0.14723161 0.1773151 -0.2310501 0.24356544 -0.30838427 -0.36871323 -0.611736 -0.8578388 0.24288999
1480 0.1752177 -0.24870992 -0.2871968 0.080100015 0.28586566 -0.23330615 -0.26748136 -0.025931044 -0.25169426 0.5120099 -0.2168609 -0.17807305 0.46147412 -0.22011541 0.15413064 -0.4414974 0.3206685 0.62929887 0.2627541 0.3270445 0.92117274 0.32038996 0.418792 -0.008837741 -0.031360403 0.2224128 0.13744792 0.40834767 -0.044796452 -0.3656155 -0.43174574 0.48630705
1658 0.038887426 -0.115859985 0.15608887 -0.43908325 0.32193193 -0.65600973 -0.022148848 -0.74926937 -0.21370728 -0.45325547 -0.11426685 -0.16631527 -0.22866157 0.13414076 0.27393937 -0.22731595 -0.046866566 0.1658915 0.06419279 0.2761775 0.5515452 0.22657496 0.3503691 -0.16872339 0.4918554 0.023056911 -0.25268835 -0.06675353 -0.008731476 0.06534594 -0.082562596 -0.026148498
1917 0.023747798 0.19262877 -0.14963664 -0.4555213 0.5449252 -0.65136534 -0.00070695893 -0.054832395 -0.3703013 -0.16880445 0.3488362 -0.653153 -0.3401991 0.12734091 0.13075453 0.69262844 0.034296803 -0.21342334 0.0062491554 0.5097826 0.21297815 0.39006463 0.48931506 -0.10425741 0.28252208 -0.0827197 -0.01362374 0.3344959 0.684368 -0.3158279 -0.6148138 0.5165756
1535 0.35221064 -0.03551136 -0.62171465 -0.6331832 0.4123388 -0.5131021 -0.12089357 -0.0490791 0.09990553 -0.22385746 0.13447493 -0.29784897 -0.071414836 0.13147767 0.22870652 0.07926439 0.12964527 0.06203559 0.281532 0.5201435 0.23320256 0.38350773 0.3800801 -0.38300097 0.46556818 0.070750006 -0.06580094 -0.09919256 0.3419539 -0.7050379 -0.38632575 0.37421826
1389 -0.17272455 0.40579253 0.16066802 0.40536457 -0.10531106 0.12602384 0.05730888 -0.44734776 -0.44933707 -0.36547887 -0.27623922 -0.49561644 0.44885856 -0.47665069 -0.2037251 0.33901915 -0.89067143 -0.41134077 -0.3903929 0.69617194 0.56489086 0.30988213 0.91711617 -0.124643266 -0.16953953 0.25893328 -0.37921497 0.03196749 -0.7200531 0.18067545 -0.26201293 -0.1344821
1014 0.62438995 -0.25405937 0.5877193 0.61213803 0.26250592 -0.26289496 -0.19835044 0.13343225 -0.062984325 0.24743831 0.17207311 0.39717284 0.1224771 -0.0999061 0.28539473 -0.19499263 -0.07358836 -0.16870704 -0.19410996 0.5705027 0.49143785 0.5799808 0.14111836 -0.41174394 -0.6569946 -0.12959546 -0.06962052 0.3609819 -0.28341955 -0.7185951 -0.17710526 -0.3563315
2126 -0.5137765 0.025545089 0.18993045 -0.5565313 -0.5244683 -0.10374822 0.055310354 0.07819879 -0.7003127 0.54999095 0.24274293 -0.53400904 0.068557195 -0.66512233 0.06509197 0.17882924 0.43368438 -0.41193774 0.22405224 0.37627602 0.71382767 -0.07305415 0.42257276 0.027032042 0.5631558 0.028775323 -0.35518253 0.8427023 -0.44617805 0.08327354 0.4864326 -0.3728707
1517 0.15945692 -0.24494626 -0.096373245 -0.34147882 -0.16103013 -0.09645069 -0.13521169 -0.24470566 0.058659688 0.4722345 -0.2096081 -0.6323536 -0.619545 -0.037102364 0.6994007 -0.25645894 -0.60113513 0.15010749 0.80213946 0.3646021 0.42387474 0.32114318 0.16374362 -0.5501347 0.16132039 -0.17049675 -0.25938618 -0.22324325 0.18922874 -0.06340191 -0.21339694 -1.412798
1626 0.5006964 -0.18635479 -0.5386965 0.54347664 -0.40094483 -0.9764925 -0.16817088 -0.21749425 -1.6539673 0.7615044 -0.18589261 -0.78921956 0.7773239 -0.5987046 -0.55585104 -0.09966099 -0.03234124 0.7951321 -0.26816073 0.11139336 2.079717 1.5131297 -0.7684683 -0.68029803 0.17583558 0.59869623 -0.46806473 0.17777191 -0.30359438 0.2613824 -0.86780965 0.7558158
1505 0.33918205 -0.14176066 -0.23970892 -0.1321635 0.21269862 -0.4007533 0.052330706 0.037674636 -0.20186985 -0.42553294 -0.12229683 0.08874914 0.0016003314 -0.22007754 0.4010314 -0.15777208 -0.5094764 0.46062636 0.7396835 0.41646436 0.9352164 -0.014552264 0.601116 0.1678134 -0.11805746 0.0027270175 -0.21618138 0.04311852 0.5024974 -0.37471637 -0.16911305 0.22917044
1178 0.3983249 -0.19883811 -0.842559 -0.3337121 1.0090736 -0.7341861 -0.06212787 0.30141833 -0.55177665 0.13971043 0.07372371 -0.4398414 -0.6415053 0.48645473 0.05372594 0.58964986 -0.35594893 -0.38489613 -0.13971539 -0.011327887 0.446625 0.3947473 -0.068132326 -0.2531152 0.4211033 0.52618223 -0.32426286 0.11866004 0.5095801 -0.79601306 0.120920904 0.45558494
1270 0.45051458 0.088342905 -0.6056227 -0.2925235 0.6291996 -0.38776806 0.08842493 0.09653509 -0.3102957 -0.44660285 0.19109929 -0.5109182 -0.498636 0.19633326 -0.047157384 0.42796215 0.016453365 -0.40438756 -0.44354266 0.47310552 0.2362545 0.8134106 0.27989998 0.16417314 0.25597847 -0.15079969 -0.7676926 -0.31158376 0.19998552 -0.16281316 0.29820275 0.45604765
1508 -0.18504103 -0.35192746 -0.01087954 -0.13507327 -0.24638875 0.11955247 0.08237627 -0.3587802 0.2392065 1.0252404 -0.23390168 -0.72212166 -0.12389029 -0.86947834 0.35425612 0.078122616 -0.6044709 -0.7768451 -0.26659644 0.41078573 0.38784364 0.508388 0.19995828 -1.347732 -0.5290151 -0.67575586 -0.5054224 -0.5012196 0.38203076 -0.30575258 -0.49249944 -0.59105206
1405 -0.15358852 -0.036402162 0.22422157 -0.29140374 -0.51662034 -0.008882244 -0.5574994 0.38795623 -0.52467084 0.9132774 0.33197588 -0.23249169 0.5001738 0.07000205 0.30539215 0.38161117 0.54862386 -0.04732802 0.12882681 1.0004854 0.31091076 0.79568684 0.48339686 -0.55820775 0.06181136 -0.08838436 0.30072948 0.34357488 0.029087817 -0.49190545 0.32846457 -0.005938133
1228 -0.041142028 -0.34916627 0.36715266 0.2927978 -0.06598703 -0.45136112 -0.055621397 -0.1815763 -0.030695613 0.23390183 0.22457796 -0.43816733 -0.2230727 -0.061124574 0.18628913 -0.2511232 0.100613356 -0.069599815 0.39232123 -0.2701992 0.32744074 0.23060186 0.6383098 -0.47474554 0.2942189 0.41548288 -0.26311165 -0.37919065 -0.25715742 0.069650576 -0.27105996 -0.59930116
1813 -0.3380213 0.22327983 -0.54662704 0.1187399 0.21179458 -0.7044586 0.23926017 -0.059556223 -0.1904895 0.4445591 0.07507231 -0.3028633 -0.3055278 -0.19419575 0.19678614 0.47896847 -0.008641066 -0.13245165 0.91619456 0.23867843 0.57252157 -0.38325906 0.25899693 -0.7229382 -1.1725256 -0.3927076 -1.0207975 -0.0838372 -0.33030844 -0.17045783 0.68595296 -0.5779648
1129 0.5481215 -0.32621518 -0.19202015 0.10529903 -0.29299843 0.14849871 -0.31045341 0.08311411 -0.054111023 -1.0226547 0.17124686 -0.031226365 -0.9805617 -0.40651166 0.20763518 -0.34178507 -0.71464443 0.26550654 -0.32900688 0.09073627 0.50927067 0.872863 -0.06418531 -0.6843792 0.25308728 -0.27165195 -0.21214575 0.5965231 -0.021246731 -0.6849726 0.27117783 0.33663318
1463 -0.15987538 -0.055622652 0.36703876 -0.16078053 -0.18785726 -0.097844064 0.19777276 -0.9287447 -0.16005516 0.35999617 -0.14198497 -0.4719905 0.3087391 -0.5672115 -0.45219898 0.058782067 -0.44283062 -0.27055216 -0.14503862 0.30561563 0.58430266 0.06905646 1.0680854 -0.1350135 -0.07871828 0.3411584 -0.45342067 0.7497228 -0.23103869 0.49087393 0.38167968 0.05685647
1330 0.47440037 -0.6502087 -0.700689 -0.39707392 -0.6860682 0.05660754 -0.1537284 -0.33685213 -0.48314804 -0.64225936 1.3371542 -0.70745003 -0.31015414 -0.51020646 -1.0040187 0.15680912 -0.15545 0.20916146 -0.109085634 0.35916746 0.5520437 0.5056553 0.17756318 -1.0261822 0.32271364 -0.7734309 -0.15327218 0.66150326 -1.0465475 -0.4413678 -0.20375766 -0.40188313
1157 -0.007453404 -0.2560211 -0.11346726 0.60882574 -0.32529807 0.42081884 0.04782004 -0.10943168 0.29442626 -0.48370025 0.023615588 -0.73940414 0.40239137 -0.67613596 -0.031918675 -0.42754063 -0.99515796 -0.86791664 0.13123238 0.40665016 0.6832862 0.33779243 0.21515222 -0.32989138 0.13113643 0.7435052 -0.59754974 -0.29879895 -0.6916478 -0.66482794 0.4260681 0.025590518
1043 0.60783684 -0.5034284 -0.53931046 -0.27791953 -0.7129231 -0.044295758 -0.19941309 -0.22487453 -0.24213003 -0.79081225 1.1733733 -0.33766133 -0.33424485 -0.48905724 -0.7405922 0.06664905 -0.3865246 0.41483876 -0.07125516 0.1900649 0.60413516 0.72590697 0.26665777 -1.1653835 0.4908496 -0.67069304 -0.21027605 0.8124897 -0.8486692 -0.27551892 -0.16379267 -0.102805115
1268 -0.30938914 -0.08140029 -0.1872842 0.42595983 -0.4860679 -0.5268971 -0.3401441 0.048821215 -0.76010376 -0.112689964 0.25645617 -0.5236097 0.47737488 -0.45727894 0.31594175 -0.06498798 -0.06150345 -0.088127896 -0.018692179 0.90224713 0.20916356 -0.2527287 -0.04169594 -0.08125915 0.6817488 0.8353694 -0.64881027 0.39678442 -0.46488377 0.44508806 -0.018240899 -0.7618554
1260 0.39045787 0.124221966 -0.31553796 -0.29563016 0.56739116 -0.16756706 -0.19327544 0.2500021 -0.6301132 0.034082323 0.26893982 -1.0822061 -0.98918545 -0.10826175 0.18228468 0.4910901 -0.044074196 0.022466715 -0.26937622 0.15578319 -0.16910581 0.31091064 0.5970645 0.0048521543 0.1453265 0.26175812 -0.5054011 0.2745908 0.56636065 -0.7848465 0.28134578 0.6998208
1209 -0.043138612 -0.1872165 -0.59173113 0.27225375 -0.702962 -0.050754055 -0.25652465 -0.50195557 -0.5523234 0.14121453 0.15279387 -0.92241496 -0.56842595 0.07743677 0.77257043 0.018023795 0.12812969 -0.20863071 0.42606598 0.5519794 0.1713116 0.3080115 -0.309976 -0.2944541 -0.051238887 0.4780456 -0.36566693 0.49371612 0.1413896 0.10000127 -0.47166783 -1.5105504
1397 0.20781827 -0.23162243 -0.28497565 -0.35923955 -0.098029494 -0.06943726 0.15956394 -0.018746072 0.21966434 -0.4099716 -0.08770429 -0.18177177 -0.06639384 -0.07122027 -0.45839652 0.19675624 0.51761067 -0.12426755 0.6514744 0.3868225 0.72075576 0.45249712 0.75542104 -0.3200396 0.146499 -0.17420296 -0.45677498 -0.11246099 0.17575045 0.014000809 -0.25288546 0.2495173
1175 -0.35030594 -0.67697424 0.19948351 -0.05555351 0.55580276 0.21998774 0.63050544 -0.2652551 0.13626467 0.51763946 0.57684904 -0.28091776 0.6230109 -0.32536975 0.33779913 0.6358408 -0.6019358 -0.66716063 0.43338007 0.22590709 0.034487233 0.3859162 0.11938638 -0.531069 0.4360832 -0.31574285 -0.4207505 -0.19452077 0.20983583 -0.43648258 0.5525031 -0.17774919
1473 0.3299874 -0.96198404 -0.12329505 0.04233489 0.42027837 -0.028667228 0.012597021 -0.060170505 -0.5329466 0.4751595 0.19536017 0.08696538 0.51845443 -0.8923033 0.44852197 0.004908456 -0.08929088 -0.5948674 -0.2953167 0.027739549 0.54171044 -0.5185135 -0.14548081 -0.45839238 -0.65086776 0.13329671 -0.6071516 0.12006586 -0.109206855 -0.39714944 -0.82815504 -0.30290353
1701 -0.827218 0.16923055 0.11426462 0.055216074 -0.4534408 -0.16602227 -0.31771573 0.23473217 -1.1095479 -0.22260882 0.0740879 -0.30464435 0.3274153 -0.446589 0.444053 0.24043432 -0.19589098 -0.457671 -0.11337793 0.60352814 -0.031745285 -0.22171313 0.48704794 -0.39790747 0.17188558 -0.698299 -0.86224574 0.32631814 -0.8116682 -0.29401854 -0.044201765 -0.02901501
1855 0.6242136 -0.29267603 -0.5152408 -0.28104568 0.06099607 -0.5931622 -0.081692405 0.15406664 -0.11144941 0.1696258 0.2441003 -0.31333336 -0.68200904 -0.08034497 0.08620592 -0.41530952 0.15259038 0.029781848 0.15365341 -0.018706273 0.026607191 0.19988136 0.06596117 -0.5180268 0.723691 -0.08094002 -0.62635285 0.39914608 0.23725648 -0.24408479 0.006396106 0.8074258
1355 -0.5368737 -0.31341088 -0.3093569 -0.2660218 0.17487793 -0.048364565 -0.06373345 -0.4074824 -0.37519976 0.874247 0.20068862 0.22373137 -0.050985567 -0.8584978 0.48243654 0.33576518 -0.09541654 -1.0816889 -0.84958947 0.24783343 0.4886814 0.014550696 0.09513455 -0.9207188 0.08792466 0.19173023 -0.7785735 -0.2659361 -0.24981944 -0.28043857 -0.28924346 -0.27807757
1173 0.03245241 -0.52455854 -0.49901292 0.2564005 0.15521519 -0.44429356 0.13346356 -0.34658483 0.74477655 -0.30347306 0.10895125 -0.531366 -0.36578435 -0.07050389 0.16643262 0.3547337 -0.08863747 0.5071996 -0.23894686 0.47589642 0.2830165 0.31626666 -0.26797044 -0.08219676 -0.56471974 0.10415249 -1.1518886 0.4923099 -0.04050195 0.15434273 -0.60505515 0.33860067
1248 0.33152577 -0.5488818 -0.7242203 0.7491985 1.8392074 0.20905319 0.45147204 -0.69413435 -0.121569715 0.06518585 1.1206319 -0.7678126 -0.4934658 0.27839723 -0.21692526 0.38981172 0.5977292 -0.17589033 -0.6054795 1.804712 1.3871083 0.1340427 0.5529799 -0.70040256 -0.31907842 0.37714028 -0.043585703 -0.25211996 0.6919318 -0.028901832 0.2620717 -0.3145477
1382 0.11097219 -0.25916827 0.7050646 -0.20416532 -0.25360724 -0.6519332 -0.3192785 -0.2172871 0.402422 0.21295339 0.17078093 -0.80938333 0.708211 0.42702848 -0.110203534 0.54166114 0.056802727 -0.2608161 -0.21695322 -0.18464264 1.057131 -0.13537331 0.41631606 0.053200316 0.1779938 0.5347952 -0.9145086 -0.12896827 -0.29596025 -0.46014246 0.4694057 -0.043353092
1289 0.29033387 -0.026843235 -0.13130432 -0.0030858414 0.20627666 -0.16464272 0.43964422 -0.096803896 -0.14935106 -0.5630292 -0.116573244 -0.32920167 0.007849749 -0.30173194 -0.070474684 0.36248818 0.16291869 0.7150367 0.35706297 0.55193996 0.40146083 0.24006304 -0.18588577 -0.08412426 -0.009661198 0.2396432 -0.49686256 0.6217376 0.056584388 -0.28695858 -0.37418064 -0.020119246
1582 0.184697 -0.09649152 -0.41167513 -0.3007257 0.53367686 -0.49588025 0.09930967 -0.28650284 -1.1070535 -0.41053268 0.04998215 -0.4164192 -0.27320445 0.33657932 0.4346489 -0.13784738 -0.37120965 -0.25699455 -0.2182402 0.1831945 0.47063825 -0.12537178 0.18926045 -0.031203324 0.3780925 -0.33081496 -0.4593062 0.5833315 0.4106447 -0.0889017 0.18814899 0.7076332
1534 0.0053442484 -0.9821742 -0.33858117 0.31439686 0.42677656 -0.30678046 -0.2820655 0.20104706 -0.79484874 -0.60905945 0.27725983 -0.23583643 1.0819196 0.1735657 0.3690289 -0.33360595 -0.085280485 0.31112894 0.23128092 0.17082457 0.5818673 0.40992093 0.29189152 -0.18075348 0.29295608 -0.5976342 -0.89330477 -0.005596302 0.12804693 0.6843785 0.26709533 -0.10461984
1239 -0.6024195 0.12156909 -0.1606846 -0.11105615 0.5279958 0.3385028 0.31152102 -0.9610107 -0.008784183 0.8966808 0.034670614 -0.24041925 -0.18336639 -0.44448936 0.23391889 0.30552164 -0.55675614 -0.9865625 0.26075166 0.17102109 0.2514093 0.58354515 0.14272934 -1.1724457 -0.25652635 -0.43124673 -0.5849349 -0.39616185 -0.09961726 -0.72147864 0.09709793 -0.37179306
1754 0.38509253 -0.3548405 0.06426915 -0.0435694 0.027516868 0.044486202 -0.7702864 -0.13149197 0.23575719 0.2631986 -0.012310631 -0.56929106 -0.4855387 -0.40638638 0.51519054 0.32036415 0.29009166 0.27708706 0.17384304 0.32882798 0.6828546 0.27378738 -0.07807991 -0.20633818 -0.3414571 0.17104773 -0.57762915 0.11289403 -0.05778723 0.25963345 -0.6325584 -0.7474905
1430 0.079451464 0.3894689 0.12439594 0.1726032 -0.62430495 -0.20591043 -0.04804349 -0.17076966 -0.61763513 0.36531043 0.13976012 -0.51438326 0.21054198 -0.70316947 0.6954968 -0.43192318 -0.20867798 -0.80499774 -0.017105136 0.027016597 0.24127395 -0.021787727 0.6764627 -0.17907283 0.20138302 -0.29635322 -0.77830386 0.22816573 -0.5236635 -0.42270973 0.67326415 -0.51749736
1431 0.12726289 -0.39502302 -0.5351523 -0.03481941 0.2530734 -0.34169516 0.3726151 -0.4399552 -0.5263869 -0.41351336 -0.70688707 0.1077143 -0.1432406 -0.07376433 -0.32634127 0.47440016 0.06575485 0.4430802 -0.08139408 0.2726758 0.6246153 0.31840742 -0.05441174 0.13684891 0.079099275 0.28496778 -0.72279245 -0.01269156 0.49545887 -0.5591004 0.12353911 0.049035285
1314 -0.8004638 -0.04058875 0.06075751 0.6713503 0.13970311 -0.0047579804 -0.15642431 0.33994198 -0.08355159 0.11308154 -0.3795346 0.11990436 0.18780386 -0.8761191 0.38524142 0.79647154 -0.61795026 -0.3661385 -0.48569298 0.22696453 0.8576698 0.4365328 0.6448518 -0.92025536 0.030465724 0.19719285 -0.39581 -0.16232108 -0.46030802 -0.15414964 -0.36374596 -0.32493466
1078 -0.09169135 -0.16011606 0.16929066 0.41901377 0.78060806 0.3413833 0.040895663 -0.7951932 -0.31474206 0.7224314 -0.1645057 0.08998121 -0.55704886 -0.33435246 0.23305242 0.11552624 0.06805464 -0.68507844 0.41011345 0.17474361 0.5092269 0.26812595 0.057903584 -0.36890087 0.18819232 0.15773892 -0.13158698 0.2763724 -0.64339 -0.1975316 -0.19182472 -0.45117944
1298 -0.6383019 -0.72743845 -0.37731826 0.74386376 -1.0787649 -1.1065598 0.031551298 -0.24219398 -0.8252379 -0.1571131 0.76793987 -0.80215853 -1.034168 0.75163543 0.5851781 -0.5551776 0.07904875 0.26562566 0.62084484 0.19560453 0.65318406 0.18339348 0.14589074 -1.1784415 -0.031202432 0.6478685 -0.10980352 0.7166381 0.65829015 -0.22877966 -1.2203612 -0.87220097
1350 -0.17061079 -0.5204328 0.020680454 0.117559776 -0.07692766 -0.121438764 0.066997506 -0.7292185 0.06609542 -0.21374576 0.16861601 -0.29030442 0.10653358 -0.034325916 0.09306281 0.019404761 -0.084532104 0.1688803 0.34482244 0.44802582 0.44579682 0.26284385 0.60523576 0.18837716 -0.048609085 -0.0019676583 -0.36700746 0.41763467 -0.16674101 0.33686295 0.135369 0.22643946
1238 0.03592331 0.018781617 -0.22285692 0.36159593 -0.1801499 -0.36400735 0.0845885 -0.041493636 0.24300238 0.5314261 -0.09409569 -0.39714253 -0.3932615 -0.48467478 0.33039472 0.028832434 -0.6948775 -0.24997418 0.34054676 0.3058872 0.8310524 -0.019429766 0.48444018 -0.8475391 -0.736604 -0.8346775 -0.50966525 0.122276776 0.15019494 -0.022033902 0.29817125 -0.9705922
1611 0.33361626 -0.12604584 0.07468359 -0.39179942 0.44908208 -0.31166506 0.11677611 0.2497318 -0.26732817 0.00921424 -0.036495116 -0.43727192 -0.086495355 -0.038245138 -0.044593267 -0.39101452 0.6225764 0.15965155 0.07931586 0.46239007 0.8172865 0.2209205 0.18690766 -0.21972226 0.14892033 -0.14849767 -0.052132484 0.65375596 0.3180848 -0.06261967 -0.06324068 0.42934728
1581 0.038590696 -0.06261799 -0.0016099922 0.25223652 -0.17263211 -1.184073 0.66653025 -0.31245947 0.03949033 0.6246064 0.14878438 -0.40424043 -0.41432697 -0.6900362 0.5937419 0.12038161 -0.3483164 -0.13290763 0.43367553 0.09515777 0.6158798 0.45205042 -0.30402017 -0.4820756 -0.66709393 -0.72490674 -0.06815426 -0.16471073 -0.4617798 0.062647864 0.56372446 -0.46544296
1127 -0.017393164 0.3626436 -0.09433585 1.2275441 0.15852825 -0.08622414 -0.12004725 -0.027674131 -0.989067 -0.44185564 0.15613614 -0.21883738 0.15751183 -0.26907864 0.089292675 0.32793137 -0.53204846 -0.5940887 0.5473863 0.94527745 -0.07913474 0.07478417 0.47716466 -0.337145 -0.45300347 -0.09916963 -0.15850684 0.2365392 -0.43596697 -0.1909625 -0.020589698 0.29845396
1319 0.22854999 0.118814684 -0.20312962 0.18199867 -0.28837097 -0.8694265 0.711556 -0.718603 -0.29257149 0.5912683 -0.38751048 -0.5975828 0.18022609 -1.202217 0.38073868 -0.18193868 -0.4568137 -0.3708696 0.59612215 0.4318891 0.44337192 0.46971303 -0.1006298 -0.7612276 -1.1330028 -0.2397093 -0.42570463 -0.084382586 -0.032544255 0.047129035 0.98016363 0.16968521
1341 -0.50224376 -0.25662225 0.19880196 0.17600974 0.5472634 0.53039044 0.06782865 -0.118370205 0.12500463 0.009061268 0.10080447 -0.14008896 -0.18022193 -0.021704653 0.13072504 -0.047061805 0.4824953 0.60132664 0.43223268 0.41321582 0.21768972 0.44773254 0.2430355 -0.5275041 0.4041766 -0.059355617 -0.76049083 0.3089452 -0.39044163 -0.49072096 -0.2892741 0.24558322
1250 0.6390148 -0.68356276 -0.5560073 -0.30630496 -0.60613906 0.16040914 -0.13559715 -0.44268364 -0.38033205 -0.63479143 1.3960211 -0.68648696 -0.27171347 -0.5212786 -0.87199056 0.08651393 -0.069238484 0.09567681 0.003055657 0.21727197 0.58769095 0.60375303 0.23428182 -1.1368849 0.3145779 -0.80924094 -0.06361071 0.6886854 -0.92180634 -0.32192495 -0.03182553 -0.42538932
1168 -0.2632735 -0.26574072 0.16506314 0.22741853 0.22060242 0.18815292 0.54698455 0.8615948 -0.5528217 0.97294533 0.099081695 -0.72410125 -0.31046325 -0.29468977 0.013426379 0.024777392 -0.038876787 -0.123247 0.18615445 0.11392723 1.0117285 0.25386322 0.014852155 -0.13776904 0.1564971 -0.23237588 0.1006971 0.18785346 -0.7110603 -0.062005464 -0.27969354 -0.56578493
1258 0.66146725 -0.14143732 -1.1079223 0.61377823 -0.32199174 -1.1043352 -0.43465438 -0.5660643 -2.377494 1.0075129 0.12411807 -0.8047852 0.9557118 -0.9237856 -0.63557935 -0.41227394 -0.20155428 1.1829207 -0.17595369 0.32187185 2.577926 1.7191794 -0.74586135 -1.023433 0.20673762 0.72368246 -0.52152306 -0.01609267 -0.30022395 -0.13470846 -1.1349472 0.6706825
1111 -0.38829926 -0.7480743 0.023318572 0.19980246 -0.25291774 0.230399 -0.31177983 -0.5520906 0.04337275 0.32271487 0.37358475 -0.08529303 -0.07018651 -0.37938175 0.5138295 -0.067466676 -0.47175375 0.54632074 0.26188308 0.69445753 1.0506933 0.37182063 0.32637691 -0.09798487 -0.27126753 0.4322785 0.157433 0.21440361 -0.3248727 -0.16618054 1.349082 0.29264635
1197 -0.4388866 -0.731856 -0.15010408 0.15099356 0.16486649 0.053255968 -0.32100132 0.2965794 -0.99927074 -0.38069928 0.1522074 0.09721378 0.88129574 0.1314726 0.46707365 -0.27331436 -0.04318047 -0.16003346 0.33351094 0.22932917 0.45184705 0.5446232 0.2763471 -0.1684503 0.5030356 -0.7833777 -0.83726615 0.23725781 -0.09720237 0.19377169 0.19669493 0.42742676
1083 -0.18549317 -0.4358772 0.89999634 0.29894722 -0.018782971 0.042740267 0.3163463 -0.40583485 0.04564949 -0.14282425 0.16721913 -0.5826363 -0.09851541 0.34510028 0.4775598 -0.053279895 0.044276576 -0.01937485 0.6697075 0.17305656 0.48329356 -0.29047185 0.39514273 -0.6451418 0.08759918 0.39716548 -0.4246902 -0.46881497 -1.0010649 -0.31849146 -0.17927215 0.27586034
1249 0.3614051 -1.4444861 -0.49438226 -0.24858102 0.47300798 -0.4407147 -0.21030562 -0.500746 -0.8909414 0.5010715 0.119517 -0.0031550385 1.5504204 -0.8118424 0.7889782 -0.36270565 0.17513342 -0.44072485 0.16396412 -0.024813145 1.2257514 -0.22896676 -0.29338747 -0.9908961 -0.67796946 -0.37135035 -0.5270102 0.09289346 -0.32041267 -0.23359203 -0.97054243 0.37335467
1121 -0.168036 -0.6365945 0.625717 0.4376973 -0.29756212 -0.0658705 0.22386579 0.32408023 -0.5247104 -0.01090605 0.3007898 -0.49230897 -0.4526843 -0.030900074 0.104950525 -0.23438922 -0.24300356 0.5137845 -0.37568745 0.55849975 0.3682127 -0.2653822 0.43016544 -1.1271569 -0.84660393 -0.01603696 -0.3217725 -0.6477806 -0.031834517 -0.13154016 0.13468172 -0.17937613
1375 0.28285542 0.18448262 -0.12851252 0.08189213 -0.2939368 -0.89961463 0.025701478 -0.12159532 -0.17109096 0.7022353 0.13635036 -0.5022102 0.057772886 0.16400068 -0.022447877 0.21686974 -0.3426514 -0.20161535 0.054334864 0.31955576 -0.10438456 -0.1994875 0.32218853 -1.2736918 -1.1071886 0.21813041 -1.1186624 -0.13714147 -0.15639296 -0.15308917 0.65999985 -0.13145559
1227 -2.0479393 0.36131653 -0.4875554 1.4496155 -1.1315523 -0.8805184 1.847605 -0.67705935 -1.5731934 0.6880042 3.3502936 -1.6971467 -0.43713236 0.77090585 0.5028604 1.3635329 -0.53394884 -1.4214767 -1.7636553 1.1296631 3.45194 1.7816755 -0.08806504 -1.5737773 2.0441422 0.3144729 -1.506296 2.1163533 1.3180406 -1.7708048 0.4745671 0.37868503
1451 -1.9905089 0.34177732 -0.5403145 1.4910573 -1.1525757 -0.9193206 1.8247203 -0.6774624 -1.5994672 0.6898344 3.2797456 -1.7245071 -0.44452068 0.75248533 0.39645672 1.3058043 -0.47354022 -1.4222527 -1.733244 1.062098 3.3926604 1.8099155 -0.10013863 -1.605811 2.0614886 0.28239235 -1.4350603 2.0457563 1.2543616 -1.7309119 0.47631925 0.3229422
1090 0.29876235 -0.4395403 0.6342768 0.20638363 0.00046731287 -0.3796898 0.23396151 -0.17098936 -0.5653477 -0.08059634 0.3481277 -0.26410833 0.048460275 0.42220074 0.43711543 -0.19917561 -0.053606 -0.2942719 0.066505246 -0.08553679 0.3025088 -0.16709134 0.139121 -0.27979523 0.23517846 0.30133083 -0.17655487 -0.09276724 -0.19235177 -0.69821113 0.075828 -0.3186275
1511 0.30329323 -0.81065243 -0.3346663 0.761509 -0.10545285 -0.06318804 -0.57202667 -0.4448811 -0.106286705 0.46155503 0.072520725 -1.1008894 0.12106877 0.44845185 -0.6620444 0.5095952 0.031923007 0.4757709 0.42986286 0.0825996 0.12725906 0.1648221 0.28621554 -0.25290748 0.28650352 -0.29135966 -0.3471749 0.3456784 -0.49279153 -0.045129128 0.26103318 -0.01649217
1373 0.12226447 -0.19255967 -0.5229993 0.16419631 0.31374246 -0.5328732 0.67141527 0.4200484 -0.69982946 0.6057834 0.27167928 0.04018983 -0.1662882 -0.7537718 0.5288667 0.19950181 0.4960986 -0.3816143 0.51293546 0.3176794 0.11796138 -0.47308207 0.6021185 -0.6795662 -0.904456 0.030613946 -0.9765317 -0.70651865 -0.16184485 -0.05726238 0.31512383 -0.11040753
1324 0.20321874 -0.096521676 0.12220808 -0.04184345 -0.05984939 -0.25055963 0.20230232 0.089376986 -0.09921563 0.029841088 0.18040861 -0.09889638 0.01123357 -0.1833156 -0.2177451 0.01630453 -0.06550123 0.63032013 -0.30933872 0.44804168 0.090383366 0.5955696 0.29541397 -0.1788961 -0.17642762 0.21296693 -0.9957962 0.11673352 -0.27282876 0.018204212 -0.25385994 -0.07797382
1218 -0.31970784 -0.35264242 0.65899307 0.09707539 -0.027979186 0.2489423 0.58398783 -0.10652148 -0.44556504 0.20579132 0.19766435 -0.550904 -0.3609932 0.08615439 0.3816659 -0.47975373 -0.010671838 0.37633297 -0.26208773 0.76635975 0.28014722 -0.44165128 0.5351373 -1.2851963 -0.7148137 0.09402871 -0.52649957 -0.25366932 -0.4809434 -0.0051431423 0.26282078 -0.43295324
1182 0.48166344 -0.70020694 -0.35401 0.19825868 0.5914066 -0.08502798 0.30025637 0.80597895 -0.053623635 -0.12183618 0.63975 -0.5416654 0.06622397 0.24158208 -0.13571885 0.13458957 0.5286889 -0.2551093 0.12306229 1.1047046 0.6786032 0.3606548 -0.123172656 -0.6685127 -0.10134883 0.53420895 0.60401523 0.5491726 0.45094597 0.09429744 -0.163699 0.20822357
1489 0.20035657 -0.3127406 -0.3093553 -0.8106103 0.71388054 -0.21866085 0.019636426 0.20114706 -0.87446755 -0.5254254 0.260385 -0.5504955 -0.6082892 0.27124768 0.18818143 0.55782264 -0.021157777 -0.63985276 -0.62612647 0.017491285 0.8106051 0.6571405 0.64742893 -0.16532128 0.13869257 0.0037719323 -0.023135882 -0.003591391 0.5407277 -0.21136516 -0.052023526 0.7380218
1017 0.19201043 0.1378114 0.3793428 0.31321502 0.5508715 -0.103494346 -0.23175976 -0.44380423 -0.7515679 -0.23816168 0.010320243 0.3563866 0.14110525 0.3294288 0.04576259 -0.32878065 -0.13768476 -0.30559257 0.3306691 0.966021 0.20283593 0.37443742 -0.0019579472 -0.36758867 0.017969139 0.09062639 -0.5917908 0.4675839 0.36060524 -0.28161126 -0.07503055 0.6835957
1196 -0.021829616 -0.42641616 0.18135548 -0.13196383 0.34496704 0.4622937 0.21131743 -0.313039 -0.608705 0.09016766 0.38679454 -0.06800174 -0.07803787 -0.30958024 -0.60755616 0.19759811 -0.67159164 -0.5393474 0.2164206 -0.008815965 0.34755352 0.25073773 0.15351325 -0.7600966 -0.69187427 0.096420445 -0.28265223 0.7432304 -0.48633793 0.04641947 -0.08317971 -0.6465703
1308 -0.13646856 -0.89748067 0.52697474 0.18157402 0.47583333 -0.24517818 -0.30876046 0.63843 -0.155798 0.045103516 -0.11334098 -0.98166305 0.1713351 -0.15790296 0.13721116 -0.40670604 0.18344109 -0.19599433 0.23686491 -0.2596393 -0.12114254 0.27787688 0.28954154 -0.7977448 -0.3387168 0.4580746 -0.46885848 -0.101900384 0.07374982 0.094908044 -0.07598971 -0.61819136
1067 0.19737127 0.06686954 -0.389394 -0.40392014 1.2837294 -0.09974087 -0.29951584 -0.80811983 -0.9290628 -0.6610107 0.37538975 0.024463437 -0.650449 0.104711026 0.47680455 0.18263675 -0.50719726 -0.35353047 -0.35319602 0.27788326 0.75713676 0.49264696 0.103710644 -0.56780076 0.5336287 0.5137691 -0.019299544 -0.18522929 0.14762159 -0.6723241 0.05521625 0.42614204
1656 0.6890718 -0.1221319 0.11572568 -0.04283939 0.35054672 -0.8041914 0.29395208 -0.1192666 -0.606275 0.040184535 0.37081766 -0.5217418 -0.498763 0.4483303 0.33388782 0.3813208 -0.4697008 -0.10313201 -0.30991566 0.1604668 0.16086416 0.21784365 -0.038105834 -0.28833237 -0.023330623 -0.15591902 -0.13076769 0.15926458 0.56065947 -0.26021832 -0.023307914 0.49539155
1580 -0.014221271 0.23850738 0.032299705 0.09885098 0.054033473 -0.78067964 -0.14268503 -0.59256184 -0.037045877 -0.7585048 0.37143287 0.38696316 -0.18617009 -0.4578507 0.36318168 0.07943289 -0.048867546 0.0076126084 0.6696161 0.27187458 0.40209743 0.25464723 0.037178066 -0.31304368 0.09221254 0.7102912 -0.17499043 0.09690794 0.09975605 -0.62890655 0.0108198775 -0.14361565
1005 0.49903998 -0.083415724 -1.0628182 0.37970173 -0.14352696 -1.1671015 -0.30683768 -0.4938344 -2.295175 0.8919666 0.26170245 -0.9744716 0.99101526 -1.0750375 -0.8481538 -0.36517012 -0.28389758 0.9810567 -0.15833053 0.20054387 2.6831062 1.7180473 -0.7721635 -0.99830985 0.053812027 0.6234219 -0.32782397 -0.031504393 -0.34656903 -0.11053245 -1.1630342 0.7392728
1482 -0.5794786 -0.6545671 0.13063437 0.6570066 -0.67027336 -0.66625774 0.14071202 0.05417414 -0.6633824 -0.12641433 0.66054374 -0.3866497 -0.67222875 0.6986267 0.13369985 -0.42210096 -0.013588581 0.42037416 0.3511049 -0.1199341 0.39045882 0.065170325 0.6568908 -0.41170076 -0.12753968 0.3307211 -0.2994167 0.045419168 0.37387684 0.052555013 -0.5966015 -0.24216425
1267 0.11394186 -0.9225274 -0.27893144 0.3720946 0.2960632 -0.50327975 -0.23586978 0.2620147 -0.79033804 -0.5302143 0.44473675 -0.12360315 0.92030627 0.077207886 0.32761496 -0.2503817 -0.101776764 0.52561414 -0.04581722 0.30220798 0.5407336 0.19506496 0.4517799 -0.03866515 0.37067777 -0.06193274 -0.9334808 0.22846852 0.0798796 0.84394217 0.19092625 -0.38856113
1944 -0.08323885 -0.38631293 -0.42506933 0.017173707 -0.22065072 0.0359812 0.11808771 -0.14590369 -0.19222346 -0.23669632 0.016598523 -1.2159673 -0.63233674 0.07761951 0.37593552 -0.62721986 -0.1059668 -0.017488614 0.22107919 -0.1925315 0.17138943 0.32319072 -0.23419002 -0.18605429 0.011166204 0.32576406 -0.78703284 -0.41585103 -0.10842374 0.047820494 -0.14959642 -0.7061123
1906 -0.35172704 -1.0199158 -0.20249164 -0.022678327 -0.924259 -0.5970657 -0.13235562 -0.09826834 -0.544542 0.21194817 0.069402516 -0.044993732 -0.244119 0.31498513 -0.16752864 0.19671093 -0.14506465 0.099904545 0.3441513 -0.46888658 0.25328833 0.85326207 0.5370591 0.23130903 -0.05994907 0.004473593 -0.29079613 -0.19142027 0.23809978 -0.6307139 0.0029868698 -0.59537435
1542 -0.79508126 0.06433656 -0.43560988 0.13550918 0.283195 -0.2612098 -0.39323452 -0.08577726 -0.05525083 0.2813508 0.021042842 0.15303297 -0.22809234 -0.66714936 0.013485394 0.47797483 0.31403804 -0.23957774 0.1234499 -0.037727267 0.50550354 0.32241532 0.20148951 -0.22723176 -0.5258899 0.060777683 -0.83371234 0.1405075 -0.71464866 -0.47252586 0.085065275 -0.48109624
1668 0.5215281 -0.30397704 0.55862916 0.3688168 0.0025067015 -0.33706787 0.2747743 -0.255797 -0.48725793 -0.17113338 0.03047376 -0.20589367 0.021294136 0.016949156 0.20782702 0.0026821394 0.28943494 -0.27069375 0.1399672 -0.32869953 0.42309663 0.19145258 0.13599935 -0.3908187 -0.12921609 0.47449172 -0.2133163 -0.16000512 -0.08131668 -0.4348672 -0.14031304 -0.62835884
1623 -0.20956407 -0.24189775 0.31182778 0.28006536 -0.3485899 -0.76591593 -0.17966671 -0.54394895 0.09777914 -0.15796094 0.27812526 -0.17563495 -0.392978 -0.41309065 0.5554507 0.4069987 0.598643 -0.35994217 0.59535426 0.18313828 0.3927714 0.312676 0.43053344 0.3301729 0.33900508 -0.14229827 -0.1716451 0.40796712 0.11921805 -0.3509295 -0.26882046 -0.033087045
1312 0.13685568 -0.8976423 -0.71335185 -0.13173239 1.0953195 -0.9865969 -0.8822475 -0.9627445 -0.6283684 -0.15680522 -0.0298814 -0.9328191 -0.27828556 0.122969426 0.6578187 0.5265874 -0.081573874 0.060382582 -0.24283473 0.03385394 0.11873174 0.25262636 0.055978745 -1.4389105 1.3718278 0.13795058 -0.11478281 -0.32550466 0.783249 0.104796834 0.32581005 0.2814485
2108 0.4569175 -0.037300345 -0.4010702 -0.14928146 0.110392086 -0.26939568 -0.6510859 -0.009987974 -0.09593996 0.13533719 -0.16239238 -0.38103482 0.15226482 -0.15862653 0.5620856 0.29545054 -0.21747929 -0.1875327 0.6365443 0.5183338 0.024178753 0.8247245 0.9325 -0.16943748 0.43452734 0.00629276 -0.13312352 -0.14015812 -0.32351974 0.4859656 -0.46582496 -0.6574679
1608 0.11048638 -0.11454871 -0.5794601 -0.0075205755 -0.11306504 -0.19274221 -0.21191058 -0.42849806 -0.4210563 -0.1879985 0.53626937 -0.2789328 0.13572776 0.3426919 0.04067878 0.67198694 -0.007718074 -0.055139504 0.80766135 -0.10641348 0.31487846 -0.2826994 -0.05322574 -0.39791164 -0.3392733 -0.6042006 -1.0013767 0.40669197 -0.31234345 -0.10505982 0.44941634 0.016347127
1385 0.34959537 -0.88319165 -0.19231665 -0.87356144 -0.32471576 -0.00011045848 0.13959913 -0.5127689 -0.25236183 0.5802854 -0.52416056 0.217531 -0.75170666 -0.41817632 -0.317209 -0.06108014 -0.80954254 -0.36814776 -0.69478834 0.41089615 0.20825793 0.76905453 1.4597602 -0.74098027 -0.26647735 -0.10348332 -0.85959005 0.9884016 -0.24557154 0.262419 0.2317713 -0.61808836
1410 -0.6052235 -0.16483307 -0.8260983 -0.5065538 1.1286961 0.06395157 0.92188454 -0.40571544 -0.4545546 0.14161246 0.017744683 -1.1334006 0.098701075 0.5101981 0.30225733 1.1396202 -1.2280387 -0.1666707 0.63063645 -0.38698098 1.029101 0.5552805 0.18161424 -1.0072831 1.0538505 0.6968996 -0.30595484 1.2085865 0.2028763 -0.15465306 -0.11016004 0.018122874
2184 0.3221737 -0.23883432 -0.116378404 -0.43486908 -0.4932797 -0.48081198 0.23062922 0.18570785 0.11122192 -0.2599007 0.66886204 0.06923331 -0.01869266 0.017802086 -0.46468636 0.4244695 -0.6112551 0.5291886 0.28849164 0.57678837 0.45612803 0.65279436 0.70284295 -0.6536077 0.10717961 0.15228693 -0.07508419 0.21283916 -0.5342559 0.40540105 -0.56655043 0.006396918
1531 -0.48429468 -0.27475667 -0.5921083 0.64732856 0.2604223 0.36103982 -0.116593644 -0.54335463 -1.2195851 -0.25881904 0.3138909 -0.4930146 0.37076208 -0.45974168 0.9663415 -0.5019277 0.311203 0.05699138 0.4112128 0.4961491 -0.47168946 0.87832195 0.18121289 -0.22278991 -0.037941407 0.49304903 -0.32179597 0.00031462125 0.48201662 0.17481871 0.14089264 -0.6818001
1144 -0.2930657 -0.89671403 0.83471525 -0.11322201 0.16114122 -0.39237598 0.1563969 -0.36097294 -0.24274005 0.5806734 0.035766773 -0.22247691 -0.08521349 0.24387296 0.1862811 0.45629036 -0.6171514 0.39943066 0.6497232 0.30665657 0.5533046 -0.4565568 0.023598079 -0.23566927 -0.14790644 -0.0931346 -0.2882943 0.2124837 -0.37254804 -0.4516924 -0.059979245 -0.15922137
1381 0.63114434 -0.7432573 -0.6762259 -0.33117414 -0.8307661 0.1447726 -0.14341639 -0.4787219 -0.38521916 -0.8638454 1.4249297 -0.79490167 -0.222693 -0.71561867 -0.86808705 0.13061753 -0.31000072 0.350507 -0.092900895 0.19721125 0.78447604 0.672648 0.38765857 -1.2756308 0.55220354 -0.7534498 -0.013868952 0.89678687 -1.0005262 -0.4215371 -0.2273831 -0.34573036
1253 -0.39298606 -0.22395925 0.46211565 0.32119104 -0.33220378 -0.2310555 -0.22475821 -0.04354145 -0.84118134 0.3454262 -0.39376223 -0.7388381 0.15132657 -1.0208151 -0.15067407 0.3816092 -0.5156661 -0.52689147 -0.7325151 0.2461021 -0.19369863 0.23263201 0.31742972 -0.61917365 -0.23996216 -0.2986166 -0.85797256 -0.27624556 -0.97213167 -0.25745076 -0.28640845 0.12111213
1342 0.2996314 0.17857465 -0.19920112 -0.23799802 0.31944883 -0.42213815 0.11531543 0.47757936 -0.6466899 -0.14913781 0.284227 -0.61119604 -0.86015403 -0.44519326 0.36717835 0.44332254 0.2204917 0.36160523 -0.060304105 0.115259 -0.4938553 0.12897077 0.4863314 -0.062487707 0.5378761 0.69238895 -0.68437 0.30419075 0.1445346 -0.64659977 0.5148466 0.17697968
1617 -0.6535045 0.12944868 0.48715678 -0.12546854 -0.12119651 0.43788213 0.8305591 -0.542571 -0.5200331 0.19588959 0.50153357 -0.38740143 0.4585312 0.1268457 0.21646568 -0.08031298 0.018883582 -0.4327835 -0.34440544 0.3552057 0.7528627 0.23128621 0.052798085 -1.1873151 -0.97268176 0.36913255 -0.36769444 0.80088246 -0.64293426 -0.16215497 0.07762914 -0.7878406
1757 0.4939781 -0.16917346 -0.22642456 -0.27335614 0.96164966 -0.38364908 -0.14986695 -0.12481786 -0.91256714 0.17847383 0.09792666 -0.50857824 -0.7032254 0.12971765 0.5381562 0.088889256 -0.22577861 -0.19373958 -0.43118715 0.28256336 0.057950277 -0.02647621 0.5890125 -0.14786379 0.15167949 -0.2332594 0.034050863 0.16311483 0.50428706 -0.83087415 0.018726686 0.34037676
1213 0.32092103 0.08241879 0.2098637 -0.31858605 -0.64632577 0.15982966 -0.11091584 -0.71754986 -0.024097294 -0.18144916 1.3422167 -0.18893528 0.5566752 -0.0769618 0.5939429 0.08263278 -0.1893823 -0.2365679 0.09483496 0.6711869 0.8353084 0.9568346 0.09064628 -0.513758 -0.774216 0.7931048 -0.25881633 0.539399 0.3507596 -0.25544292 0.8592263 -0.3463634
1660 -0.12192332 -0.9206756 0.25210857 0.44270295 -0.5585301 0.16338141 -0.3500719 -0.031959813 -0.23783557 0.31787917 0.118283354 0.076404884 0.7007486 -0.23414557 0.4628824 0.27197745 -0.30787352 -0.6173452 0.36186698 0.631799 0.39292997 0.817258 0.20516042 -0.2229591 0.37475613 -0.320851 -0.012248063 0.2690452 0.70986605 -0.3880095 0.80421627 0.3508455
1180 0.20909499 -0.30159268 0.24763848 0.17157935 0.28876483 -0.44583637 -0.2023685 -0.2951748 -0.06926896 0.12221254 -0.124580115 -0.07543346 -0.022509543 -0.2257744 -0.018310618 -0.1520003 0.32314113 0.047360398 -0.014610978 0.21290796 -0.11893509 1.0784281 0.5152865 -0.59198976 0.5630595 0.77896154 -0.288261 -0.20258719 -0.24925578 0.34771535 -0.20107548 -0.54403836
1230 0.06525715 0.030354412 -0.30255732 -0.011880446 0.124123 -0.0071150763 0.26158598 0.26568618 -0.11967198 -0.021693474 -0.40148604 -0.1398194 0.22150683 0.12807862 0.26522583 0.86017287 -0.73633087 0.10937558 0.03537182 0.3007412 0.57578605 0.5290812 0.8854098 -0.43978798 0.5477527 0.34299043 -0.20971549 0.112565696 -0.59553796 0.23207705 -0.4658796 0.060003176
1300 0.25282392 -1.0444658 -0.7379092 0.51567835 0.16232967 -0.15339732 0.6153897 0.042282794 -0.77694684 0.7998064 0.2607697 0.06133619 0.7596749 -1.0902705 0.87043184 0.46848693 0.06004109 -0.21045072 0.033910397 0.60569876 -0.07777665 -1.0214059 0.4585436 -0.41274825 -0.4887521 0.051531218 -0.9791767 -0.32253295 0.03121226 -0.86740685 -0.22831587 -0.28981626
1502 0.12443455 -0.14869316 0.3299452 0.16016844 -0.58293223 -0.27182102 0.025555175 0.18065707 -0.2847818 -0.21619417 0.35077396 0.5656946 -0.39095107 -0.78867954 0.049294583 0.5854434 0.005524325 -0.11535601 0.524004 0.124283865 0.2862715 0.4782192 0.33453926 -0.4835145 0.32342204 0.22349502 -0.91405404 -0.42675614 0.290658 -0.19234356 -0.1437034 0.48173138
1696 0.390421 0.059798647 -0.5086421 -0.44519547 0.6693872 -0.60344845 -0.0023208251 -0.4557433 -0.7158765 -0.17651941 0.38360646 -0.48114407 -0.7601215 0.44764823 0.51601666 0.62437296 -0.47025475 -0.24605426 -0.54373807 0.13319007 0.7199326 0.3419493 0.34509414 -0.28886753 0.43719748 0.05955912 -0.12383131 0.13131571 0.5085992 -0.31758595 -0.0641971 0.5739035
1875 -0.26350647 -0.3821505 0.33496392 0.14698426 0.58583254 -0.21693261 -0.80980104 -0.6525386 -0.70922613 -0.10247954 0.67978317 -0.5610068 -0.08447361 -0.683693 0.3012164 -0.022037484 0.49944898 0.18932983 0.24743687 -0.29839855 -0.30278537 0.43899205 0.4924714 -0.6289034 0.117108844 0.522868 -0.11427929 -0.17603841 0.2886405 0.3003051 -0.11813322 -0.5449994
1141 -0.05740843 -0.11993415 0.71427983 0.043238137 -0.4390423 -0.54608154 0.13854225 -0.29516184 -0.15056753 -0.20343988 0.48020172 -0.49330363 0.3392141 0.61209404 0.005247424 -0.3625108 0.21005945 -0.9291334 0.4823763 0.0992317 0.87347287 -0.43943882 0.2774857 -0.4444805 0.27464166 0.5276878 -0.6887526 -0.36354253 -0.34007365 -0.5907555 0.05872318 -0.16193019
1161 0.14814313 -0.4954128 0.46022546 0.12006932 0.078925 0.67965204 0.42864946 0.049229976 -0.17154287 0.4773485 0.9651688 -0.21758895 0.67737436 0.10382136 -0.2866764 0.5658406 -0.56330615 0.18688647 1.0044333 0.631232 0.059692502 0.47814357 -0.020255748 -0.2709946 0.43597847 -0.52507746 -1.4487289 0.019268373 -0.10709343 -0.79457617 0.17118841 -0.32540932
1200 0.16903281 -0.84213835 -0.30963042 0.28526518 0.41311765 -0.39246646 -0.22419822 0.30416644 -0.8565679 -0.611553 0.35473958 -0.15629344 1.0409515 0.12628414 0.45656267 -0.25984275 -0.060670186 0.6878527 0.06473875 0.18675977 0.5974467 0.44703233 0.4292065 -0.17664865 0.16708185 -0.2985078 -0.819099 0.09828237 0.20192306 0.7475761 0.24637839 -0.28815457
1785 -0.48502028 -0.62831455 -0.1230655 0.20716414 0.023021542 -0.41570947 0.26658028 0.02158481 0.13133077 0.100507304 -0.4190778 0.1833653 0.08667301 -0.54753196 0.3322785 0.66446424 0.008799019 -0.4517352 -0.65036607 0.10736726 0.79485095 -0.06643238 0.60621053 -1.2524223 -0.10393685 -0.06389987 0.11761952 0.21906166 -0.34458 -0.83037317 0.5189179 -0.96971387
1499 0.13281517 -1.3743101 -0.21618228 -0.062127624 -1.0682158 -1.0896037 -0.26149592 0.35572198 -0.36714345 0.084431276 0.072340116 -0.71319896 0.6444788 -0.34275985 0.13080463 0.0059151393 -0.0009132382 -0.36283627 -0.034007546 -0.61700004 0.48552772 0.547259 0.6748424 0.34957257 -0.23058836 -0.05175353 0.20800714 0.21759926 0.30723992 -0.7759931 -0.031082429 -0.5787501
1691 -0.25417843 -0.14631836 0.20201544 0.028882442 -0.7949633 -0.5044455 -0.17757763 -0.21914726 -0.5696886 0.7978334 -0.19795431 -0.83877486 -0.14709018 -0.6610478 0.09136377 0.06707735 -0.43893608 0.019466784 -0.2590315 0.6704893 -0.050182074 0.19155607 -0.081782036 -1.5897024 -1.0647465 -0.34557974 -0.75925696 -0.8440511 -0.08269317 -0.1727575 -0.01584337 0.27916384
1028 0.4429313 -0.18668945 0.3423255 0.23090696 -0.28236696 0.19446906 -0.09551952 -0.5067429 -0.39984572 -0.02133781 0.7423369 0.06667131 0.828023 0.01359418 0.25960317 -0.24252339 0.018851934 -0.7748528 0.40588072 0.89429486 0.4098608 0.59266 -0.1703354 0.040771063 -0.34442875 0.5735712 -0.44272414 0.8647877 0.61299616 -0.5188396 0.54785967 -0.31176522
2152 0.6216911 -0.59564245 0.097915076 0.45051554 -0.25420892 -0.8914591 -0.22444655 0.28686243 0.4361504 -0.3810132 0.031835128 -0.42041862 -0.2877837 -0.63281983 0.3082212 0.13508557 0.07214379 -0.17708495 0.3413569 0.54491234 0.29204756 0.16644609 0.6998624 0.11599527 0.067237146 -0.53005856 0.09892773 0.41709784 0.28764522 -0.29315534 0.086820856 0.082507595
1549 0.3128635 -0.8773389 -0.7224195 1.0465637 1.8447751 0.2782042 0.19101359 -0.7313471 -0.04323496 -0.0024367552 1.3688499 -0.62908554 -0.8280237 0.23427747 -0.3078259 0.34841555 0.39852792 -0.11036253 -0.44391677 2.1688778 1.6440866 -0.08116702 0.8522787 -1.0668476 -0.2935824 0.49985355 -0.17066664 -0.23482329 0.57858706 0.10418578 0.25210765 -0.12752424
