799 32
1037 -0.1070116 -0.16944315 0.11494723 0.13489506 0.33511382 -0.065711334 0.1645352 0.013065862 -0.43593037 -0.1814538 0.09999804 -0.29505816 -0.1320605 -0.2131214 -0.14330864 0.10253528 -0.022972422 0.0006062357 0.032053366 0.06543656 0.29626516 0.35131013 0.41382325 -0.4042988 0.12386432 0.053933624 -0.1701874 0.15554896 -0.17975001 -0.27986357 -0.023694204 0.18286443
1007 0.00057207095 -0.47979012 0.26423514 -0.053564623 -0.13725823 -0.1535747 -0.22204316 0.074355535 -0.28443435 0.13857028 0.10560213 -0.7880027 -0.15343991 -0.11355167 0.2690013 0.4174014 0.07139784 0.42129895 -0.01262803 0.19912666 0.18142456 -0.02562 0.64556885 -0.1584073 0.032802783 0.26344287 -0.07383324 0.119110554 -0.09128589 -0.13991131 0.009505266 0.17015134
1138 0.20367272 -0.17621595 0.1320589 0.013603653 0.014977552 -0.2764382 0.38898924 -0.20562471 0.13174047 -0.09450444 0.41033807 -0.21104981 0.07996696 -0.22142701 0.39443636 -0.18141814 0.22880478 0.2831568 0.22986016 0.10928802 0.2559968 0.06637177 0.34203058 -0.49591416 0.19547744 0.14244838 -0.44528162 0.11415808 0.15015607 -0.5296012 0.14368975 -0.324054
1016 0.011293312 -0.16441071 -0.0188574 0.13826281 -0.14780177 -0.02613909 -0.19019869 -0.0020285381 -0.39142346 0.32362166 -0.14366207 -0.094121024 0.07895201 0.1189856 0.056096382 0.22335891 0.073935725 -0.047043677 -0.16170926 0.11492122 0.42522344 0.4227626 0.5277433 -0.16446699 -0.008986636 0.20105954 -0.17623438 0.2884649 0.13710628 -0.30263096 0.072576925 0.26525965
1105 0.035184145 -0.2642972 -0.21370636 0.195921 -0.0005180765 -0.28521895 0.13305305 -0.257591 -0.10917752 -0.1721284 0.25325793 -0.15536635 -0.09142077 0.04717022 0.09694542 0.062043477 -0.038361493 -0.022698319 0.053305853 0.14194597 0.35614204 0.1743531 0.6872052 -0.35616776 0.050225865 0.031617444 -0.12868655 0.18107373 0.22758785 -0.17728223 0.07787777 0.36754727
1034 0.09215041 -0.33248833 -0.32774216 -0.112415895 -0.0039016914 0.040049672 0.024506208 0.10591635 -0.19849306 -0.063559994 0.47360373 0.2151315 0.3243392 0.032818913 0.18522266 -0.21627587 0.23367882 0.025075695 0.25521216 0.1696048 0.06293929 0.27770302 0.4814753 -0.2110877 0.13382186 0.1380968 -0.65461427 0.12388269 0.09093791 -0.26506326 0.52863777 -0.23024055
1309 0.06826602 -0.64891475 -0.12448504 0.3718595 0.23113717 0.045279082 -0.2604903 0.067223966 0.02201237 0.075029664 0.44875187 -0.017304279 0.30522025 -0.463808 -0.048018306 0.28569007 -0.0073393127 0.054500796 0.100170195 -0.36907566 0.042624664 0.3904955 0.11529729 -0.015540982 -0.05960605 0.5243184 -0.29092458 -0.06885176 0.124577716 -0.5173242 -0.054891154 0.1739417
1079 -0.1786666 -0.47917166 -0.028032204 0.18480125 0.3371114 -0.0065318905 -0.32541683 0.3761725 -0.23430221 0.19471811 0.34633574 0.0056139324 0.24849261 -0.111121915 0.5680642 -0.13649385 -0.01864325 -0.06996442 0.26228008 -0.085220166 0.18143405 0.50144684 -0.06700022 -0.29261845 -0.23826754 0.1324771 -0.40765935 -0.07858454 -0.012903895 -0.50930005 0.2439529 0.025752045
1246 0.047997016 -0.6042105 -0.10621467 0.11550737 0.19203801 -0.24217834 0.26714522 0.06498716 -0.06651946 0.15986578 -0.15819034 -0.39311305 0.3402432 -0.12548451 0.21534957 0.017579747 -0.1955956 0.033683848 -0.31111744 0.07569588 0.45849133 0.1933818 0.5332556 -0.4431482 0.016392726 0.09933611 -0.1970017 0.40414414 -0.0015357999 0.06039599 0.008428575 0.12384629
1147 -0.07032262 -0.023784537 0.09002492 0.20252442 0.5240956 -0.18550418 0.0954467 -0.10232542 -0.06208303 0.21689716 0.5514716 -0.08226816 0.33299208 0.08761887 0.52172166 0.09998656 0.15548748 0.17651716 0.20237488 -0.1200473 0.23793224 0.046244293 0.10352036 0.10994972 -0.45761424 0.3841675 -0.62229556 0.34046492 -0.18632907 -0.32103086 0.4061994 -0.15596895
1049 0.12689896 -0.21454976 0.11041572 0.04633549 -0.083775006 0.13820688 0.38153133 -0.3550923 0.25446716 0.04170814 0.3798505 -0.37554196 -0.11185238 0.05327642 0.14551522 0.34923345 0.11639672 0.042661216 0.16450621 0.3083922 0.35272244 -0.030342447 0.73029524 -0.48339158 0.0833849 0.007879559 -0.048656307 0.1183651 -0.2416297 -0.25364044 0.4132184 -0.011785152
1023 0.013293439 -0.13656072 0.110656396 0.295234 -0.051834505 -0.0667494 -0.09393518 -0.021277277 -0.035266433 0.20147966 0.1849148 -0.16202608 0.27538857 -0.08362374 -0.080148764 0.032510795 0.03721003 -0.02721239 0.46185914 -0.10816935 -0.050030775 0.4886695 0.22697276 -0.4212206 -0.018314322 0.12788463 -0.53968805 0.09782374 0.2530321 -0.54086524 0.26668495 -0.101458855
1356 0.09634626 -0.37517405 0.10312509 0.31359655 0.22472796 0.019264756 -0.15662813 -0.3509662 -0.40248033 -0.307086 0.23244882 -0.36347434 0.36577997 0.08468277 -0.07397718 0.06787981 0.14475842 -0.18074836 0.11664289 -0.01953635 -0.042754628 0.5221154 -0.044831194 -0.2540219 0.10916223 0.38647977 -0.5279688 0.35951507 0.34868136 -0.2049837 -0.25472313 -0.3655828
1108 0.1868711 -0.4417133 0.5513184 -0.045786418 0.010014267 0.17881209 -0.06374923 -0.088118576 -0.36372596 -0.38479123 0.02729165 0.06656191 0.2107111 -0.22274332 -0.08709057 0.28253862 0.19577739 -0.02774444 0.37657484 -0.22375643 -0.13319269 0.23933575 -0.18558925 -0.34563026 -0.049261052 -0.046641525 -0.6012412 0.5897472 0.30740586 -0.49790326 0.24340604 -0.21219473
1039 -0.007719996 -0.062259857 0.14980973 0.3763267 -0.003497656 -0.27044514 -0.19771534 -0.18372513 -0.46594656 0.21489881 0.059959754 -0.25554454 0.2627339 0.013624028 -0.082264885 0.0108214775 0.48112738 0.03952486 0.09897585 0.09882167 0.017501006 0.6704217 0.07677721 0.1378112 -0.430479 0.21534593 -0.5282949 0.06635587 0.142439 -0.6883795 0.17928667 -0.15933588
1088 0.7401321 -0.55988157 0.2387986 0.16079459 0.12891556 -0.09790986 -0.19804119 0.054052982 -0.69305044 0.2734006 0.7552963 -0.071382985 0.44098452 -0.034036182 0.29503703 -0.16746183 -0.39437845 0.39794084 -0.34145385 0.17454623 -0.36321515 0.41272086 0.0131773725 -0.110855825 0.39981666 -0.5606666 -0.000351639 0.09640346 0.015663179 -0.37683505 0.44880292 -0.055716973
1076 -0.2187988 -0.5672267 0.05643484 -0.25438884 -0.13352923 0.30625808 0.26725945 -0.0016743392 -0.06498104 -0.17379367 0.028812854 0.11773526 0.0033993777 -0.3714258 -0.076330714 0.51738244 0.1027541 -0.06276728 0.48334405 0.031917207 -0.108002014 0.5421428 0.5406051 -0.19141404 0.17889532 0.05818511 0.03279596 -0.05122204 0.0029703057 -0.5257858 0.37852535 -0.02505211
1004 -0.33761808 -0.49219853 0.13955663 0.17492847 0.20062362 0.0648559 0.062240764 -0.44890887 -0.09018892 -0.27529824 0.43992966 -0.117337056 -0.11713138 0.1748716 -0.069830984 0.0647878 0.25739232 0.2110598 -0.27149567 -0.051278967 0.45765105 0.5342069 0.1446951 0.01643748 -0.010542965 0.17113611 -0.37600037 -0.529203 0.12401948 -0.61933047 0.5210489 -0.20895201
1310 -0.011976622 -0.49066663 -0.0844288 0.2160093 0.17636816 -0.05690305 -0.122420385 -0.20068559 -0.21327664 -0.19708252 0.35705602 0.07786104 -0.13416877 0.0010859108 0.27955344 0.3682223 0.08840094 -0.19502647 0.39838323 -0.20265047 0.011417601 0.31978366 -0.013940247 -0.18867338 -0.021031097 0.23824784 -0.46402815 0.15002972 -0.106372505 -0.3347631 0.259143 -0.4061068
1184 -0.31236163 -0.28038758 -0.044454224 0.4408353 -0.35252067 0.44212794 0.24326651 -0.2984062 -0.2303311 -0.11220227 0.394943 -0.15250982 -0.094000846 -0.6610103 0.30523413 0.31398615 0.019187914 -0.15686215 0.2968955 0.25449046 0.0484645 -0.20907094 0.33402637 -0.2770124 0.50152075 -0.23128535 -0.21471235 0.47008774 -0.006571765 -0.8127066 0.31321776 0.02910615
1181 0.10573106 -0.3253447 0.058935184 -0.2510301 -0.016182022 -0.33544582 0.08539239 -0.3717401 -0.25124943 0.00894398 0.33614394 -0.22206908 0.04474801 -0.13587132 0.01444667 0.094365194 0.09111167 0.15713713 -0.48919943 0.0814805 0.54239696 0.22850332 0.4961735 -0.33618176 0.305596 0.2772524 -0.49862263 0.06453141 0.0099813305 0.25139338 0.28262752 0.19940066
1199 0.021329373 -0.41798198 0.31907427 0.14033678 -0.022513011 -0.18217549 -0.12859756 -0.046664927 -0.24967675 -0.5904546 0.37203792 -0.09853359 0.13895608 -0.026875192 0.24429443 0.14975978 0.13119993 -0.09068402 0.04465007 0.11215136 0.11008942 0.4191272 0.73107916 -0.18856294 0.15431808 0.27069592 0.06115618 -0.13337505 0.37324682 0.14617074 0.08802292 -0.15745623
1327 -0.060133133 -0.31900644 -0.046586126 0.38428286 0.39865598 -0.025022527 -0.24549453 0.40189782 -0.18441582 -0.030719252 0.3133335 0.06450072 0.16460645 -0.6376391 0.15848331 0.43154547 0.030451156 -0.41677284 0.34424648 0.04831904 -0.30573347 0.42435387 0.116973795 -0.33763194 -0.30452013 -0.10852866 -0.763429 0.07796505 0.5591268 -0.2897759 0.060122207 -0.033010747
1283 0.06494312 -0.13202213 0.15404518 0.14867952 0.05041274 -0.15784463 0.31138423 -0.18917088 0.1492178 0.03233003 0.20870754 -0.2734737 0.2232847 -0.22791964 -0.07587106 0.24736413 -0.05149204 0.12024059 -0.16191131 0.13989821 0.4832357 0.40799537 0.55777866 -0.16775876 -0.11960946 0.2927699 -0.28713128 0.13848658 -0.114304736 -0.043838542 0.24853018 0.513435
1099 -0.04014978 -0.37794542 0.22721033 0.33123863 0.004485287 -0.0044023264 -0.17514071 0.07658188 0.11071439 0.07301644 0.002710134 -0.074158706 0.25068882 -0.019678345 0.004029373 -0.026467023 0.25554138 -0.2785182 0.29281104 -0.038225267 0.1304126 0.42760485 0.5705147 -0.30899176 -0.36933836 0.3492029 -0.35170975 -0.030615384 -0.03281059 -0.34320876 0.45932123 0.29581746
1098 0.42495865 -0.33042324 0.28200665 0.021514803 0.47404796 0.14604154 0.18004903 0.01792868 -0.34352678 0.28915867 -0.16518587 -0.41545996 0.17357776 0.047101628 0.08331741 -0.05552658 -0.16590518 -0.042995945 0.21150695 0.05641537 0.22563797 0.47157013 0.2298932 -0.5423628 0.42771745 0.86401546 -0.011016563 0.31102434 -0.010481049 -0.47380912 -0.42988107 -0.063371204
1243 -0.29311436 -0.21541181 0.3131291 0.06423082 0.07316722 -0.0009635316 0.15984288 -0.4059467 0.037301555 -0.084631816 0.39654028 -0.25205263 0.2515762 -0.13014197 -0.24210155 0.44323635 -0.17265859 0.10036236 0.1445803 -0.020524044 0.33104977 0.56775236 0.29192683 0.12973109 -0.21781538 0.3402443 -0.44758612 0.076659106 -0.302745 -0.1044436 0.099478014 0.032637518
1084 -0.34241065 -0.044452783 0.11861583 0.14565675 0.104807965 -0.43616349 -0.13895144 -0.06787284 -0.031228468 0.4426044 0.06841131 -0.29965037 -0.24403241 -0.31945723 -0.08907322 0.30768722 -0.33685023 0.13987565 -0.34226736 0.1407594 0.60611224 0.39393803 0.52701 -0.24859834 -0.28529015 0.018289708 -0.0072362563 0.320196 0.25745866 0.050293583 0.49474233 0.4899817
1020 -0.052779295 0.002675546 -0.273021 0.08050171 -0.06859394 -0.46587354 0.32681662 -0.16823024 -0.21099527 -0.04281103 0.34308955 -0.40167373 0.47895676 -0.11176564 -0.13147894 0.35281935 -0.07622808 0.12908557 -0.16061705 0.065288305 0.48883033 0.42700496 0.5727323 0.018920768 0.40860936 0.20564303 -0.16372195 0.07721549 0.20775655 -0.16744897 -0.041120652 -0.049238585
1172 0.048566815 -0.58486146 0.1836421 0.35005823 0.14512412 0.048580244 -0.22379713 0.08174841 -0.14871264 -0.114428975 0.32190394 -0.25024885 0.4563566 0.20815633 0.16830282 0.21402769 0.22118811 0.053752832 0.095708005 0.0559224 0.1777477 0.09519808 0.26424202 -0.15785581 -0.30773875 0.6640958 -0.27354914 -0.72884834 -0.08647174 -0.762239 0.046460845 0.11921707
1276 0.10595661 -0.3746872 0.15084702 -0.065790676 0.054266356 -0.665127 -0.035403486 -0.28317448 -0.13267618 -0.15390538 0.33735624 -0.31038174 0.14732715 -0.10170881 0.067790814 -0.11868805 -0.10809946 -0.033148475 -0.16857846 0.12241785 0.022547437 0.2720364 0.54716945 -0.33317623 0.25127047 0.051281657 -0.16007458 0.09622231 0.20287359 0.06088122 0.28738838 0.48866636
1377 -0.25015485 -0.16401483 -0.39916995 0.53283453 0.12788582 0.027842425 0.2891574 0.1527366 -0.61891305 -0.02266339 0.2087641 0.01650413 0.5204516 -0.14373635 0.26114994 0.5417504 0.1882035 -0.06398246 0.35616544 0.115235485 0.16568719 0.2999707 -0.20739527 -0.5242361 0.63550925 0.109110035 -0.28666964 0.33864772 0.011904238 -0.38964215 -0.13263996 -0.02564583
1201 -0.26154527 -0.448353 0.19840328 -0.14983582 -0.18602942 -0.15230839 0.09294277 0.024017189 -0.058085695 0.5833406 0.0029387046 -0.07755311 -0.033111334 -0.31684333 -0.3730212 0.32730293 -0.07117055 -0.07028745 -0.29847443 0.37277547 0.38604477 0.49330622 0.46898785 -0.2991472 0.13699651 0.2800308 -0.14808731 0.020277476 0.07462081 -0.18566857 0.21596986 0.46107557
1075 0.36516643 -0.3616021 0.30459878 -0.08755468 0.04308318 -0.30988786 0.31041315 -0.2586147 -0.19482055 -0.095074184 0.07622272 0.14671719 0.2732026 -0.20253542 -0.21210411 0.45187962 0.089588016 0.18895397 0.2682565 -0.19909368 0.093351334 0.42746985 0.26106787 -0.031807546 -0.1785189 -0.1948049 -0.38703564 0.45136428 0.6770544 0.081156954 0.45212585 0.499513
1220 0.48351607 -0.4764129 0.8876608 -0.39751709 0.016618745 -0.01906022 0.036161847 -0.008915709 -0.35840175 -0.044616584 0.0044516646 -0.10495325 0.5035556 -0.46086425 -0.19596972 0.35343543 0.31406045 -0.31826285 0.3172219 0.21107447 -0.2071194 0.3855559 -0.10296963 -0.38905364 -0.10293961 -0.24976452 -0.65968996 0.36400023 0.2030087 -0.655781 -0.35257956 -0.1957005
1072 0.24835525 -0.25475565 -0.029580906 -0.15274405 0.011728724 -0.14852348 -0.42387748 0.1882264 0.19208147 -0.44034663 0.94352424 0.048581455 0.037734065 0.14837006 -0.041808605 0.31681937 0.13999522 0.65423965 0.32333055 -0.06581199 -0.20713718 0.39141178 0.66256344 -0.43108484 0.3753779 0.08223613 -0.22272266 -0.0029027164 -0.054226678 -0.20875318 0.11550436 0.32844386
1149 -0.12250792 -0.785336 0.11388459 -0.08630061 0.19923663 -0.22661829 0.1586041 -0.16125524 -0.2018861 0.07938099 0.27724284 -0.13386394 -0.15800518 -0.040207636 -0.16769332 -0.07753613 0.23075143 -0.056910437 0.3142578 -0.2559681 0.15875952 0.3868817 0.088008985 -0.14118852 -0.030058239 0.13593443 -0.3835077 0.2997498 0.42493713 -0.3583153 0.12304313 -0.0780409
1426 -0.1399463 -0.57291764 0.84274036 0.031313825 -0.12058494 0.2491887 0.1134053 0.33637923 -0.34118858 0.57082725 0.62945676 0.1501187 0.08827267 0.050372418 -0.16514039 -0.031092696 -0.17041534 0.30495694 -0.1878469 0.31437758 0.5049794 0.63075244 0.08910408 -0.17507513 0.596753 -0.2707651 -0.41914007 0.61995924 -0.26555175 -0.12469934 -0.012208275 -0.24877968
1133 -0.118742414 0.051830944 0.26906174 -0.1775019 0.3792603 -0.50568414 -0.2297186 0.39697862 -0.7849327 -0.47788888 0.12273819 0.17818567 -0.16338833 -0.2710523 -0.17518018 0.40884152 -0.6463534 -0.18360698 -0.2534183 0.5000154 0.30760002 0.021900738 0.6920048 -0.2166477 -0.24680273 0.60972035 0.30170074 0.41700804 -0.49204215 -0.1011489 0.71020985 -0.14426278
1676 -0.28154016 -0.6974845 -0.08007607 -0.21808635 -0.016342163 -0.22756831 0.33930808 -0.0037195634 -0.038300738 -0.14850481 0.37219957 0.29515752 -0.27984664 -0.3354687 0.28124157 0.3553967 -0.1258028 0.24857986 0.40833575 0.2842689 -0.19661276 0.5400043 0.111118905 -0.23415048 0.26493537 0.44073197 -0.09817821 -0.053867675 0.278213 -0.12606016 0.4663894 -0.3823296
1068 0.025210578 -0.15417838 0.00086434954 0.119826086 0.4304899 0.063399866 0.25575367 -0.24169737 -0.2281483 -0.027390426 -0.33396292 0.0564038 0.27739194 -0.19094174 -0.0848394 0.5087767 0.01374082 0.122997664 1.0205388 0.14344563 -0.1979307 0.5567559 0.46990648 -0.029524032 0.042162813 0.49858296 -0.45207143 0.09042281 -0.08416178 -0.2724624 0.27788055 -0.16453522
1189 -0.22195557 -0.15779306 0.18084459 0.14650501 -0.23563333 0.21673536 0.06583132 -0.20470758 -0.63104075 -0.09237409 0.4175414 -0.05820252 -0.11161178 -0.10333367 0.18063405 0.4259165 -0.027698485 0.101230845 0.56904966 0.13442132 0.15189189 0.46707886 0.11318212 -0.03571639 -0.16737658 -0.16059369 -0.6777745 0.09219447 0.32437873 -0.5065894 -0.2751967 -0.19483191
1139 0.27696922 -0.19423454 -0.4185081 -0.09132145 -0.5651005 -0.20590009 -0.69747037 -0.37688777 -0.10554431 0.19329669 0.2962141 -0.3169165 -0.18322723 -0.6607982 -0.5163056 0.94801265 0.11930967 -0.014272452 0.23024467 0.6950767 0.6926135 -0.27272478 0.36987862 -0.29074612 0.15705404 0.15669152 -0.06404829 0.5583973 -0.07707508 -0.29305997 -0.10049083 0.34872532
1103 -0.4803286 -0.049250443 0.3865857 0.1087674 0.07571892 -0.53334254 -0.53803396 0.11992951 0.026728142 0.8400589 0.053969275 0.28771368 0.040035084 0.29936674 0.23404667 0.45085236 0.007546874 -0.100199364 -0.29916254 0.7254395 0.22723828 0.7478394 -0.17080322 -0.3233643 0.35451826 0.53627414 0.20307143 0.0469168 0.68919325 -0.62556803 0.408642 0.45810094
1136 -0.12582381 -0.7412424 0.12865588 0.041891422 0.052229423 -0.80631405 0.2310512 0.064905934 -0.018075168 0.28534818 0.32949182 -0.13507624 -0.04589165 0.24618566 -0.73378766 0.45896092 0.02720951 0.34868482 -0.22598523 0.11438057 0.01853377 0.19985136 0.34963584 -0.2644583 0.29095492 -0.115903065 -0.29097742 -0.010004407 0.1244579 -0.22877608 0.27537644 -0.033772603
1140 -0.010975804 -0.25690588 -0.037175756 0.0044833496 0.37145126 -0.6684143 0.08029238 -0.059621867 -0.08197227 -0.5301484 0.30199575 -0.241474 -0.1970023 0.15444583 0.24024168 -0.015122894 -0.1993093 -0.29077542 -0.76949537 0.54398644 0.36458892 -0.015613994 0.77454454 -0.057306983 0.13864268 0.2961469 -0.03775059 0.06967654 -0.14167275 -0.38736674 0.52634364 0.0029698687
1112 -0.08579574 -0.013176304 -0.49039763 -0.5557668 0.22856055 0.35378292 -0.15898806 -0.20426603 -0.34627667 -0.035416745 0.333195 -0.3151253 0.0774535 0.083373904 0.31370774 0.57367367 0.4803263 0.25052246 0.40825695 -0.13532597 -0.39435783 0.91421264 0.50584984 -0.44337413 0.107897446 0.011312738 -0.13883328 0.53680575 -0.5062145 0.02391802 0.48051196 -0.20278156
1433 0.17430496 -0.039419234 -0.23934172 -0.28402123 0.15116318 -0.25601384 0.12193001 -0.22958781 -0.23051597 0.30463883 0.11429866 -0.25392744 0.28043827 -0.2394421 -0.20333073 -0.3027292 0.5611591 0.20138149 0.4632493 0.16496758 0.56613255 0.3892098 0.4559996 -0.6529416 0.19020116 0.21581371 -0.17963018 0.05258399 -0.13716076 -0.33953965 0.23955157 0.44379362
1224 -0.09890435 -0.20861201 -0.26360098 0.18755226 0.008634551 -0.11483892 0.08173738 -0.35020685 -0.28913265 -0.0072000455 0.17865884 0.27310282 0.20162761 0.011781333 0.067478426 -0.12673007 0.49521694 -0.060559716 0.24704105 0.010866914 0.24473189 0.053266887 0.5908307 -0.09888832 -0.11176374 0.2626369 -0.67985994 0.10475844 0.0830803 -0.4682072 0.3962765 -0.09093469
1584 0.14152797 -0.6283865 -0.2607383 0.048426233 -0.35497275 -0.06932291 0.61460406 0.1130495 -0.26062712 0.13850977 0.29678476 0.16695012 0.061960123 -0.18335992 -0.05468227 0.19573943 -0.43035078 0.16104302 0.4461192 -0.018137572 0.2989088 0.181849 0.4734895 -0.19234015 0.07775241 -0.15783384 -0.25584966 0.5151147 0.3255654 -0.1843535 0.14518352 0.09316232
1040 -0.24165043 -0.08443291 0.22215016 -0.034542643 0.556382 0.053250544 -0.18058833 0.14671174 -0.0671711 -0.28279737 0.7257152 -0.5492057 0.39372194 -0.40469754 0.052961756 0.34500316 -0.26388538 -0.08484605 0.03905004 -0.47377345 0.26156995 0.39222777 -0.23218696 -0.14005676 -0.33060077 0.4026003 0.19176233 0.8399754 0.13099176 -0.098337576 0.24650395 -0.01173349
1074 -0.25792396 -0.4943413 0.062343504 0.060735807 -0.31626928 0.011334836 0.23171218 0.33714885 -0.3284323 0.039314706 0.23715334 0.053260207 0.2729986 -0.51362836 0.08452756 0.10467629 0.19213894 -0.39543936 0.477662 0.18872002 -0.24507959 0.38792917 0.33362353 -0.043249723 -0.2441007 0.16649199 -0.42748573 -0.003029213 -0.044883683 -0.6418367 0.45287272 -0.24873091
1011 -0.30164778 -0.25896722 -0.2335721 0.23189656 0.21630281 -0.13975602 -0.28184727 0.24629685 -0.19451028 0.102336176 0.31922603 -0.60389495 0.32094142 -0.1552881 0.28366423 0.051078957 -0.4509613 0.27756166 0.2418482 0.39901704 -0.066500545 0.24376592 -0.34424835 -0.5473869 -0.7922748 0.47923073 -0.43820238 0.015615223 0.3277318 -0.2181576 0.3295222 0.06558876
1002 0.35916585 -0.51507497 -0.4593178 0.24984252 0.0046161786 -0.37474406 -0.26976103 -0.064669356 -0.35292062 -0.33335674 0.5430631 -0.25695708 0.08996863 0.13451165 0.14367154 0.22658792 0.071758986 0.14488584 0.8870864 0.21889304 -0.031214265 0.6056695 -0.09241044 -0.34538832 0.14401975 0.14698307 -0.5405637 -0.11960477 -0.13890976 -0.09035293 0.1465467 -0.058333505
1570 -0.08501164 -0.28537604 -0.18684784 0.33177167 -0.2144824 0.29144868 0.20145147 -0.595888 -0.46716133 -0.021104753 0.5431844 0.15066414 -0.38269672 -0.56549233 0.44128308 0.24701032 -0.067683384 -0.03609641 0.24499002 0.42611325 0.31980821 -0.3514738 0.057184584 -0.6831478 0.45480946 -0.43666834 -0.37004247 0.3574409 0.02104001 -0.75950176 0.0028543787 0.10044728
1523 -0.4817498 -0.83847326 -0.36310193 -0.039198756 0.18816608 -0.15373155 -0.023431234 -0.3000104 -0.042526327 -0.27020666 0.551213 0.32117638 -0.24663252 -0.06738531 -0.10497758 0.19746506 -0.15656283 0.43513545 0.40868175 0.26605907 -0.25555196 0.5894341 -0.08008014 -0.49111873 0.05243129 -0.094882324 -0.20055537 0.09763321 0.49041045 -0.1314953 0.0796979 -0.42840806
1769 -0.009194246 -0.123586945 -0.031053139 -0.18257557 0.23808736 -0.55973023 0.23115942 0.05101444 -0.15260807 -0.35701278 -0.04346552 -0.061284162 0.049249236 -0.33018914 -0.1862171 0.2031856 -0.0756963 0.72615486 -0.64435047 0.33856142 0.5889409 0.06274957 0.5051502 -0.52424055 0.26473582 0.14593773 -0.18971942 -0.09225729 0.20230001 -0.3907035 0.11757632 -0.10903004
1089 -0.0037595774 -0.51054007 0.21710834 0.2766004 0.14354357 -0.4692312 0.17340782 -0.17302935 -0.16564137 -0.054487396 0.070728414 -0.2070669 0.32029277 -0.102187686 0.039641045 -0.19984074 0.38015756 -0.13334918 0.29275158 -0.32323802 -0.112280875 0.10540696 0.6825095 0.1049023 0.23723993 0.29365808 -0.722316 0.14664239 0.029367952 -0.41802755 0.45727098 -0.09872503
1340 0.5135152 -0.36667186 -0.097117126 -0.04329321 0.02751484 -0.21445858 0.13439366 -0.4203298 -0.04748542 0.5111884 0.29386812 -0.15867391 0.010092203 -0.61035234 0.056508306 0.1962638 -0.079309516 0.090872265 -0.012955581 0.38455534 0.7076142 0.24469341 0.6390845 -0.35518074 -0.19928353 -0.10803243 0.057728633 0.21092351 -0.12068494 0.26571548 0.10400662 0.37009087
1050 0.33555385 -0.6491228 -0.111523196 -0.14283794 -0.21359994 -0.24486735 -0.71227825 -0.16174717 -0.6382555 0.4379103 0.37707126 -0.40347856 -0.3521451 -0.27402547 0.12831388 0.86213875 0.4100855 0.41809607 0.4422844 0.26471546 0.63183767 0.013223971 0.661967 0.39253065 -0.2227799 0.05558208 -0.009347637 0.122182764 0.21551766 0.02911454 -0.075217955 0.27336097
1326 -0.037768897 -0.69180286 -0.21925782 0.14462936 -0.23849349 -0.09670567 0.4127006 0.225714 -0.59829015 0.1855506 5.634686e-05 -0.02936073 0.20951238 0.06359188 0.19482532 0.06050357 -0.06695112 -0.5085198 -0.013366047 -0.02021182 0.1628776 0.7026697 0.16537392 -0.025534647 -0.1422298 0.44704723 -0.16371661 0.25485778 -0.33075467 -0.5881502 -0.019038938 -0.03897604
1126 -0.12183802 -0.44106767 0.44937733 0.08214365 0.2489717 -1.0868502 -0.09853062 0.1913071 0.13717583 0.005424874 0.18673846 0.23802698 -0.4126582 -0.14108337 0.0032688589 0.21843909 -0.11498399 0.02364594 -0.33016464 0.43759686 0.23868749 0.2453048 0.36862037 -0.42356902 0.11206477 0.34358293 0.5603959 0.1382574 0.242886 -0.17758514 0.6857015 -0.11685766
1035 -0.028562991 -0.45230472 0.38900036 -0.10374669 0.25883007 -1.0481596 0.1085638 -0.015087151 0.13714835 0.08814152 -0.06310719 0.16975117 -0.38815793 0.059824273 0.20282383 0.5669069 -0.0024941117 0.07662864 -0.34155723 0.44790506 -0.03768464 0.47067025 0.33497462 -0.43105254 0.4263264 0.5079671 0.3944098 -0.0913507 0.2532943 -0.23259978 0.47709733 0.06834804
1137 -0.026685273 -0.6637331 -0.119019754 0.4476865 -0.36234322 0.8135533 0.10004704 -0.31190014 -0.13861135 -0.44543064 0.8734865 -0.09818906 -0.29186976 -0.6208464 0.28716597 0.6765582 0.0012188454 -0.015873464 0.016204756 0.21965902 -0.23676479 -0.2117157 0.0972535 -0.66467077 0.6491276 -0.29570204 0.1293684 0.37960896 0.011761838 -0.93224764 0.37085763 -0.1922347
1390 0.28663576 0.34251598 0.2698499 0.03782936 0.23225497 -0.92737526 -0.23149675 -0.1085821 -0.7340675 -0.7590929 0.48620185 0.26078656 -0.027113238 -0.23406346 -0.16121188 0.43215147 -0.5151988 -0.28106186 -0.43899673 0.2675266 0.13425761 0.107481316 0.6880788 -0.1313868 -0.33591264 0.4924053 0.40084818 0.36627454 -0.26398537 -0.5232715 0.7316226 -0.059058074
1101 0.13998787 -0.37313682 0.10003327 -0.21445398 -0.4590507 -0.021527568 0.3005297 -0.14853144 -0.5027973 0.08599556 0.22246255 -0.32590616 -0.054353144 0.11858622 -0.1047448 0.61491203 -0.08200701 0.08398709 -0.3712797 -0.2363097 0.47065803 0.6497137 0.3967697 -0.081189595 -0.009003682 0.17731956 -0.17975757 -0.18444578 0.08568864 -0.33454764 0.16689721 0.095957614
1328 0.001631542 -0.6232247 0.6555422 0.20872536 0.1616302 -0.0041460916 0.088439874 0.055391375 -0.1432127 -0.17600569 -0.24737793 -0.2907273 0.28462195 -0.56680715 -0.093607 0.47221988 -0.08841095 -0.28682572 0.6426788 0.18654013 -0.07166204 0.2057242 0.16078892 0.1412197 -0.11396408 -0.028439255 -0.4212288 -0.19709054 -0.3852827 -0.9254072 0.21126717 -0.1456247
1449 -0.58956844 -0.55899054 0.25174987 0.40086988 0.58941436 0.35848695 -0.22910024 -0.047134053 -0.5226793 -0.15017983 0.024077605 0.036072385 -0.3088948 0.21434572 -0.06484616 -0.040569127 0.12168188 -0.20127197 0.098211266 -0.32021672 0.20540908 0.35043666 0.08201429 -0.12695229 -0.41505927 0.3594122 -0.4674252 0.53131706 0.41843158 -0.36919305 0.2247633 0.29681897
1056 -0.0617163 -0.84760576 0.47512156 -0.04194345 0.07845827 -0.5199433 -0.065300666 0.079310365 -0.28776854 0.034355752 0.111240216 0.09986995 -0.5590023 -0.19869567 -0.004939561 -0.033069987 0.26779544 -0.20862132 0.4076997 -0.3075229 0.16625185 0.38276428 0.08139823 0.020470623 -0.12495744 0.36446255 -0.120426804 0.24510132 0.5705293 -0.5740616 0.282178 -0.0063317064
1412 0.24010374 -0.5055255 -0.03960811 -0.13003968 -0.39176673 -0.10871097 0.19739668 -0.145542 -0.56616414 0.49414468 0.24481021 -0.41560835 -0.24797781 -0.15985459 0.0139702605 0.5400996 -0.22652462 0.12531751 -0.14114657 0.21980657 0.85534096 0.17068464 0.79259926 -0.03841583 -0.2125272 0.054135874 -0.15465622 0.10462038 0.14524435 0.24540335 0.16763243 0.4013173
1159 -0.10837053 0.34540075 0.3336042 0.03852228 0.1262641 -0.72535473 0.051691994 -0.12876403 -0.43674606 -0.21975721 0.46482933 0.21144071 0.1340869 -0.18742982 0.0027428593 0.2684488 -0.449044 -0.301101 -0.0062395968 0.3695586 0.4600295 0.07416074 0.47665665 0.09109485 -0.40081465 0.5293054 0.19223234 0.21294259 -0.4742934 -0.59637755 0.46529135 -0.53000164
1264 0.17176585 -0.2974587 -0.21413226 0.24773848 0.15141787 0.15040094 -0.32798976 -0.40163028 -0.19531585 0.20717344 0.370596 -0.006261514 0.012748512 -0.06043589 0.41077495 0.6633502 0.6368187 0.21481588 0.55980086 -0.23129144 0.3065606 0.49729982 0.029834403 0.3684436 -0.04321169 0.48016438 -0.12534449 0.4612506 -0.0017222731 -0.15104492 0.6841935 -0.5698862
1282 -0.21864137 -0.24977095 -0.3093433 -0.17925479 0.018174011 0.19803195 -0.63188624 -0.35588887 -0.2718111 0.2466579 0.3266534 -0.054477286 -0.25213292 0.06549028 0.4713511 0.6290085 0.054074764 0.5562096 0.48356423 0.09029266 0.14088131 0.6376995 0.36044547 0.20655939 0.18137383 0.39641747 -0.37583295 -0.1312338 -0.19830151 -0.08393887 0.756559 -0.4183203
1780 0.027561853 -0.1044663 -0.26182997 0.10333956 -0.044509947 -0.6966796 0.09672582 0.20931661 -0.4931013 -0.12121846 0.43444473 -0.08358826 -0.039852805 -0.18456297 -0.09889844 0.3513684 0.27420536 -0.2510098 -0.2218366 0.63639617 0.2567692 0.14869004 0.3953711 -0.32940936 -0.5500001 0.040334895 0.2086952 0.13098724 -0.27261546 -0.030450683 0.8320126 -0.04803193
1093 -0.02584874 0.19534615 0.23566917 0.31518587 -0.09954531 -0.70022184 0.13852364 -0.03380481 0.11338138 -0.5045752 0.44187114 0.25343618 0.05280346 -0.27435195 -0.0024273526 -0.059576817 -0.1256778 0.10123856 -0.12923871 -0.015764024 0.36975032 0.51275337 0.66783136 -0.32245666 -0.20762964 0.012783769 0.010829577 0.42641792 0.18290898 -0.21523885 0.50164276 0.86952627
1134 -0.2056483 -0.38556135 0.2969328 -0.0098257745 -0.07314287 -0.42258236 0.33981484 0.07290404 -0.46572906 0.17023472 0.4452014 -0.35935068 -0.042813554 0.013529904 -0.05560043 0.0681917 -0.045253452 -0.11277239 -0.12315069 -0.60846794 0.5663965 -0.021195084 0.40745118 -0.4749897 0.09874931 0.1746334 0.33733132 0.3934272 -0.36777434 -0.19877812 0.5944719 0.19043794
1545 0.115211844 -1.093453 0.48223633 0.024896536 0.17773199 0.34194788 -0.6100148 0.08139559 -0.009519718 -0.21930963 0.25093678 -0.010281394 0.9913246 -0.2275237 0.77436393 -0.2955727 -0.038154814 -0.15000814 -0.027564498 0.26677668 0.5928243 0.49382576 0.13915648 -0.30117276 0.2274504 0.04130165 0.15448228 0.19920243 -0.18704653 0.16086957 0.06056499 -0.3045011
1443 0.08737516 -0.7283062 0.15822883 -0.05010428 -0.04239158 0.3635583 0.119599745 0.010273225 -0.22738414 0.05437114 0.40729272 0.13923115 -0.06882358 -0.4251114 -0.033612464 -0.44721764 0.05896876 0.5216883 0.32265428 0.14897414 -0.032641016 0.5305986 -0.14366165 -0.029001635 -0.2751896 0.59338564 -0.2964049 0.62450486 0.52865463 -0.68181974 0.16928439 -0.37570938
1396 0.4326625 -0.15587649 0.23480338 -0.41639546 0.96289635 0.7666575 0.19862475 -0.23809792 -0.33689335 -0.040944614 0.8801707 -0.047571752 0.3366141 -0.088324256 0.41491112 0.7816325 0.44345012 -0.20947044 -0.26436248 0.28747478 0.39309737 0.76117593 -0.3550882 -0.9086417 -0.6725885 0.17869326 -0.4910262 -0.262993 0.10114103 0.18571198 0.05790412 -0.020577943
1217 -0.018861987 0.07953923 0.22323725 0.08107661 0.0985637 -1.2724215 0.018942539 -0.50802135 -0.63087744 -0.74083894 0.6084344 0.14006354 0.2086692 -0.15554841 0.031521957 0.3125257 -0.4881927 -0.15757215 -0.40493143 0.3543693 -0.15876408 0.12283566 0.47789505 -0.1756319 -0.24370788 0.46021637 0.16044815 0.088571675 -0.19988267 -0.21647735 0.30279088 -0.14585729
1001 -0.35140294 -0.09791696 0.11221118 -0.10438045 0.5117423 -0.29891422 0.47087124 0.17386968 0.28130952 0.23953153 0.3813049 -0.45299363 -0.2032071 -0.111826785 -0.11942441 0.42055392 -0.10110159 0.5307157 -0.3155744 0.28032717 0.34983048 -0.016538844 0.88936365 -0.43270534 -0.060847007 0.076996654 -0.10577115 0.10895869 0.08742388 -0.19338216 0.14469057 0.16473734
1128 -0.013619914 -0.38391423 -0.40652972 -0.05146306 0.055113107 0.028960641 -0.43960026 0.64704365 -0.050925367 0.14301723 0.28525126 0.4425584 0.29869565 0.16133004 0.2902078 0.54601175 -0.3479332 -0.3537673 0.19812334 0.038289934 0.41117182 0.124835715 0.116938934 -0.34546804 0.10894296 0.075851314 -0.89956915 0.766774 -0.17311364 -0.27317545 0.015910396 -0.17644164
1471 -0.3309283 -0.5073901 0.1023468 -0.35557356 0.48466027 -0.9325567 0.19869101 0.020253113 -0.14678411 0.21068402 0.022951568 0.49284863 -0.42608538 -0.28025296 -0.034960873 0.555812 0.0684964 0.06888109 -0.06116231 0.21565501 0.28564268 0.30918482 0.21856935 -0.37641868 0.19053736 0.17792246 0.39205036 -0.12698117 0.48190507 -0.3173693 0.31642756 0.025377259
1235 0.31877425 0.17819156 0.28076527 -0.4026919 0.036435895 -0.89183956 0.10702443 -0.12047369 -0.6435279 -0.39526328 0.61549777 0.015723785 -0.06524497 -0.31315038 0.04094181 0.6117296 -0.3612491 -0.015156041 -0.6560731 -0.12718421 0.30061156 0.5599704 0.41459736 0.0026692755 -0.11845743 0.5980748 0.5008311 -0.18076342 0.18783559 -0.5494576 0.23851173 -0.26773366
1071 0.14596717 -0.4800512 0.23211907 0.06090893 -0.2149218 0.0060732155 -0.82742137 -0.13433503 -0.23129444 -0.21145025 0.53450054 -0.27135357 0.20214272 -0.3041541 0.46355838 0.79191405 0.23922299 0.607543 0.5368339 0.4128457 0.37840098 -0.23032881 0.9670616 -0.07076663 -0.17658877 0.051114403 -0.018340236 -0.5966278 0.14999045 -0.17349778 -0.3580318 -0.19795135
1027 -0.014096887 -0.3886463 -0.08307058 -0.116844885 0.17652318 -0.2574392 -0.10040111 -0.34768093 -0.11125381 -0.3735373 0.47790766 0.2538348 0.011736111 -0.31986305 -0.8765078 0.17710376 0.12531321 1.232417 -0.32636565 -0.027630284 -0.096900746 0.30798915 0.18878648 -0.822009 -0.082696214 0.23083884 -0.50535625 0.20379767 0.24501021 -0.2991557 -0.1991746 -0.40723097
1065 0.70239735 0.059495863 0.33144224 -0.1796217 0.19401824 -1.0688289 0.11141427 -0.22065556 -0.7577165 -0.027101625 0.17983514 0.48842293 0.18990521 -0.8757041 -0.060973816 0.31808922 -0.26278707 0.011680564 -0.5563278 0.5308122 -0.08726436 -0.15803283 0.6848626 -0.35909536 -0.42306793 0.928653 0.3316223 0.086228 -0.52891165 -0.58077633 0.6674668 0.087409765
1845 0.21617386 -0.45080122 0.2217014 -0.22844614 0.3665413 -0.022245105 0.17161141 -0.11057893 -0.009565885 0.016625622 0.027575634 -0.32098964 0.4307736 0.1816851 -0.48377934 0.76334226 0.3813997 -0.4299536 -0.18472393 -0.0085008275 -0.37192217 0.5414716 -0.17914818 -0.32910162 0.32657555 -0.20007603 -1.2015785 0.18850051 0.5251245 -0.61392385 0.47638446 -0.29555824
1419 -0.13115577 -0.70925725 0.32747358 -0.1525477 -0.12638666 -0.5175797 0.45254284 -0.1391695 0.123014614 -0.33577704 0.05740922 -0.07217479 -0.08033897 0.13777499 0.3422449 0.26478082 0.11561534 0.18477252 0.24634896 0.41389373 0.29290962 -0.004944857 0.662569 -0.5607841 0.15719597 0.537721 0.22739589 0.0063548987 0.54625857 0.005542727 0.02579179 0.22376044
1033 -0.053761743 0.1228486 0.09537194 -0.2733494 -0.16394055 -0.61277413 0.45206136 0.010624378 -0.8300971 -0.33560073 0.44614586 0.19826685 -0.15676391 -0.10321447 -0.03663905 0.1283614 -0.25250387 -0.12513143 -0.241117 0.3716636 0.5403457 0.36760563 0.5515527 -0.20994696 -0.45852807 0.45513842 0.49619114 0.3611805 -0.3453976 -0.59060556 -0.027081572 0.095363006
1305 -0.07932419 0.59176326 0.32604134 -0.19460987 0.2581978 -0.88465935 0.15889691 -0.088542 -0.5207605 -0.5801666 0.23358078 0.15130386 -0.2481099 -0.4159033 -0.44688943 0.34157798 -0.60354227 -0.39980572 0.09376728 0.6195053 0.6743494 0.22977056 0.67567694 -0.14063343 -0.4180185 0.4436389 0.13459606 0.51530594 -0.00928109 -0.3832738 0.64955896 -0.27376446
1205 -1.1320821 -1.4081265 -0.13689569 -0.09267283 0.7251555 -0.5989392 -0.8009394 -1.1689191 -1.11211 0.2566595 -0.97666705 0.00054069364 0.853171 0.96501017 -0.12679374 1.0334318 -0.49446055 0.73600686 -1.0777562 0.47219536 0.23113452 0.02151031 1.7256931 -0.8746362 -0.36409038 -0.7863513 0.63208896 0.7657462 -0.35256478 -1.7900167 0.7717526 0.9445149
1060 0.07049037 -1.231504 -0.28653866 0.06717805 0.12049695 0.027732141 0.07138086 0.121100634 -0.032580744 0.07198008 0.03740058 0.042499244 0.6836893 0.3574126 0.38330793 0.25240445 -0.20312245 -0.17225523 0.22975057 -0.0030492814 0.37484524 0.33974674 -0.19444269 -0.14389376 -0.09120183 0.703042 0.06804358 0.7857893 -0.118174344 -0.27809653 -0.16287892 -0.4963734
1010 -0.230271 -0.28352395 -0.0044506355 0.14832474 0.27503794 -0.1303236 0.20854777 0.15597591 -0.41213006 -0.23328783 0.1863377 -0.04040348 0.87628555 0.09066236 0.80007535 -0.12297858 -0.1396724 -0.24042535 -0.070099354 -0.05198239 0.3962251 -0.4515774 0.6106095 -0.16195193 0.13140172 0.17050439 -0.64362484 -0.026650183 0.42787018 -0.15367898 0.71222144 -0.55942076
1272 0.05138878 -0.019437727 0.21319743 -0.19550417 -0.041564222 -0.8513916 -0.062269416 -0.2479311 0.033096135 -0.67187166 0.48329136 -0.17206217 0.15083419 -0.14260584 0.033456523 -0.074866764 -0.1923869 -0.00580228 -0.32987174 0.25147778 0.06897729 0.4115973 0.5838107 -0.24312143 -0.036920927 -0.023651542 -0.08515581 0.24696405 0.3526318 -0.08318194 0.5405053 0.7726957
1222 0.10235246 -0.21247795 0.03219027 0.24138251 -0.14068392 0.13397251 -0.6445656 0.06679964 0.12624142 -0.09752179 0.4046395 0.12774734 0.67914355 -0.21209395 0.23245993 0.1883539 -0.0012418015 0.3556575 0.7019433 0.07048296 0.16348785 0.4073629 0.7442066 -0.34356412 -0.2016426 0.46806708 -0.20341055 -0.72455883 0.16561458 -0.6073 -0.10655561 0.029138518
1214 -0.033552274 -0.41869622 0.12289714 0.40027982 0.21278441 0.079271086 -0.5475029 0.47616097 -0.10103372 -0.32612294 0.45165262 0.2690526 0.3431815 0.7517917 0.06949041 0.6501648 -0.33908924 -0.026356477 0.4817972 -0.00977985 0.4698649 0.37555096 -0.35667843 -0.569844 -0.12782905 0.09683421 -0.69902784 0.8375206 -0.11278234 -0.25443855 -0.11717 -0.5146969
1370 0.48539543 -0.46332365 0.36750382 0.044603802 0.8564634 0.6681736 -0.032338988 -0.4861428 0.019011442 -0.26843387 0.245967 0.031050185 0.2814765 0.3220578 0.7122764 0.4471448 -0.2340024 -0.18185495 0.30635896 -0.007285236 0.26003218 0.51570594 0.15616448 0.48732883 0.04901541 0.4305951 0.13049744 1.1915607 0.5924533 -0.6391499 -0.07754766 0.337063
1073 -0.17298627 -0.626117 0.091311164 -0.16426468 0.31525227 -0.8582055 0.31017423 -0.19933334 0.2815536 -0.110894084 -0.051544495 0.12942398 -0.27243063 -0.11477168 0.14212826 0.6593213 -0.06101662 0.09259632 -0.20151812 0.104287595 0.13278711 0.3975391 0.23951821 -0.5849637 0.23770401 0.33144218 0.38495314 -0.033274606 0.3304772 -0.01293288 0.54177225 -0.27934992
1439 0.18703285 -0.22916834 -0.374845 0.26038665 0.24842314 0.0062194313 -0.26670054 0.24164097 -0.100096755 -0.15635453 0.19811077 0.3794734 0.751695 -0.049289532 0.22989778 -0.35770684 0.16979586 0.020386076 0.10673077 0.52044237 0.6228343 -0.13957818 1.10554 -0.268987 0.4281156 0.37900913 -0.35370126 -0.22769983 0.68269587 -0.29657772 0.12982883 -0.09192797
1142 0.34291336 -0.7932913 -0.07061611 0.29807156 0.9574244 0.6606275 -0.119539864 0.50566006 0.28235137 -0.10299026 0.718697 -0.075793505 0.0199118 0.6199409 -0.15790439 0.67009 -0.023490483 -0.50570095 0.29322734 0.08582646 0.40378824 0.0805752 -0.034597773 -0.5082142 0.27506715 0.14611994 -0.06169291 0.8394692 -0.19953728 -0.6761391 -0.12392825 0.059030175
1158 0.0073639504 -0.22627236 0.25083682 -0.46005234 0.09416776 -0.33196646 0.45486605 -0.26534414 -0.115625836 0.12779127 0.082459085 -0.49408245 -0.018716434 -0.37027547 -0.09839693 0.14408252 -0.30203635 0.21342087 -0.31997374 0.1954926 0.53809124 0.11122959 0.75390804 -0.645995 0.3258596 0.5249841 -0.1832229 0.12998134 0.06830321 0.040551655 -0.16605964 0.042866107
1488 -0.3697065 -0.8679429 0.5085692 -0.017694438 -0.044363447 -0.08667553 0.30815503 0.0021633585 -0.21226965 0.18718481 0.6294999 0.10256438 -0.10967166 -0.050535608 0.21291971 -0.31898266 0.23319516 0.1342533 0.2307894 -0.31879914 -0.24071653 0.32253364 0.3277918 0.02811767 0.07003437 0.7768607 -0.46711713 0.03191408 0.046454422 -0.56189775 0.36022502 -0.18005297
1003 -0.4823003 -0.6526245 -0.33741552 0.21079548 0.004518955 0.21358879 0.2527654 -0.23476598 -0.33963597 -0.56131226 0.45940846 0.030510932 0.41007137 -0.22043057 0.21199517 0.3863563 -0.0693746 -0.13349666 0.40625092 -0.04465332 -0.22981311 0.027483307 0.43072855 -0.039447855 0.47902521 -0.08201163 -0.7263952 -0.23977995 0.41519082 -0.34841105 0.52952194 -0.33061057
1640 0.062801264 0.16423015 0.1456594 -0.11774664 0.46361864 -0.91797125 -0.07581193 -0.11228897 -0.6943792 -0.54874754 0.77375644 -0.15859567 -0.058436044 -0.21032995 -0.09945809 0.21371831 -0.734469 -0.27686843 -0.5719705 0.33679414 0.03648331 0.2468583 0.4619101 -0.019594947 -0.1932636 0.2914867 0.39212582 0.40039784 -0.096031025 -0.29001287 0.3863555 -0.10713379
1774 -0.42963693 -0.3345793 0.037233714 0.08404138 0.030767024 0.0965969 -0.02014242 0.035022773 0.13399865 -0.16991104 0.2117024 -0.58735424 0.13077247 -0.47463527 -0.10010379 -0.12196086 0.42623737 0.17864205 0.13758554 0.09379783 0.39579645 0.54397666 0.8446785 -0.56964916 0.07220788 0.11207638 0.08529257 0.03712171 -0.104302466 0.1560999 0.59413326 -0.17161071
1163 -0.27642125 -0.76278645 0.021726737 0.0469301 -0.15321146 0.004069749 0.17299041 0.017580172 -0.17028818 0.16634999 0.17176019 0.41610393 0.2860849 0.07575919 0.07653377 -0.075155385 0.31352568 -0.073939264 0.53138095 -0.18884279 -0.19457038 0.33702558 0.5304557 -0.040430456 -0.30869186 0.35713288 -0.5459632 -0.07196842 -0.1595289 -0.7015741 0.4799081 0.24900562
1259 -0.25005147 -0.5646592 0.09376677 -0.5672653 0.6155634 -0.10739697 0.086051896 -0.7041272 0.2546029 0.22503567 0.3861951 0.3668145 0.5664816 0.08285244 0.049112227 0.56073314 0.3459211 0.058435366 0.21261884 -0.44374734 0.47095212 -0.060882714 -0.35520616 -0.5989099 -0.5210467 0.3251234 -0.36457592 0.19679472 -0.058251463 -0.48792073 0.2940209 -0.2494264
1562 0.21602373 0.026615227 0.124164194 0.16085121 0.09090272 -0.63254327 0.48504493 -0.09740919 -0.72316444 -0.08366903 0.12397281 -0.26570714 -0.08761337 0.12430359 0.28761345 0.49431965 -0.1463015 0.025262909 0.03733364 -0.006737361 0.9481073 0.08085918 0.24809538 -0.60779524 0.22649047 0.19334325 0.12765636 -0.06409303 0.22554845 0.2550466 0.70442134 0.074862555
1114 0.59671575 0.03399996 0.46751103 0.08427534 0.5488522 -0.33079475 -0.04365404 0.10927915 -0.9904245 -0.5553505 0.0475345 0.45870483 0.22193357 -0.45175493 -0.68862796 0.45753226 -0.6298767 0.005782222 -0.20670141 0.60164535 0.3239924 -0.40819943 0.436538 -0.41391638 -0.32411477 0.78999335 0.06746758 -0.187269 -0.31838217 -0.48277888 1.0591583 0.39670306
1194 -0.19325078 0.059565183 -0.3348599 0.31065378 -0.21831548 -0.31631452 0.16293624 0.10733211 -0.2788958 -0.18035036 -0.0970101 -0.1950906 0.6658719 -0.10067332 0.47486618 0.4668865 -0.0843711 0.08526385 0.30386928 0.081967995 0.43355057 0.84998053 -0.28420594 -0.1345989 0.23754981 0.1345571 -0.2606988 0.5211473 0.25811794 -0.53528804 -0.079187945 -0.16844814
1349 -0.11461494 -0.4153687 0.2504697 -0.16289315 -0.12322917 0.16211914 -0.15922175 -0.7096578 0.09747358 -0.6821444 -0.050841294 -0.16710272 -0.06585771 0.39847165 0.5514969 0.07072063 0.014226695 -0.051539242 0.27517503 0.41937217 0.46603638 0.6022224 0.7025035 0.09902885 0.20514336 0.22967309 -0.4156531 0.078942046 -0.20642985 -0.50006115 -0.20333828 0.5688958
1042 -1.0441614 -1.3868376 0.39180112 -0.4015813 0.7239828 -0.8070505 -0.77834004 -1.0533588 -1.3906168 0.31382355 -1.4226347 -0.21979281 1.1427335 1.5696394 -0.13707705 1.0983714 -0.5639893 1.0382948 -0.5651152 0.6894912 0.27946046 -0.006844774 1.7767752 -1.0047138 -0.5110852 -0.798895 0.3647255 1.2720654 -0.2804409 -2.0987797 0.96955895 0.74826336
1021 0.02184036 -0.679907 -0.16459931 -0.19134755 -0.059758663 -0.5027537 -0.58960956 -0.07446745 -0.46279997 0.7769834 0.28353053 -0.639119 -0.45412937 -0.2954417 -0.36386582 0.8371921 0.2534773 0.49813733 -0.03921298 0.36073494 0.57886606 -0.07046719 0.46598652 0.040236432 0.14352259 -0.009260028 -0.24739629 0.12853357 -0.16034873 0.1222439 0.48504233 0.5017423
1358 0.0005838761 0.026076302 0.5030982 0.16070175 0.12759891 0.019405166 0.48827383 -0.45939666 0.35491195 0.5834991 0.44676778 -0.23805907 0.19630326 -0.26662165 0.19890465 0.5106425 0.11437766 0.36374688 -0.3128934 0.22873893 0.7118786 -0.088656455 0.69122434 -0.5104537 -0.26538712 0.2039033 -0.2770455 0.1948192 -0.13609396 0.40170228 0.72071 0.027224971
1086 -0.8921088 -1.451244 0.5025444 -0.48358187 0.58622915 -0.92994916 -0.8699358 -1.1833757 -1.2040174 0.32184008 -1.4179975 -0.1883439 1.1846645 1.4124671 -0.20643716 1.2578939 -0.5877019 0.5975288 -0.6810131 0.7791166 0.056590125 -0.0414388 1.8246907 -1.18517 -0.601588 -0.9205059 0.30952665 1.1408808 -0.2405969 -2.0354795 0.8864397 0.6584851
1210 -1.3135817 -1.4043453 0.2701939 -0.20457177 0.733238 -0.72348213 -1.0555912 -1.2964219 -1.4249729 0.47705245 -1.0266819 -0.28197712 1.1187723 1.48608 -0.5156483 0.7769149 -0.88952076 0.6769526 -0.62592566 0.8174982 0.6165088 0.025289191 1.8268529 -1.2690953 -0.3533031 -0.8331556 0.3100019 0.81265295 -0.45434457 -1.6019988 0.7494833 0.71981686
1245 0.16379657 -0.5641967 1.0313967 -0.24403983 0.0618705 -0.3989971 -0.17700973 0.28373197 -0.3541143 -0.10964646 -0.19529471 0.027560301 0.101047054 -0.6871205 -0.047496233 0.19317472 -0.16869913 -0.65264845 0.16344945 -0.11664805 -0.07726519 0.38481826 0.086764105 -0.34301692 -0.21567528 -0.25526726 -0.66714156 -0.02476905 0.30070785 -0.8077896 0.0011777038 0.0413394
1226 -1.041296 -0.63173616 0.28101888 0.6447772 1.0856634 0.30821642 -1.5232444 -1.102814 -0.61080474 0.66892326 -0.29984608 -0.48547405 -0.06827094 -0.16308352 0.07581624 -0.015871262 -0.60706776 0.11345805 -0.039177734 0.16139804 0.641383 0.08241945 0.2550179 -0.43277913 -0.17241193 -0.32746613 -0.33362633 0.97532153 0.69986874 -0.65362334 0.43065995 0.35685694
1376 -0.22307979 -0.41996598 0.22497196 -0.14885207 0.78359413 -0.040434875 -0.292068 -1.0330106 0.10811136 0.20498097 0.6192279 0.16440924 1.2573422 -0.3424929 0.38619548 0.6945271 -0.011822449 -0.091796584 -0.08961434 -0.1584076 0.583233 -0.2208962 -0.31234396 0.15242048 -0.038695708 0.49622157 0.10318258 1.2940487 0.2885601 -0.58725506 -0.1923168 -0.0016722082
1187 0.27667636 -0.11635747 0.90172815 -0.041467436 0.33916232 0.5475017 0.35161567 -0.07432005 0.33723658 0.64550126 0.6094971 -0.2570714 0.9066067 -0.04935373 0.19570072 0.7859651 0.18386057 0.21102981 0.00502964 1.0016289 -0.394251 0.59098625 0.5112901 -0.35642025 -0.28578815 -0.38517645 -0.1479707 0.57518 0.4713765 0.3430333 1.0997286 -0.20912254
1215 -0.005528193 -0.47853515 0.015492819 0.4460029 0.6174197 0.2718655 -0.34091124 0.39062613 0.035155803 0.28339067 0.1951305 0.6159897 0.1252318 0.47312847 0.63705635 0.6140261 0.25050315 0.14433035 0.35161862 0.045467794 0.4394645 0.25078982 -0.4010207 -0.81875235 -0.16417366 0.37647063 -0.44545817 1.1296488 -0.48101535 -0.31300673 0.21587875 -0.31747884
1278 -0.16609173 -0.46084264 -0.0075400206 -0.2649794 0.15097335 -0.038960557 -0.3405764 0.09455788 -0.38890606 -0.061620828 0.63428223 -0.40688425 0.45751888 -0.15927126 0.597883 0.10494756 -0.15169996 0.48667875 0.5166314 0.43593845 -0.6544528 0.42272094 -0.089999564 -0.499761 -0.3364256 0.26803005 -0.49951762 0.28643063 -0.056369722 0.2650638 0.13511325 0.17525074
1081 0.35764748 -0.3546398 0.10535189 0.30020863 0.040045075 -0.019868357 -0.27497292 0.30509603 -0.13366751 0.15172453 0.04029287 -0.32156157 0.49019647 0.0004818332 0.24315289 0.5053427 -0.23307355 0.1328635 0.52263427 -0.048941948 0.07104227 0.3728474 0.25170806 -0.46857342 0.3968173 0.05562885 -0.5420956 0.22562765 -0.108934194 0.03355693 0.25575587 -0.87823653
1179 0.1369099 0.38797095 0.3500242 -0.2226643 0.23104419 -0.72667444 0.093637176 -0.024828233 -0.11098658 -0.5749067 0.19952357 8.866488e-05 -0.070773326 -0.36371896 0.02187332 -0.1759627 0.46896917 0.3284738 -0.0015731294 0.31700754 0.5964666 0.44639564 0.47285864 -0.67697835 -0.6154973 0.03415724 0.6377364 0.16850556 0.12143952 -0.7484367 0.45154223 0.0737518
1783 0.09495097 -0.15333742 -0.35267925 -0.5217652 0.009572895 0.57015264 -0.37336788 -0.08485075 -0.27426848 -0.21104823 -0.1074433 0.48314136 0.049312033 -0.26167637 0.24238528 0.24040028 -0.7988692 0.17802455 0.3898934 -0.06627666 0.3509685 0.7350555 0.55274785 -0.249282 0.049496 0.32506698 -0.8260242 -0.042053502 -0.19203931 -0.37502655 0.4720122 -0.7194284
1013 -0.591932 0.1582704 0.0712008 0.27007654 0.15511464 0.0768258 -0.8988952 -0.5795285 -0.5619277 1.0881592 -0.08158393 -0.036074277 -0.16702688 -0.30275646 0.00660778 -0.22790655 -0.432657 0.48750678 -0.16623162 0.20598789 0.3098734 1.1210587 0.79665875 -0.0814 -0.3082477 -0.4863613 -0.2422676 0.41611496 0.3499188 -0.39190453 0.2686923 -0.15145983
1574 -0.53190863 -0.19968641 0.22210853 0.47782338 1.0944381 0.17135307 -0.6858802 -0.6589382 -0.09071734 0.3631015 0.81563246 -0.08133289 0.8217903 0.3646837 0.22249909 0.5360359 -0.7325786 0.058094263 -0.015987843 0.626221 0.68135893 0.10097873 -0.3493019 0.5493313 0.523187 0.12688364 -0.19231842 0.92283785 0.44403148 -0.7417379 0.21965452 0.53622663
1080 -0.2918312 0.21027182 -0.19206765 0.24304052 -0.23867737 -0.7544471 0.17152534 0.07901269 0.3201608 -0.49490795 0.008909689 -0.05275151 -0.08207824 -0.60969394 0.21988715 0.25782126 -0.45799634 0.6072063 -0.530439 0.47095188 0.3680276 0.46351358 -0.016064523 -0.46522248 -0.49723503 -0.15971798 -0.043393392 0.582906 0.038520858 -0.7653322 0.7172283 0.37672195
1026 0.07737923 0.021031626 0.01295276 0.13526131 0.092188366 -0.21385057 0.18387087 -0.3288006 -0.18574044 -0.12635122 0.5057277 -0.33411735 -0.060658418 -0.1928147 0.0553471 -0.20353755 0.24041072 -0.012458363 0.28111768 -0.2545361 0.68244696 0.3228995 0.55324453 -0.7986288 0.4576097 -0.3508598 0.18529582 0.27307072 -0.28735474 -0.2321412 0.43353003 0.5500366
1612 -0.043893676 -0.13171516 0.16965641 -0.11777865 0.14343052 -0.10407887 0.06381586 0.14969417 0.1551911 -0.10483257 0.618228 -0.684921 -0.40846172 -0.22401889 0.5289231 0.23163772 0.1714622 -0.20083934 -0.26483998 -0.34328768 0.1794663 0.51197845 0.50101614 -0.3862115 0.14154324 0.31008694 -0.46673766 0.31609288 0.3172811 -0.015580147 0.30935052 0.052817397
1306 0.11538509 -0.3855035 -0.24673118 0.17742452 -0.050817575 -0.09682325 0.7174487 -0.19098736 0.002418581 -0.162728 0.4285944 -0.04286926 0.47478178 -0.53274447 0.629451 -0.18079098 0.18469451 0.213429 0.18676633 0.809379 0.3348667 0.43308255 -0.15533766 -0.0020034562 1.0164226 0.172624 -0.32992068 0.45151195 -0.1492067 -0.67170346 0.20725447 -0.33019668
1318 0.0037350517 -0.53601885 0.08096974 0.01737425 0.7825962 -0.02418469 -0.35020143 -0.97403944 0.24830224 0.36840525 0.95297265 0.27606562 1.2753481 -0.17550038 0.20813513 0.596196 -0.21281089 -0.023296222 0.32521206 -0.23817459 0.5477451 0.1734167 -0.40556395 0.07147468 -0.052675784 0.40893438 0.30856717 1.0817794 0.40351945 -0.39870095 0.024135595 0.024318228
1528 0.56812984 -0.3624153 0.06890264 0.45448902 -0.10667048 -0.069487385 0.21844353 0.04093005 0.08486063 0.39089316 0.36853117 -0.46450442 -0.6330612 0.291645 -0.12514165 0.42515334 -0.28240997 -0.06972251 -0.17119314 0.01562858 0.65370685 0.13874729 0.47125056 -0.7272854 0.22270487 0.57152253 0.045600723 0.18290567 0.5688496 -0.152546 0.26066655 0.20948073
1498 -0.7175755 -0.9284096 -0.26068872 0.5621268 0.4196113 0.065171026 -1.0869718 -1.4794117 -0.3771157 0.30301267 -0.16553171 -0.02870383 0.19400722 -0.7651551 0.5660221 0.15918578 0.31338066 -0.3195672 -0.18663274 0.6050466 0.554323 -0.5152366 0.27072904 -1.0673398 0.2891811 -0.40485775 0.060493223 1.5829527 0.13938992 -0.43662 -0.01274305 -0.20763606
1422 0.41108963 -0.887446 0.23576948 0.30570972 0.17265294 0.5590504 0.0010232616 -0.4171939 0.28671342 0.12778114 1.0713712 0.20190693 0.26326346 -0.6408033 0.52121955 0.081303656 -0.77554053 -0.03390137 0.095562324 -0.3885196 0.6272626 0.37107486 -0.0008674456 -0.13718654 -0.03304699 -0.1327265 0.23156227 0.57140845 0.18113881 -0.6463061 -0.37836054 -0.22397953
1062 -0.351944 -0.10268245 0.8214343 0.5101787 0.22057097 -0.7370485 0.12897468 -0.09870315 -1.3586656 0.23093647 0.9825219 -0.36675373 0.050670274 -0.13891634 0.050945017 0.3234394 0.14467898 -0.022018565 0.5443109 -0.41777417 1.1725259 0.09100765 0.26839763 -0.7008804 0.81501466 -0.507049 0.18354681 0.15897492 -0.4785426 0.037373707 0.3097162 0.7429945
1018 1.2181007 0.7983368 1.7354922 1.232354 0.85785246 -0.2737168 -1.0609235 -0.4531951 -2.1875608 0.37756795 1.5629172 2.175552 -0.2852084 -0.1358542 -0.112811066 2.0961056 -1.8622408 1.094029 1.8199795 1.22317 0.57011014 0.5968827 2.6884036 -2.7261395 -1.1962813 -1.1081684 0.44173816 2.2084744 1.8847263 -2.4786348 -0.6944784 0.48764962
1166 -0.060997788 -0.08619936 -0.19735497 -0.1288682 -0.52583826 0.146761 0.36194918 -0.13876584 0.12828542 0.40557367 0.49309656 -0.9236004 -0.04308021 0.31235895 0.34930542 0.13336153 0.14854395 -0.24962005 -0.022672424 0.29806936 -0.11803689 0.029599233 1.1120229 -0.6651867 -0.23379415 0.28511044 0.12020741 0.4544886 0.19068162 -0.696506 -0.041471403 -0.27367064
1094 -0.25135726 -0.18982519 0.37655777 0.019122226 0.09289126 -0.78121203 0.285113 -0.095484704 -0.751166 0.25306964 0.369421 -0.7977572 0.046824716 0.25952023 -0.61288774 0.3405208 0.42422864 -0.5367233 0.036365528 0.4456047 -0.27434522 -0.08907115 0.5788095 -0.36880514 -0.4078647 0.023997897 0.10932288 0.52917755 0.060039416 -0.4691604 -0.42850843 0.043213144
1353 0.29156524 -0.27300027 0.0333576 0.28774184 0.54201347 -0.08002824 -0.637592 -0.10696554 0.228065 -0.07391148 0.27773732 0.25785178 0.6975293 0.14218113 0.32927507 0.57930833 0.08971504 -0.44401997 0.74563754 0.7844353 0.4407724 0.9103988 -0.74299675 -0.46476144 0.1920218 0.23154828 0.14756621 1.2068979 0.030111931 -0.14129896 0.036467656 0.06665739
1914 0.049553677 0.14090152 0.095668584 0.3981548 0.3146131 -0.5567299 -0.056177463 0.072068006 -0.46285382 -0.6103413 0.8019539 -0.5517481 -0.0897497 0.047210827 -0.27436447 -0.018216068 -0.088307336 -0.22011413 -0.58673406 0.50363564 0.20460604 0.15614408 0.18938795 -0.5886511 -0.7323289 0.036147106 0.41452622 0.41522187 0.07638309 -0.2635336 0.5832443 -0.29703006
1790 -0.179816 0.35740232 0.07320662 -0.12820733 0.46834815 -0.9953667 0.038332593 0.03999887 -0.9147707 -0.5717986 0.7012817 -0.017002182 -0.0023302962 -0.11116032 -0.02655082 0.26611227 -0.4361959 -0.23952533 -0.52856547 0.42763597 0.07560775 0.007746705 0.6502771 -0.08325942 -0.4837571 0.44649446 0.17421934 0.35738292 -0.49854586 -0.5698575 0.537312 -0.24238947
1369 0.21194455 -0.43721372 -0.230109 -0.43602356 0.27179208 0.23458391 0.1526583 -0.16200662 -0.1525615 0.27515137 0.48106366 0.16516176 0.549344 0.046155643 0.50455856 0.5385744 -0.42897338 0.18547118 0.39474082 -0.7408143 0.82662123 0.014530823 -0.15641998 -0.05871317 -0.2194551 0.4766092 0.15799114 0.9308452 -0.27147436 -0.7961184 0.08829404 -0.034375187
1344 0.051174488 0.024467481 -0.05133604 0.15860559 0.3534148 -0.89117485 -0.05094562 0.1711875 -0.4472534 -0.7015013 0.23920397 0.22964725 -0.006341292 -0.42197233 -0.2604483 0.36128268 -0.054522287 -0.22599843 -0.7007858 0.06395646 0.3556348 0.28632656 0.29621473 -0.23765053 -0.6482711 0.30692497 0.28923586 0.23400436 -0.24499778 -0.6548167 0.79949194 0.068898425
1406 0.19238093 0.18773575 -0.39060125 -0.03836866 0.24501318 0.17508295 0.46715835 -0.4312546 -0.16071784 0.16862744 0.31745982 0.09936679 0.49134707 0.056499362 0.41869876 -0.42306417 0.4058216 0.13085677 0.43621367 0.6436751 0.5233647 0.17807753 0.6769562 -0.43598905 0.5302791 0.38399607 -0.31801757 0.13718817 -0.11172204 -0.40022105 0.39093587 -0.09988974
1651 0.21236482 -0.6097355 -0.16009523 -0.34553826 -0.36363885 -0.31229812 0.06365357 0.08624135 -0.83574754 0.57914305 0.3523806 -0.16736762 -0.3452171 0.12107151 0.023063479 0.736492 -0.054948773 0.30802086 0.039632916 0.38148084 0.75583553 0.06608501 0.75048804 0.18794341 -0.045904163 0.13654381 -0.18136299 0.061239656 0.19466819 0.110008605 -0.003926791 0.43941075
1185 0.3430168 -0.54030585 -0.0012853995 -0.25110522 -0.22756495 -0.3102076 -0.11854819 -0.22450876 -0.11576811 -0.38832295 0.3201136 -0.13526344 -0.4636562 -0.031149544 -0.098718315 0.17730656 0.2163942 -0.26638645 -0.03895869 0.5537824 0.91748685 0.44551367 0.497582 -0.31008974 -0.065739825 0.21318348 -0.30746147 0.24308772 -0.06534705 0.41421023 0.18832892 0.02748126
1658 0.7260959 -0.40666926 0.28793004 0.18348747 0.03150276 -0.49090478 -0.0537041 0.06784794 -0.3301527 -0.09966684 -0.111205585 -0.16912034 -0.015517899 -0.21110354 -0.15334402 0.33232906 -0.15207373 -0.12570453 -0.34640318 0.08041299 0.54134023 -0.020824987 0.68850523 -0.16983508 0.25175005 0.2745495 -0.1865833 -0.1355972 0.035097852 -0.103795506 0.4723209 -0.018520912
1145 0.8479836 -0.046341546 0.07457681 0.6831508 -0.07365361 -0.89469534 0.058018096 0.014880546 -0.2804904 -0.42985177 0.23690078 0.01891434 0.16563731 -0.3198038 0.38922587 0.08088647 -0.33094728 0.34151855 -0.23972376 0.28582972 0.25398052 0.41456756 0.5543818 -0.30330825 -0.64559925 -0.08210636 0.2820094 0.7589595 -0.8040526 -0.16810803 0.44836146 0.07035357
1480 -0.5715371 -0.092641816 0.081891485 0.18529043 -0.025704373 -0.10171374 -0.39772615 -0.4062842 -0.4698742 0.45285535 -0.4128707 -0.38011548 0.21217306 -0.06813296 -0.040556654 -0.0438375 -0.4269229 0.32146916 -0.26188615 0.21621048 0.36439836 0.40900496 1.0346844 -0.27653953 -0.33160913 -0.1242524 -0.10763686 0.35465556 0.23217386 -0.097008124 0.01123908 0.22906081
1553 0.5814724 -0.06751341 -0.061245296 0.120461635 0.49271753 -1.0158503 0.04588165 0.09302696 -0.44774005 -0.3455829 0.25810552 0.13229127 -0.013295712 -0.3346868 -0.2507434 0.14821294 0.11643714 -0.81721014 -0.49767724 0.22755896 0.14611688 0.37613457 0.9354984 -0.26996192 -0.83709645 -0.11637285 0.017684633 0.2002749 -0.28650853 -0.4664488 0.080859706 -0.34639877
1311 0.6874719 -0.5184669 -0.26390174 0.31864852 0.6626647 0.00427767 0.47885075 -0.3786392 -0.4444596 0.3084558 0.046609692 0.23969059 0.17559193 -0.31727555 0.07992942 0.5925104 -0.30795315 -0.35954767 -0.5432035 0.25253558 -0.06530515 0.76804894 0.66240716 -0.46214798 -0.65171957 0.24222611 -0.41409647 0.07789964 -0.06618088 -0.024885982 -0.9407057 0.09629159
1054 -0.24668388 -0.16159864 0.24696216 0.5504564 -0.010204825 -0.32710823 -0.2590291 -0.006346361 -0.21762726 0.33971184 0.19449744 0.18666783 0.5203589 0.42750284 0.24584278 0.07191344 0.29248062 -0.037694562 0.18407936 0.27562055 -0.091598265 0.50531226 0.15522896 -0.07938459 -0.24528727 0.6040742 -0.3895405 -0.12785724 0.54557544 -0.6518891 -0.056704614 0.18984295
1051 -0.6019483 -0.637623 -0.26698995 -0.09791114 0.07752136 -0.5725938 0.20554201 -0.22346704 -0.50232464 -0.25648373 -0.33147877 0.33359474 0.14150454 0.0858087 0.32057697 0.41985014 0.09655449 0.49882478 -1.083196 0.45091692 0.09666532 0.40499 0.048309155 -0.5567032 0.33245236 -0.21833436 0.38867602 -0.06683527 0.09663914 -0.75386554 0.3731509 0.34784976
1535 0.52815866 -0.007867857 -0.044511918 -0.0019736376 0.033612046 -0.5247503 -0.088989474 -0.3801594 -0.07562796 -0.31349552 0.16001157 -0.3569717 -0.33098024 -0.48310393 -0.75302553 0.04420096 -0.17512973 0.011657601 -0.37382048 0.32783782 0.61706686 0.17352057 0.29846734 -0.8203388 -0.2772182 0.30587777 -0.08910696 0.20437971 -0.1824742 -0.29202193 0.46711838 0.0400312
1389 0.45869306 -0.34911874 0.59111154 0.43403548 1.2341447 -0.12441184 0.09469259 0.025710328 0.075584784 -0.083893895 -0.2946551 0.28705335 -0.19077693 -0.34928977 0.77941954 1.0686301 0.21821848 -0.170779 -0.20450756 -0.17103323 -0.18519072 0.77411807 0.2857722 -0.40137824 -0.13122836 0.03500133 -0.13333595 0.38352722 0.44438988 0.015109991 -0.24399099 -0.20307341
1291 0.0953958 -0.059946578 -0.8729276 -0.050198726 0.037786268 -0.33984166 0.060185496 0.080038816 -0.27295882 -0.23498005 0.60736907 -0.10374866 0.9656712 -0.05202366 -0.2702575 -0.002257311 -0.09041912 -0.16856922 0.27119106 0.39311048 0.07752341 0.46186855 1.2592896 -0.3887619 -0.03140674 -0.16104567 0.22819315 -0.30381534 0.225426 -0.32389072 -0.16147082 -0.0501739
1085 -0.06683564 -0.17942333 0.11725401 0.45950693 0.45993543 -0.21147929 0.23909076 -0.5298643 -0.64786094 0.27238938 0.5940065 -0.20954846 -0.55642164 -0.7965634 0.4168553 0.092214204 -0.19388032 -0.26201177 0.25239936 0.16869551 0.08344763 -0.2864496 0.5088487 -0.56020975 0.28131643 -0.33090594 -0.27013284 -0.060860403 -0.17959613 -0.30797875 0.08452469 0.8023782
1100 0.11413237 -0.032991618 -0.17097934 0.6060311 0.11253843 -0.20040485 -0.045751728 -0.123408966 0.25885823 -0.1128533 0.42202854 0.39282814 0.54491854 -0.20109016 0.25163582 -0.33457044 0.39337403 0.33972913 0.22627161 -0.16437826 0.3099668 0.041698843 0.8303515 -0.035474177 -0.01671581 0.4709746 -0.67998713 0.14171462 0.31229648 -0.43997627 0.5584519 0.21222572
1038 0.19004622 -0.71978885 -0.13195847 -0.57496923 0.0149901025 -0.20519653 -1.0728904 -0.24259366 -0.70625657 0.45825556 0.42543206 -1.0032679 -0.39394864 -0.5047074 0.06838866 0.66041607 0.12374361 0.52936137 0.42183205 0.39186004 0.51420885 -0.44679552 0.29901618 -0.10758628 0.0466385 -0.14502905 0.04422383 0.29449856 -0.05572301 -0.2843028 0.010656318 0.49626106
1135 0.20976111 -0.4278027 0.0758515 0.13047236 0.25421995 -0.6822287 0.2708124 -0.03171266 -0.13234265 0.18661034 0.23218054 -0.57583445 -0.23731297 0.20545909 0.07410862 0.16835521 0.38272744 -0.083769836 -0.12873346 0.0034548168 0.43285373 0.46948054 0.5723728 -0.498207 -0.03894932 0.036747847 -0.0048391726 0.18739744 -0.32123712 0.056577727 0.069938056 -0.17839552
1110 0.22995569 0.10588033 -0.22546242 -0.67168 -0.13722368 0.03914819 0.5651946 -0.5137106 0.34783277 0.3398163 0.5383229 -0.38502008 0.46717706 -0.108858086 0.3112038 0.13868183 0.33136356 0.042532507 -0.022182101 0.5310467 -0.22569422 0.49538594 1.147055 -0.7055371 -0.26347998 -0.07909756 0.53602684 0.32636335 0.35705367 -0.13728951 0.46797726 -0.20169239
1014 -0.4224362 -0.41695955 0.43619493 -0.0038806365 0.50621325 0.6211506 0.17587197 0.18848082 -0.69717073 -0.070373714 0.25255978 -0.38080475 -0.08309173 -0.13161032 0.3105471 -0.20658086 -0.30764183 -0.27823067 0.16397218 -0.039893907 0.38041165 0.8382005 -0.07791574 -0.408406 -0.23175883 0.6767433 -0.46766564 0.17257424 0.1440815 -0.044521913 -0.0020647328 0.2120637
1626 -0.83549696 -0.8941294 0.35648593 -0.5347559 0.32048815 -0.72612864 -0.30852744 -0.98096025 -1.1959622 0.3838797 -0.9587978 -0.51672596 0.88907444 1.2617579 -0.38761765 1.2528018 -0.52527624 0.3819432 -0.33861455 0.51173156 0.31038296 -0.051604975 1.3338615 -0.83700234 -0.119847685 -0.85145533 0.13158762 0.7541075 -0.42426905 -1.4194167 0.5398747 0.74057823
1178 0.114007294 0.3620848 0.14852518 -0.16398895 -0.03792204 -1.0621583 0.1102302 -0.46043587 -0.74937546 -0.4393698 0.7123155 -0.10761847 -0.2847715 -0.22474104 -0.41654202 -0.096725635 -0.80637926 -0.11738928 -0.32831362 0.20608108 0.0827085 0.31582782 0.4843227 -0.4901669 -0.6096624 0.43477592 0.14366876 0.6322904 -0.5805942 -0.62417203 0.49882275 -0.13348597
1508 -0.16483247 -0.28032824 0.03622047 0.16983382 1.131776 0.20933355 -0.5796747 0.49678597 0.2683786 -0.08644323 0.6751743 -0.24128157 0.7676673 0.5543926 0.2342865 0.9580483 -0.78551614 0.34116763 0.15527375 0.8021035 0.42386034 0.5545968 -0.7328122 -0.4124405 -0.18795912 0.20614913 -0.0580368 0.46591514 0.06725607 -0.81254137 -0.28429782 0.24406157
1917 0.10219733 0.11896029 -0.09826996 -0.038577262 0.44683892 -1.0275235 -0.023386208 0.11253414 -0.25917923 -0.7269718 0.2637356 -0.09710569 -0.18166383 -0.31523117 -0.3297971 -0.019990817 0.043800905 0.21658626 -0.74599147 0.12723866 0.45292738 0.30192563 0.50084305 -0.6102471 -0.08196931 0.06272065 -0.07984642 0.3238081 -0.22196066 -0.33617797 0.47759262 -0.19300257
2126 0.54791486 -0.66274667 -0.28831422 0.14503351 0.4959838 0.38999185 0.2289526 0.34218535 -0.018389354 0.24939206 0.10221242 0.33303827 0.2906422 -0.58592 -0.04634884 0.0700395 0.45463505 0.17164603 -0.06419313 0.6083137 0.37695727 0.10395309 0.36352578 -0.03228071 0.5514526 -0.6471593 -0.70567375 0.7013664 0.2600794 -0.753821 0.07692655 -0.28105503
1517 0.6190558 -0.95940626 -0.3103465 0.1252567 0.36433223 0.048338674 0.00031500435 -0.17637254 -0.014934279 -0.069687665 -0.22173119 -0.54537857 0.92724717 -0.083553456 -0.07976742 0.23451255 -0.9932658 -0.0040663076 0.40041605 0.58020496 0.27793112 0.34410408 -0.03643921 -0.48664755 -0.07611383 0.23318595 0.14100215 -0.5054923 -0.28602913 -0.45728937 0.104073144 -0.3238897
1228 0.19253336 -0.6485812 -0.09495039 0.2294616 0.08002913 0.14939769 -0.26158878 -0.17694674 0.11944397 -0.34305215 -0.28603637 -0.26992473 0.33589318 0.13096353 -0.04147039 0.35476002 -0.16474524 -0.36323658 0.18438792 -0.054968856 -0.0012574188 0.46084672 0.31897953 -0.28649008 -0.009871304 0.24287908 -1.0013088 -0.19793831 -0.2874607 -0.5969617 0.21611933 -0.104435176
1405 -0.0068843653 -0.17448713 0.2531013 -0.00038525177 0.74438405 0.54692024 -0.14445667 -0.0038315866 -0.4871733 0.5119163 0.22934413 0.30156776 -0.08302317 -0.4201708 -0.7249091 -0.42768708 -0.1552193 0.934277 -0.16741572 0.30088556 -0.02879028 0.5821101 0.5663094 -0.20227936 0.38543606 0.33845955 -0.56563306 0.67327756 -0.28144205 -0.59328955 -0.22940019 -0.2699494
1175 0.51184994 -0.44138214 0.11154939 0.2734374 0.061604124 -0.24443704 -0.6664975 -0.08268313 -0.006918891 -0.59848756 0.66993093 -0.26360717 0.68186605 0.21507631 0.23102918 0.03757271 -0.07286262 0.5897001 0.58448124 0.6695218 -0.39884806 0.49066174 -0.19540407 -0.21701597 0.11038271 -0.053199355 -0.16266595 0.9178999 -0.72738683 -0.03654222 0.27240056 0.3468359
1463 0.7692172 -0.49723423 0.10143757 0.18690465 0.88640034 0.35442606 0.23071758 0.47379407 0.0329846 -0.19272274 0.09079831 -0.00293494 0.18609086 -0.058726687 0.18704942 0.7423177 0.015940832 -0.14358772 -0.16815089 -0.27438638 0.012737766 0.36298862 0.81320906 0.203984 0.17206103 -0.5127815 -0.24515657 0.77551407 0.8327887 -0.45677996 0.039752804 0.4132348
1505 0.24076259 -0.2094942 0.24341188 -0.12558484 -0.1638037 -0.5105434 -0.2995909 -0.5505049 -0.35376307 0.15681568 0.19308844 -0.59158707 0.34580728 0.09398126 0.24980888 0.16815446 -0.28624442 0.09928598 -0.60797584 0.082471594 0.4896487 0.15602034 0.43265936 -0.62214255 -0.4787182 -0.016442588 -0.18991639 -0.16667134 0.22388093 0.37370265 0.458036 -0.11793477
1209 0.38406926 -1.091148 -0.6138691 -0.3530184 0.22453323 0.20457117 -0.17890447 0.0016658141 0.11047042 0.21056302 -0.41298974 -0.20471467 0.11013025 -0.48161492 -0.026660403 0.2846413 -0.4038574 0.25343913 0.3769049 0.47017694 0.18793617 0.53169274 -0.04381234 -0.2831328 -0.15087406 0.717803 -0.08304247 -0.11037289 0.44256768 -0.85809565 0.5217083 -1.3286586
1813 0.18349876 -1.0702367 0.063252576 -0.73053265 0.12533109 0.079551965 -0.10773158 -0.630762 0.14522313 0.22762243 0.7967005 0.34239942 1.1118935 -0.5814715 0.6759702 0.4020254 -0.58463174 0.008886391 0.20824394 -0.49618712 0.77482677 0.036490675 -0.41129065 -0.3223858 0.06321536 0.22314736 -0.07859452 0.6911298 -0.2595293 -0.3295574 -0.16292989 0.007606996
1270 -0.13047014 -0.17862068 -0.16895075 -0.53790903 -0.01279429 -1.0015092 0.08770193 0.049298886 -0.19191732 -0.32293862 0.7162753 -0.0797665 -0.64691085 -0.56533146 -0.15827554 0.48618034 -0.059881046 -0.3941468 -0.41518924 0.40468293 0.26166254 0.22162329 0.38127163 -0.34223804 -0.17934753 0.5551004 0.107361116 0.5516201 -0.34443066 -0.23240125 0.078459576 0.030748922
1129 0.19463968 0.2113875 0.25450116 0.18653588 -0.1190126 0.49890417 0.9314704 -0.7104823 -0.76728475 -0.011325413 0.81763613 0.21831204 0.024043398 0.36850098 -0.18625237 0.4197867 -0.03636827 -0.2101587 -0.27187777 0.6904127 0.5593754 0.016215188 0.30764475 -0.9295818 -0.3748171 0.36226723 0.16332635 -0.1697409 0.08915496 -0.0989832 0.59989375 0.21633074
1330 -0.278292 -0.7109656 -0.27518424 0.4795957 -0.36755043 0.7448221 0.62000734 -1.0646683 -0.715071 -0.51757413 0.6458003 0.22778794 -0.23694974 -0.11381623 0.3618817 1.2386924 -0.18710287 0.35018688 -0.5601949 0.60824645 -0.15758538 -0.28336433 0.1906322 -0.9936784 0.57146466 -0.41764107 0.020126132 0.38199168 -0.06051236 -1.2882025 0.17691115 0.07867169
1268 0.2554033 -0.67667264 0.013751083 -0.15856601 0.3188372 -0.0034254272 -0.4540793 0.25059906 -0.37850264 0.19693744 -0.50865453 0.25686783 0.33290356 -0.5469661 0.38262483 0.78382736 0.56400657 0.27174446 0.021375624 0.3752242 -0.19649522 -0.011439696 0.42190388 -0.3573682 0.17643146 -0.057526752 -0.51086205 0.28338405 0.67413807 -0.38784012 -0.18812142 -1.2018042
1078 -0.07214446 -0.37175876 -0.33042297 0.66536325 0.4586404 0.4758364 0.25669986 0.7834297 -0.25882208 0.07014963 -0.15861712 -0.16981517 0.5084736 -0.12124148 0.2586756 0.25004637 -0.3877497 -0.11539126 0.24195655 0.059355304 0.081910074 0.28963056 0.16148795 -0.3721283 -0.10043726 0.35879195 -0.23243044 0.85768735 -0.30832186 -0.033292886 0.8318061 -0.23720165
1754 0.08205525 -0.24659728 -0.5369103 -0.33231404 0.06335519 0.39234722 -0.2833959 0.3921652 0.0024875489 0.05514814 0.09278314 -0.38459325 0.6208723 -0.024698596 0.27934483 -0.08931722 -0.5137015 -0.00885143 0.021896075 0.25361672 0.36704165 0.34750557 0.5322788 -0.7164517 -0.07035994 0.40127552 -0.082479775 -0.3447902 0.6644876 -0.68072116 0.13182265 -0.42362586
1157 0.5099147 -0.26670837 0.81099504 0.41548562 0.24050076 0.22325984 0.03215029 -0.49257532 0.1314274 -0.13873476 0.13984314 0.4819432 0.6301876 -0.21810609 0.37068793 1.0932152 0.363236 -0.5415579 0.43362397 0.6083269 -0.27315482 0.92088383 -0.23410602 -0.76932675 -0.508875 -0.20751438 -0.28422442 0.3676827 0.50103736 0.27662313 0.43316612 0.07666371
1043 -0.013445728 -0.33686745 -0.19772871 0.8363256 -0.36795524 0.74875355 0.8773938 -1.2332791 -0.80080974 -0.42010054 0.62191916 0.19362503 -0.2295928 0.021614714 0.2165573 1.0699514 -0.111291476 0.24083282 -0.6092231 0.72124416 0.04437405 -0.3537867 0.53126556 -0.99384856 0.25486 -0.30790442 -0.30226442 0.35901833 -0.17275172 -0.9169507 0.15229721 -0.02932645
1855 0.22252356 0.08317252 -0.08661166 0.38860705 -0.31029248 -0.31846052 -0.025143947 -0.6833794 -0.26374942 0.09193181 0.76358145 -0.6199541 -0.41791648 0.12213933 -0.5449115 0.15585549 0.022142401 -0.63298255 -0.2827085 0.29612947 0.4455641 -0.15486364 0.42999595 -0.56261116 -0.036498282 -0.023045149 -0.115551025 0.39005855 -0.26624617 -0.4925688 0.47621512 -0.1455189
1350 0.41417965 -0.2715173 0.13914214 -0.22732097 0.016311146 0.19773158 0.0510424 0.20175986 -0.20186235 0.043218154 0.10914788 -0.5569601 0.02020278 -0.10764898 0.13213183 0.5436678 0.34838963 0.28843307 -0.10318036 -0.044816583 0.3639902 0.44682765 0.6688119 -0.040551927 0.2938422 -0.32802653 0.10751844 0.25291407 0.53534025 -0.1400269 0.51194394 0.12206195
1260 -0.09861348 -0.030056266 -0.05950948 -0.47713017 0.46362364 -0.68581134 0.30245602 -0.015083827 -0.0064465012 -0.6502253 0.7966015 0.0610563 -0.33619374 0.056165237 -0.3110967 -0.1005356 -0.15915607 -0.4981916 -0.47004265 0.89310753 0.2419821 0.16185853 0.7954806 0.20318906 -0.5652782 0.19700396 -0.034185924 0.37734148 -0.022464817 -0.8133088 0.7102791 -0.04496786
1173 0.019272974 0.27237484 0.022292407 -0.41106692 -0.22592255 -0.3356507 -0.09888522 0.34800315 -0.18905239 -0.080963485 0.46632606 -0.67599756 0.1695328 0.014044575 0.31810367 0.2988442 0.08073185 0.053265505 -0.10116873 -0.19703723 0.8823475 0.4914662 0.13240288 -0.38514665 0.28669602 0.2710514 0.49416998 0.12794566 0.9711991 -0.7300268 0.39699513 0.42801625
1248 -1.1201042 -1.0344408 1.1686332 -0.012297067 0.7031219 -0.12406485 -0.96136713 0.6188516 -0.09973911 -1.0505817 0.5667365 -0.014728069 0.5268583 -0.79751235 -0.37887368 0.059291795 -0.59962887 0.15542735 -0.18777473 0.519648 0.28878915 0.64042795 1.3669904 -0.5075251 0.13927768 0.92300195 1.1737545 0.7132275 -0.08855307 0.091918655 0.9175523 -0.48197466
1239 0.40427214 -0.23161826 0.0025163456 0.28577375 0.59565365 0.15462634 -0.4452768 0.37423554 0.059028506 -0.15927018 0.24602005 -0.022669451 0.77309823 0.5182943 0.11518978 0.74384546 -0.6533574 0.37862724 0.32749704 0.036572784 0.5116842 0.24828623 -0.82664955 -0.43303537 -0.14046936 0.24162851 0.12349755 1.2603314 -0.47882667 -0.6985421 0.67785764 0.28937244
1355 -0.073289946 -0.27038333 -0.041958567 0.027483597 0.5794227 0.11226279 -0.9318433 0.9012187 -0.14439435 -0.004624555 0.40869313 0.6436212 0.029135654 0.61979866 0.31300357 0.696111 -0.46537846 -0.42244425 0.14051937 0.5340817 0.3995614 0.08989789 -0.29078156 -0.55337393 -0.108728774 0.32224625 -0.7070167 1.171699 0.03148803 -0.41695648 0.24745132 -0.28513098
1701 0.34570417 -0.32560953 -0.10025308 -0.14423163 1.285781 0.09476412 -0.16993403 0.2523204 -0.4567821 0.6426158 0.2577687 0.35216027 0.10025249 -0.4148688 0.5025882 0.6165447 0.89173466 0.111119255 0.35225493 0.10008755 0.13980488 -0.11856652 -0.05586375 -0.9202143 0.47330114 -0.11399833 -0.22922866 0.23919512 -0.22241883 -0.46570128 -0.17454946 -0.11119993
1582 0.24638309 -0.1525358 -0.0019336432 -0.05708583 0.42768288 -1.0789797 -0.0150192985 -0.023005959 -0.9114798 0.05786727 0.5042375 -0.10229058 -0.55576855 -0.45106775 0.21009178 0.58740944 -0.08938276 -0.52023184 -0.1937616 0.21532233 0.3057811 -0.35383376 0.42489412 -0.11820374 -0.46946058 0.07161193 0.3668323 0.16614264 -0.066689454 -0.33838555 0.4202634 -0.10380436
1534 0.1995792 -0.6559934 0.3627707 -0.22887823 0.00054372684 -0.103713065 -0.96005404 -0.07080934 -0.676796 0.42600882 0.36479503 -0.78057355 -0.19488528 -0.34906337 0.46853477 0.80474216 0.40288466 0.6542665 0.55506235 0.38257203 0.5321684 -0.3418377 0.8836377 -0.007006651 -0.12976235 0.0028459425 0.029832315 -0.19784054 0.03921717 -0.19190712 -0.31638816 0.03875351
1289 0.12229005 -0.42060795 0.032181635 -0.17783931 0.080452755 -0.3833541 0.32232624 -0.047517616 -0.18190819 -0.32041037 -0.24100791 -0.34237745 0.014361993 0.21712795 0.40102714 -0.0477979 0.3355627 0.4729005 -0.023114184 0.18731461 0.68302363 -0.21531866 0.4450472 -0.866402 -0.018976498 -0.008386196 0.12281957 0.034862984 0.46119776 -0.43312833 0.267609 0.20685703
1581 -0.021579564 -0.5787742 -0.027968856 0.51598096 0.67033154 -0.13282764 -0.056184772 -0.5105022 -0.035024267 0.13550252 0.6563631 -0.26104602 1.2959523 -0.10387341 0.6675441 0.075206906 -0.49964434 -0.14310576 -0.06329052 0.08341187 0.71772385 0.34683147 -0.515222 0.35231283 0.4767033 0.11228186 -0.056169793 0.6286704 0.26928702 -0.3767498 0.1735326 -0.5585849
1397 0.019204706 -0.33114368 0.01643959 -0.10748603 -0.3485153 -0.11374067 0.24861902 0.06364746 0.37360248 -0.115416735 0.2394615 -0.25379246 -0.058317427 -0.48070192 -0.08781817 0.592399 0.1971198 0.34904417 -0.8354705 0.06664859 0.3967343 0.17224683 0.766703 -0.695496 0.022448039 0.069513686 -0.46265945 0.35789725 0.17046826 0.032555513 0.12966335 -0.18063489
1238 0.14363058 -1.1073841 -0.0015746435 -0.10962162 0.846179 0.52164286 0.029315066 -0.05681237 0.010461414 -0.27832833 0.77763444 -0.2762881 1.1549464 -0.1873952 0.3867874 0.5372016 -0.6060143 -0.23626761 0.045084253 0.13083512 0.8049927 0.30742973 -0.4563826 -0.281136 -0.16962942 -0.030404195 0.19541442 0.031603992 -0.041964076 -0.14189485 -0.12276651 -0.020376163
1430 0.35524216 -0.5209446 -0.061349582 -0.17806561 0.94829303 0.43915534 0.11372061 0.06933809 -0.2154153 0.022221705 0.17238477 0.334982 0.53739893 -0.36918393 -0.1479733 0.8036362 0.6595442 -0.39571065 0.91656274 0.38700256 0.50338036 0.41471466 -0.21737748 0.07154222 0.22612154 -0.3044174 -0.13045552 0.44797552 -0.044464298 -0.6772378 0.108112216 -0.08178452
1473 -0.9197357 -0.5755592 -0.33177796 -0.19563407 0.49808076 0.03927567 -1.112567 0.49177316 -0.27326274 -0.009274415 0.36038515 0.08526944 0.25954762 -0.29527217 0.40574315 -0.024695158 -0.44730648 -0.37477237 0.39752555 0.38266885 -0.033488855 0.19722195 -0.13908625 -0.66632223 -0.64607006 0.10770379 -0.6512892 0.4790539 0.661351 -0.16956691 0.25556684 0.26721936
1431 0.1986496 -0.21354401 0.45560864 -0.25801837 -0.06018646 -1.0726905 0.34241527 0.009697258 -0.109173074 0.6240475 0.21383679 -0.08697987 -0.30063167 0.019895868 0.64339703 0.3255415 -0.5329768 0.30186963 -0.2093603 0.016552309 0.13056962 -0.2063072 0.5343752 -0.7303822 -0.045647614 0.5088666 0.01921534 0.16349803 0.40837103 -0.04246562 0.4307467 -0.089623734
1341 -0.0100248465 0.1310125 -0.100155674 0.18967754 -0.1663693 0.29102427 0.072398394 0.2772632 -0.16508915 0.1802186 -0.1698573 -0.4416932 0.31750646 -0.39758644 -0.009626452 0.055430632 0.14853823 0.39901778 -0.0047755786 0.39708415 0.4277216 0.36006433 0.6363311 -0.6349989 0.52067846 0.56584865 -0.075087816 0.26584497 -0.1788357 -0.24567272 0.4913651 0.6455583
1168 -0.20315126 -0.7779946 -0.64492214 0.357774 0.45636985 0.14765595 0.3272667 0.46977267 -0.46117094 0.08241513 -0.22444546 -0.1851823 0.8761566 -0.30003023 0.504816 0.091730155 0.2921578 0.25958797 -0.5210829 0.6826209 0.24465165 0.6200462 -0.07958105 0.13905574 -0.24453232 -0.11418219 -0.22007075 0.22186849 -0.37733778 -0.7818456 -0.1777721 0.018293338
1298 0.06542368 -1.7108811 -0.3589517 -0.55579734 -0.14838788 0.6223026 -0.11107216 -0.50110006 -0.2682296 -0.26501006 0.09047031 -0.57180804 -0.16283652 0.5245125 -0.36231503 0.62538934 -0.13154371 0.4639889 -0.52946156 0.33651555 0.7540235 0.958176 0.36505172 0.23816198 -0.53594214 0.5164135 -0.7311077 -0.89005685 0.6120121 -1.6267377 1.0963342 -1.1207584
1611 -0.3920507 -0.12450692 0.27099028 0.5848599 -0.15547256 -0.4457062 0.084347874 -0.067529574 -0.16293745 -0.100583486 0.11858682 -0.5484148 0.07983693 -0.30305317 -0.42663518 0.015790526 0.088000104 -0.022836532 -0.44090706 0.34747082 0.45714265 0.005070388 0.9395923 -0.47433344 -0.010567847 0.1086313 0.015528854 0.4253641 0.21027844 0.05799879 0.19259232 -0.3499201
1382 0.7105678 -0.24518372 1.0486386 -0.34709352 -0.054331347 -0.21153414 -0.34315187 0.056082107 0.14101477 -0.11467067 0.08463044 -0.15299636 0.41746226 -0.4509544 0.18749017 -0.12410068 -0.2937381 -0.50550634 -0.03987689 -0.17584053 -0.023191504 0.78926724 0.45122036 -0.4438884 0.16225012 -0.6488399 -0.6641837 0.12279231 0.19273995 -1.02416 -0.2858845 -0.012406352
1314 0.08433937 -0.19596517 0.2865183 0.26208973 0.7151202 0.21916778 -0.35644168 0.4437844 -0.20972866 -0.2630025 0.30333832 0.72958636 0.38043413 0.4656918 1.0762991 0.90806013 0.031802025 0.0055623176 -0.19565679 0.103913814 0.46640357 0.681288 0.22373874 -0.7267978 -0.48608637 -0.043672074 -0.53424454 0.4493778 -0.5230202 0.13082165 -0.34073246 -0.03954488
1250 -0.19735076 -0.60634 -0.19714358 0.7274709 -0.4178922 0.96395177 0.65469486 -1.0718751 -0.64806175 -0.65401196 0.7744597 0.14214818 -0.17565002 -0.22689544 0.27764693 1.2412772 -0.29252553 0.124782436 -0.3489343 0.6736741 -0.29001915 -0.24438016 0.4091769 -0.97323346 0.37074003 -0.47834367 -0.07177658 0.4239244 -0.12062009 -1.1707517 0.23884921 -0.095048904
1373 -0.5260948 -0.61211276 -0.19847672 -0.51258445 0.19854793 -0.23615146 -0.7439583 -0.803531 0.097526 0.5703666 0.8125297 0.2748547 0.92052144 -0.13191932 0.19098833 0.44800997 -0.28123012 -0.5842625 0.15249902 -0.3497718 0.2273289 0.13908744 -0.116363734 -0.3144057 0.15221171 0.828649 -0.77169377 0.71245104 -0.23512654 0.005163593 -0.060329452 -0.073501825
1319 -0.06648968 -0.63132584 0.3425686 0.07793394 1.0146765 -0.08021346 -0.057391893 -1.0211399 0.25574356 0.26182327 0.6825799 0.07980683 1.286343 -0.1605927 0.3832736 0.6239547 -0.2729793 0.1041559 0.20434853 0.24366024 0.57644 -0.013214398 -0.29569337 0.5385736 0.010777373 0.17807086 0.085315384 1.2915653 0.8424639 -0.29280835 0.20859522 0.013107364
1258 -0.86869895 -1.3839985 0.12792009 -0.68307894 0.66624844 -0.92567575 -0.9017235 -1.1982324 -1.3805165 0.37883058 -1.351416 -0.588369 0.9724794 1.4277505 -0.3974124 0.9434307 -0.4914994 0.73565257 -0.74518794 0.67761976 0.30361927 0.0841601 1.5665742 -1.1788452 -0.23808241 -0.60900587 0.35959113 1.1234621 -0.5562681 -2.0856352 0.92998075 0.8532767
1083 0.44712505 -0.57959855 0.24381176 0.19366443 -0.22012924 0.09980594 -0.44421053 -0.2622888 -0.03216048 0.32277337 -0.2704781 -0.14515749 0.56079257 0.12302209 -0.20571628 0.045307364 0.9134032 -0.68519795 -0.005306898 -0.17246363 -0.14814627 0.7152974 0.19287097 -0.6420559 -0.12831554 0.13017596 -0.5641191 0.06060326 -0.1696991 -0.5554421 0.73895186 0.39258355
1249 -1.0741211 -1.0244182 -0.23185916 -0.2540324 0.8876221 0.16461372 -2.1295679 -0.13452657 -0.81260324 0.4540793 0.1520569 -0.66554093 0.017784059 -0.45421267 0.108094804 0.09107231 -0.531296 -0.06612436 0.4712093 0.508121 0.4697958 -0.16316381 0.3040106 -0.49104273 -0.53042275 -0.2584142 -0.46854836 0.6752446 0.8257665 -0.55163914 0.28743145 0.64457655
1127 -0.2550198 -0.5588492 -0.090437114 -0.3095336 1.0374662 0.14448127 0.2692919 -0.21249047 -0.7275055 -0.08415521 0.057044994 0.24962206 0.28618023 -0.16883416 0.29978797 1.0028639 0.9055103 0.43616295 0.09362233 -0.68962294 -0.24360666 0.45033923 0.026111545 -0.51046646 -0.36407498 0.22240478 0.1655245 0.41875133 -0.06449971 0.18865825 0.377747 -0.046801437
1197 0.2533497 -0.6279278 0.13629647 -0.220377 0.6400874 -0.19160272 -0.5830102 0.053808983 -0.6248921 0.8723685 0.31360015 -0.78985006 -0.33225846 -0.58803636 0.12204148 0.6018166 0.5146988 0.61367834 0.56645024 0.67327017 0.317562 -0.15679203 0.5612348 -0.070441835 0.13696119 -0.2135715 -0.111581676 0.0053955303 -0.41213417 -0.03236233 -0.026253166 0.34609595
1121 -0.18440466 -0.8258974 0.5929945 0.13668974 0.5452298 0.49249667 -0.38539803 -0.1915269 0.10220353 0.14455323 0.688834 0.40024862 0.50317687 0.20983227 0.24801123 0.3313218 0.30429476 0.039026026 -0.61949337 0.3054386 0.19331984 0.672382 -0.15557326 -0.03540311 -0.035032786 0.8302183 -0.0962804 -0.61587787 0.032274947 -0.7140077 -0.04137013 0.48644513
1111 0.43923223 -0.4833779 0.94825846 -0.045252748 -0.24011044 0.8306938 -0.095578596 -0.19941907 -0.583796 0.4649833 0.26832056 0.19280279 0.63510305 0.32800058 0.36692634 0.023482714 0.19420707 0.43694383 -0.03309079 0.50466746 0.3142903 0.8479359 0.6031386 0.20797461 -0.016056707 -0.425775 0.41181186 0.68196285 0.38584435 0.12183059 0.90773153 -0.07350744
1375 -0.08535955 -0.6363452 0.69590527 -0.56413525 0.39082828 0.32871473 -0.19367345 -0.5211174 0.27724025 0.17089549 0.7775033 0.17529576 0.70899266 -0.468729 0.058090035 0.78247875 -0.49242538 -0.43295905 0.04156278 -0.4651312 0.03326823 0.5691165 -0.14934012 0.2814823 0.13168207 0.5588054 -0.09160843 0.9439813 -0.09254264 -0.90843725 -0.52172464 0.04165644
1324 -0.017826652 -0.018474057 0.109336965 0.04386104 -0.010093806 -0.230223 0.10863231 -0.13528384 -0.308668 0.24409927 0.103860505 -0.3641015 -0.1777271 0.15018293 0.33929348 0.3825919 -0.28573743 0.11432973 -0.08504666 0.0019045204 -0.08141536 0.32214737 0.36639166 -0.6211671 0.45872253 0.6571695 -0.42403266 0.23143744 0.6004142 -0.3604298 -0.5027278 0.22827423
1090 -0.018434636 -0.68193907 0.5036627 0.007409267 0.04935798 -0.15743771 -0.099519804 0.13715227 -0.69163126 -0.15774521 0.062961206 0.10205758 0.3070886 -0.15414575 -0.12051281 0.1386207 0.3081943 -0.2577257 0.36954647 0.10547126 -0.34553474 0.22392915 0.09191268 0.14540407 -0.2875471 0.049190544 -0.5439582 -0.13393849 -0.1047246 -0.596752 0.47229418 0.19349341
1227 0.33153254 -0.6401191 1.8668718 1.005619 2.6580813 -0.5923027 -1.5100708 -3.0101662 -2.635663 0.13805321 1.5449163 0.109902404 1.3110867 -0.89944375 -0.16471 1.3689278 0.06842811 0.898072 1.0985206 0.8481581 -1.6081527 1.5125172 3.170499 -0.11994758 -0.11672244 0.75632894 1.8404249 -0.2739258 1.6354792 -1.7525891 0.15248144 0.58262694
1451 0.30534062 -0.6390807 1.8404629 1.0331753 2.6453722 -0.56547594 -1.4586674 -3.0128148 -2.669035 0.13039093 1.5197283 0.20979403 1.265854 -0.89544374 -0.12632489 1.3128393 0.053283993 0.92090094 1.0913496 0.8126563 -1.6752031 1.4208968 3.1836498 -0.08251603 -0.10754158 0.7740659 1.9675579 -0.29650444 1.6671591 -1.7206004 0.09479775 0.59657615
1196 0.16219716 -0.8250165 0.015201632 0.9421554 0.34270307 0.5006053 0.1629315 0.3584387 -0.13783404 -0.20886397 0.6480404 0.04352136 -0.08546556 -0.39855513 0.7691177 0.40466365 -0.5342944 0.021055492 -0.064824134 -0.19101672 -0.6073081 0.10782157 0.084272176 -0.32272038 -0.5540113 0.3098172 -0.09781226 0.7546042 0.43382868 -0.3698758 -0.022415787 -0.05155018
1511 0.07050084 -0.25839075 -0.067384504 0.041887905 -0.67703474 0.6083186 -0.3152894 -0.10573593 -0.2504237 0.25821486 0.44256353 -0.322272 0.11885443 -0.050475262 0.36635906 0.55063564 0.053245325 0.39163432 -0.06477171 -0.59547734 -0.3652939 0.49639004 0.8093015 -0.811929 0.360881 -0.11209729 0.47319448 0.1768154 -0.22364105 -0.8336114 0.31921083 -0.31351313
1656 0.0134756155 -0.49370438 0.11815896 0.0070950408 0.09730019 -0.69909483 -0.12384255 -0.03423594 -0.71494055 -0.6959518 0.62176573 -0.23424569 -0.22767285 0.13988928 -0.02302357 0.0064638346 0.020877197 -0.44188607 -0.535781 0.03657467 -0.06768856 0.16185725 0.14888257 0.15729435 -0.49567652 0.28906992 0.25892717 0.3275347 -0.072108164 -0.63407683 0.4447165 0.007594716
1489 -0.22899371 0.2378422 0.019538552 -0.048239946 0.36809024 -1.3728175 -0.037906144 0.21297814 -0.6690198 -0.24893343 0.9829133 0.42544514 0.08471862 -0.5353305 -0.33094373 0.2952918 -0.2989151 -0.11379767 -0.6000263 0.58450073 0.4275676 0.09195932 0.5796364 -0.48024637 -0.59231406 0.18487102 0.185119 0.16109575 -0.1771752 -0.24185438 0.15511808 -0.49667704
1308 0.12929937 -0.39253008 -0.26274002 0.467479 -0.3089675 0.0154508995 -0.59397787 -0.0059139095 0.045473605 -0.12098361 0.3600675 -0.10930904 0.7536411 -0.16697703 -0.23551 0.41166282 -0.0073949564 0.22411627 0.5079031 0.012796971 -0.14023468 0.21086249 0.29556918 -0.5458383 -0.41472882 0.5730253 -0.5337486 -0.5855965 0.18737894 -0.84471285 -0.17840731 0.27245814
1005 -1.276069 -1.3991761 -0.024546593 -0.6683443 0.8314367 -0.77489525 -0.78088194 -1.5555937 -1.3505363 0.2653167 -1.3598862 -0.5045592 1.0957873 1.2785194 -0.22705583 1.0083188 -0.5843829 0.6176008 -0.71129733 0.6009215 0.19164827 0.07571256 1.4747947 -1.0662233 -0.15024903 -0.62546676 0.32889146 1.2464252 -0.20733133 -2.24036 1.0141811 0.91040295
1182 -0.86469376 -0.14895633 0.46479648 0.27646405 -0.011695635 0.0028998998 -0.25767028 -0.27560678 -0.262854 -0.8812683 0.4705736 -0.50696325 0.45792133 -0.5665719 -0.7285926 -0.31464845 0.50103706 0.82325566 -0.25254014 0.46515742 0.3486433 0.6675955 0.5499952 -0.29292125 -0.5280731 0.38393527 0.23415561 0.44287595 0.13911691 -0.042062297 0.08486939 -0.5800187
1482 -0.028404696 -0.7658377 -0.015943697 -0.25274256 -0.2539296 0.13371608 -0.09175389 -0.07607989 -0.37788403 -0.17859346 0.37373644 -0.55775905 -0.076558225 0.7201938 -0.12588665 0.7513944 0.1666751 0.27317876 -0.5056115 -0.06307882 0.40614358 0.7940209 0.10139131 0.15346192 -0.08228397 0.19365878 -0.7704137 -0.9344217 0.05563971 -0.8809019 0.61729103 -0.2497105
1267 0.10485857 -0.57129616 0.46766225 -0.1671576 -0.22283824 -0.13800064 -0.8390343 0.11333775 -0.753067 0.0067281807 0.3278023 -0.51866543 -0.25399587 -0.40961844 0.5569559 0.9586121 0.47583085 0.48980343 0.35586786 0.37902385 0.38325965 -0.22165042 0.9562858 0.085383 -0.015846174 -0.001945269 -0.13006707 -0.117213994 0.38330665 -0.06293466 -0.41220373 -0.47516453
1312 0.64452803 0.44854015 -0.24840154 -0.23466587 0.1354383 -0.57142276 -1.3887855 -0.27328956 -0.88665795 -0.946142 0.3351988 0.35509565 -0.10526736 -0.17869261 -0.54322916 0.9734437 -0.22989953 -0.070908934 -0.094272435 0.25898227 -0.20252681 -0.5518631 1.3706563 -0.60273445 0.19723305 0.86626107 0.16664042 0.6123999 -0.24945448 -0.6854409 1.0547975 0.43409672
1608 0.44202378 -0.5235877 -0.16512103 -0.8012696 -0.22716013 0.14032927 0.031184338 -0.23976344 -0.41350198 0.02731328 0.7667735 -0.36642554 0.014177261 -0.50414735 0.55207604 0.4115918 -0.09102612 0.0032793619 0.26226205 -0.49893028 0.2234068 -0.26142123 -0.16563913 -0.38894093 0.053871468 -0.42343956 0.10491498 0.57809526 -0.11857381 -0.7637402 0.31154683 -0.041837845
1906 -0.08937791 -0.8562219 0.0950141 -0.13067102 -0.24146032 -0.051158015 0.2648119 0.33107674 -0.1915674 0.065473795 0.5211247 0.17063679 -0.29523963 0.27594692 0.06358745 0.36881733 -0.57126784 0.5961052 0.30732048 0.1775158 0.29921913 0.7856429 0.31213096 0.22449145 0.14696954 -0.63932836 -0.7120591 -0.417322 -0.096243896 -0.57019806 0.4903025 -0.20262055
1218 0.12982148 -1.0990037 0.26709506 0.29915476 0.33005735 0.5927352 -0.61086494 -0.023258433 0.3104658 0.37217546 0.29785168 0.27021086 0.5781505 0.20254527 -0.011548588 0.24108702 0.4597508 -0.3713115 -0.47155702 0.17838901 0.04244679 0.5857307 0.055137068 -0.21949051 0.032426815 1.162304 0.119527325 0.12822047 0.04147772 -0.59117955 -0.041149016 0.4802039
1410 1.2497442 -0.44724947 0.4348031 1.3855172 -0.2667572 -1.2505733 0.043291233 -0.38936138 -0.75599587 -0.68307465 0.10844039 0.030005332 0.35993764 -0.31544688 0.9091192 0.07411936 -0.5534215 0.90013266 0.101298414 0.62298495 0.5442144 0.6122235 1.0825229 -0.21210247 -1.3069992 0.16907345 0.5818817 1.0714048 -1.0845172 -0.49686947 0.49966416 0.27267113
1623 0.1449321 -0.10625762 -0.44299075 -0.4004602 0.49370247 -0.1965549 0.36300454 -0.38029033 -0.05232423 -0.1554317 0.16978179 -0.4596184 0.26052755 -0.2790418 -0.017567124 -0.11433041 -0.027808204 -0.03787724 0.31163698 -0.052537348 0.28728837 0.4659286 0.43664715 -0.41223887 0.89444405 -0.2084255 -0.7438893 0.089495406 0.23300233 -0.13769121 0.8071002 -0.38911566
1017 -0.12512074 -0.62743783 0.41835216 -0.053443987 0.6067046 -0.26627338 0.28937623 0.10266629 -0.89911467 0.062560506 -0.059647635 -0.46798804 -0.27890646 -0.18940733 -0.563931 0.3509836 0.48539805 0.20062101 -0.0959769 0.060289536 0.03041694 0.036647063 0.26504803 -0.16480166 -0.37196785 0.3289507 -0.14832044 0.5887861 0.02934786 0.3393366 0.5903024 0.77660525
1385 1.1494788 -1.1773666 -0.37701944 0.79745626 0.77976155 0.48184505 0.46094155 0.4114907 -0.014804832 0.58713454 1.0857496 0.09195707 -0.4498509 0.3741389 -0.48122638 0.8963744 -0.6199997 -0.4396492 -0.19498262 0.015768835 0.21223824 0.3735693 0.40078104 -0.81047994 0.08689109 0.30565828 -0.08899235 0.8176126 0.6424027 -0.36172655 -0.3012976 0.4043666
1542 0.049883842 -0.38767093 -0.16505274 -0.14622095 0.019774588 0.21900152 0.05402575 0.27119443 0.060790196 0.1303493 0.24103732 0.40763187 0.31231406 -0.12887263 0.8088604 0.32762817 -0.45600513 0.08189668 0.21963303 -0.1994482 1.0422304 0.1592532 -0.16866273 -0.8455157 0.27453235 -0.114464015 -0.582103 0.53834164 -0.13356297 -0.28240913 0.12846117 -0.30588156
1580 0.4193383 0.059695598 0.244377 -0.2801704 0.18569966 -0.10460152 0.27669036 -0.3560639 -0.66983265 -0.5124485 -0.12879053 0.15821245 0.6012514 -0.14042415 -0.043566033 0.20291486 -0.047005538 0.36286843 0.080317065 -0.13685822 0.53133166 -0.28717622 0.2604828 -0.31465837 0.04488359 0.06619586 -0.9226438 0.033815846 0.52371377 -0.07153611 0.89299667 0.1209978
1253 -0.24717177 -0.0066270065 0.18402047 0.5889408 1.1244218 -0.29088748 -0.24729122 0.41434556 0.12486807 0.5284603 0.21383764 0.7705845 0.28196153 -0.21741146 0.8232561 1.0931376 0.2942693 0.07211727 0.24206296 0.07021935 -0.04707609 0.5277188 -0.04115632 -0.7482249 0.4858493 0.120129414 -0.5424821 0.4396354 0.029273242 -0.6417445 -0.6051119 0.40413794
1342 0.11286465 -0.12354184 -0.225051 -0.23161604 0.12911664 -0.59800154 0.22408736 -0.39963368 0.024655186 -0.3890795 0.73630846 0.36795798 -0.23676369 0.21716394 0.063128255 -0.37898558 0.19569726 -0.60964155 -0.17955554 0.8081335 0.2807127 0.043315418 0.9236346 0.16286758 -0.12424237 0.38299465 -0.50822145 0.31400377 -0.0072010853 -0.5705176 0.28669807 -0.32163647
1944 0.2556474 -0.4380295 -0.086603574 0.49136326 -0.24490061 -0.30637375 -0.12400282 -0.12973121 0.19820705 0.17627922 -0.14669886 -0.09087728 0.322907 -0.42570361 -0.054092363 0.7021409 -0.2105109 -0.3514034 0.36852384 0.63419783 0.44191605 0.55290025 -0.1570729 -0.13477945 -0.094684996 0.4988974 0.30879438 -0.6206059 0.34331143 -0.7705183 0.45754677 -0.42745775
1531 0.22825965 -0.5417848 -0.17527017 0.18474464 0.19928621 0.0042123334 -0.87059563 -0.42692566 -0.14399473 -0.019011274 -0.2384286 0.041973732 -0.10439922 -0.48044118 0.53685135 1.0251129 0.34570044 1.0795693 0.6819979 0.38591844 0.31322232 0.27050686 -0.03864582 0.23704125 0.10310983 1.2326363 -0.3204165 -0.096353754 0.16009484 0.07227151 0.9528014 -0.4712149
1067 0.29352865 0.21007629 0.46221557 -0.042793777 0.394447 -0.68985426 0.05952221 0.35432118 -0.9825141 -0.39665648 0.25561196 0.56592804 0.28308368 -0.8089817 -0.42783198 0.44883823 -0.4275167 -0.14409898 -0.44209364 0.66722715 0.14908971 -0.097709805 0.6259088 -0.495235 -0.48881954 0.91810393 0.100732245 0.13980319 -0.6233823 -0.28772724 0.9620598 0.040649883
1617 0.54386747 -1.1493924 0.36976683 0.7333328 0.616756 0.6600711 -0.25620547 0.28993303 0.13119884 -0.103809915 0.036986563 -0.0015686019 -0.24613258 -0.11629313 0.4496996 -0.11651454 0.36719012 -0.03334768 -0.04751312 -0.03282035 0.019346517 0.53330356 -0.46159548 -0.29823467 -0.3962971 0.96458524 -0.3131389 1.3708761 0.50518775 -0.88475895 -0.022349473 -0.0023524126
1213 0.69974536 -0.8597419 0.97354615 -0.52600485 0.35278088 0.85654306 0.0699952 -0.5244802 -0.799539 -0.56975645 0.25131422 -0.10436635 -0.013577103 0.07619416 0.10484156 -0.5122693 0.15942648 0.49807966 0.34480232 0.543665 -0.13452889 0.45833093 -0.12604651 -0.02505831 -0.43296915 0.30467427 -0.4153546 1.0457633 1.105565 -0.59472156 0.58109903 -0.14865853
1668 -0.2772598 -0.71638846 0.37305695 0.047321893 0.17821614 -0.19895081 0.1135596 0.2302247 -0.28997055 -0.14549735 0.13884757 -0.053111427 0.3875661 -0.27359876 0.28873408 -0.029166715 0.008959968 -0.2387209 0.34629306 -0.17330691 -0.124875896 0.12399089 0.1649296 0.062444024 -0.34042284 0.45307726 -0.6448279 -0.15212218 0.14587012 -0.61345893 0.3363917 -0.10754689
1660 0.4113914 -0.21556115 0.6862001 -0.31294042 0.700953 0.34156686 -0.2900922 -0.09059758 -0.03391971 0.5635284 0.8767089 -0.65184057 0.025496317 -0.175356 -0.2874937 0.058065902 -0.074498236 0.9267558 0.61674666 0.6333865 -0.40586242 0.64229226 0.32711712 -0.18229803 0.16102596 -0.1316278 -0.4631395 0.4023604 -0.3611376 0.23815672 0.48295125 -0.047522876
1230 0.51322836 -0.11212025 -0.06907557 0.39068133 0.36254206 -0.46793085 0.20162094 -0.15567054 -0.23169306 -0.0734895 -0.0898802 0.19010924 0.05444024 -0.086686015 0.45895997 0.7656011 -0.09721382 0.26695636 -0.44280118 0.04868993 0.010881558 0.75376695 0.8630177 -0.39452913 -0.6153762 -0.06600992 -0.24441668 0.45846152 -0.5233083 0.08884041 -0.76150197 -0.054063175
2184 0.43016285 -0.36529958 -0.16714746 0.5065674 -0.04507284 0.11221054 0.26637247 -0.69105035 -0.5739712 -0.3407198 0.18984218 -0.25608855 -0.042462308 0.32815665 -0.026683096 0.7363742 -0.25584668 0.60333204 -1.0391113 -0.15168725 -0.076644816 0.4503872 0.4266594 -0.5143201 0.008409838 -0.052291512 -0.773043 0.10786429 0.2825446 -0.19380605 -0.54662263 -0.06100185
1144 0.4796938 -1.1149058 0.016252102 0.3835312 0.09244124 -0.23374316 -0.45752206 -0.02704955 -0.41434953 0.3729336 0.45696416 0.011856884 0.65764725 -0.06727069 0.25146064 -0.5542489 -0.04553296 -0.20192258 -0.44686097 -0.3256347 -0.29522055 0.47422448 0.023223676 -0.6270837 0.08932984 -0.3892137 -0.119329035 0.009037136 -0.11024194 -0.31596044 0.5014326 0.43389463
2108 0.6398982 -0.469663 -0.77450734 0.16979197 0.3164693 0.012982451 -0.3453209 -0.46417218 -0.072828114 -0.2278745 -0.12207199 -0.3549229 0.20732431 -0.34031656 -0.33029032 0.53341454 -0.22845061 0.19599381 0.20006895 0.12930302 0.08040413 0.6541035 0.9346029 -0.5289746 -0.16512632 0.07178659 -0.29407626 -0.10749351 -0.3966219 0.05699022 -0.48662084 -0.44866636
1161 0.35008425 -0.5028254 0.46435446 -0.2891705 -0.26777 0.028984394 -0.2655485 0.2579837 -0.663711 0.031152043 0.29177576 -0.86748594 0.4310518 -0.4887674 0.85286266 0.18642737 -0.12577549 0.6006068 0.29255533 0.52556854 -1.0341185 0.3666265 -0.021271626 -0.94285446 0.56514573 0.02148833 -0.28908783 0.7057895 -0.31791323 -0.37073645 -0.15097839 0.6284435
1180 0.30031133 -0.64310527 0.041069515 0.5632105 -0.16409093 -0.11759572 -0.3185473 -0.323046 -0.09627891 -0.14515476 -0.20167743 0.029024066 0.13628797 0.22873695 -0.5188265 0.43356693 -0.526976 0.020400392 0.36460513 -0.12798277 -0.05477026 0.14238611 0.84394944 -0.4548072 0.4152497 0.8487385 -0.8079292 0.062297266 -0.0876982 0.078211896 -0.12075189 -0.111036345
1757 -0.08384582 -0.2416165 0.157096 -0.080495454 0.36464742 -0.85753894 -0.17885295 0.08666328 -0.6401328 -0.48655146 0.49194327 0.22256236 -0.39094603 0.04349795 -0.15315676 0.020226426 -0.33944264 -0.6357027 -0.3294512 0.6180469 0.44643772 0.048161123 0.5214196 -0.08580377 -0.558561 0.25138474 -0.012883132 0.15810597 -0.29639176 -0.27157807 0.82959193 -0.11606203
1381 -0.20520075 -0.6653561 -0.15675466 0.8179907 -0.2592019 0.9405196 0.8912147 -1.2328521 -0.88689286 -0.67951256 0.66501945 0.26455462 -0.12918095 0.003279554 0.39556485 1.4159367 -0.32882804 0.34262413 -0.5079624 0.7785688 -0.11833665 -0.372173 0.556814 -1.1366451 0.37579748 -0.51623994 -0.12924887 0.44136462 -0.34217584 -1.2230467 0.20392625 0.11998853
1785 -0.31729814 -1.2348429 0.22696505 0.5018011 0.72158456 0.09366374 -0.21045199 0.36275974 -0.006304518 -0.023350157 0.97966367 0.676765 0.2321152 0.5828911 0.56476325 0.08263061 0.043596584 -0.12790237 0.37202403 0.12625872 0.73670715 0.3447327 0.15165198 -0.5768206 -0.38526562 -0.24806905 0.12835205 0.6770371 -0.4671561 -0.09532449 -0.37940332 -0.64946294
1028 0.22091776 -0.63677394 0.7658911 -0.47099087 0.5188784 0.49787477 0.33056903 -0.082191214 -0.67209476 -0.36348063 0.043517224 -0.32692593 -0.24789602 -0.55254096 -0.22501013 -0.0012044631 0.05580913 0.6732791 0.8028571 0.77891034 -0.3019293 0.5307835 -0.1668172 0.054771487 -0.24498191 0.30844432 -0.52795404 0.83435726 0.70002395 -0.0010114335 0.4163644 0.07189756
1200 0.10962799 -0.729832 0.46758395 -0.11829415 -0.2611108 -0.105792485 -0.784611 0.058305155 -0.626321 0.081093535 0.38900843 -0.54366523 -0.19816196 -0.24815308 0.5295045 1.0316677 0.29321337 0.6479549 0.5015491 0.42826658 0.5957319 -0.3256887 1.066758 0.075907245 -0.11521421 0.120206736 0.15792231 -0.12464309 0.2359405 -0.06542999 -0.5179247 -0.29967776
1502 0.008427895 -0.039076786 0.05129319 -0.7712406 0.031107184 -0.101052515 0.38425666 0.07553722 -0.19334017 0.1061396 0.92916125 0.2870946 0.3167514 0.19411038 0.48494756 0.4422909 0.38708478 0.1551227 -0.5753879 0.20972124 0.14550638 0.11660166 0.3156522 -0.18598323 0.07093843 0.3605155 -1.3105093 0.34546676 0.18547928 0.10600294 0.24997824 0.21368836
1141 0.31536412 -0.647422 1.1614628 -0.2274929 0.013196709 0.003367677 -0.09894307 0.068079166 -0.26247218 -0.05750475 -0.13098423 -0.21965154 0.3329141 -0.4447034 -0.48390105 0.43634352 0.34134147 -0.64285016 -0.075696565 -0.036991358 -0.18021911 0.4386383 -0.32408074 -0.3387124 0.09403485 -0.28289962 -1.152695 0.17882401 0.100345664 -0.8375581 0.49858785 -0.049538266
1875 0.20524797 -0.2546031 -0.3265957 0.49737597 0.36102942 0.3564034 -0.8934602 -0.024605121 -0.09903587 -0.36494347 0.2217704 0.28120995 0.16344538 -0.3974106 0.124340616 0.35430554 -0.12986702 0.32804054 0.3453437 0.0031873824 -0.06735267 -0.08384269 0.84099984 -0.17239769 0.60853314 1.0148546 -0.82530314 -0.51218224 0.11059517 -0.31414676 0.5985274 -0.06454099
1549 -1.1867156 -1.2926589 1.2045256 0.015170546 0.99177694 0.073508434 -1.1377212 0.5510394 -0.01871584 -1.2890222 0.667142 -0.48600477 0.6082552 -0.94950354 -0.39476436 0.00478144 -0.28941086 0.22077392 0.048172664 0.45483753 0.24481457 0.70770264 1.6894039 -0.77277756 0.1267892 1.222118 1.5143511 0.88066995 -0.2792806 -0.05055792 0.801697 -0.47300473
1696 0.23960118 0.260679 0.15919065 0.10369257 0.18867235 -1.12856 -0.117673285 0.27003288 -0.8678198 -0.4393344 0.51125085 0.13198973 -0.06038494 -0.45224917 -0.09703439 0.5151207 -0.36101434 -0.38845447 -0.65758985 0.26540244 0.4549325 0.22116867 0.52770174 -0.3046406 -0.4312781 0.5297846 0.30577347 0.42737168 -0.5780853 -0.35071 0.6879817 -0.3980055
1540 -0.5232759 -0.005513765 0.2538872 -0.47186783 1.0172989 0.008595867 0.08112119 -0.5526717 -0.048855297 -0.033293325 0.7272088 -0.4814523 0.22928527 0.17861418 0.31153694 -0.24503562 -0.22388314 0.39325395 0.6593363 0.2957683 -0.040023718 0.7617184 0.61696976 -0.03528424 0.41119453 -0.21294637 -0.7531166 -0.369661 0.19053544 -0.39267024 0.19662516 -0.59126925
1824 0.38510886 -0.62561405 0.34629104 0.44044772 -0.37462425 0.23010215 0.16384155 0.10350115 -0.23548779 0.046088487 0.66960704 -0.086375885 0.06663202 -0.47078925 0.4614678 0.14087322 -0.08934784 0.4135661 0.17370081 0.05507194 -0.47362265 -0.015377411 0.27165267 -0.61332715 0.2827842 -0.34420803 -0.37641355 0.5309323 0.11112821 -0.37388828 -0.014394299 0.48554552
1499 -0.81110954 -0.5885527 0.27901113 0.059726957 0.49988607 -0.1480934 0.03061415 -0.26681367 -0.5332269 -0.1080919 0.68190527 -0.3792668 -0.18491466 0.037249986 0.1395145 0.1679041 -0.57088494 0.60956085 0.9854343 0.024965765 0.032005567 0.70120126 0.5926146 0.13564159 0.21710436 -1.0686175 -0.72285783 -0.49925444 0.6532729 -0.7616281 0.06127813 -0.81759405
1255 -0.8251054 -0.6557245 0.7850181 0.0014460024 0.277733 0.28415713 -0.5930694 0.21218078 0.057702802 -1.0298133 0.5822039 -0.44963568 0.8308102 -0.66049534 -0.16940153 -0.12834655 0.11762508 0.22895804 -0.00947462 0.034220554 0.54421264 0.69119567 0.8364117 -0.2998528 -0.016630521 0.5014381 0.71481127 0.60861534 0.09074134 0.31246832 0.2992088 -0.37471876
1132 0.17041732 -0.0014249223 -0.08464408 -0.24835208 0.21088699 -0.8234975 -0.2378148 -0.14414479 -0.08119237 -0.50810575 0.18548422 -0.08230598 -0.8068996 -0.39386293 -0.15829057 -0.09109036 -0.49939445 -0.09659249 -0.38416335 0.066792615 0.6732705 0.5407413 0.28029138 -0.25860527 -0.4198784 0.038448468 -0.19130705 0.28054887 -0.040240247 -0.6542007 0.8180944 -0.39558765
